{"learner":{"attributes":{"scikit_learn":"{\"_estimator_type\": \"regressor\"}"},"feature_names":[],"feature_types":[],"gradient_booster":{"model":{"gbtree_model_param":{"num_parallel_tree":"1","num_trees":"1500"},"iteration_indptr":[0,1,2,3,4,5,6,7,8,9,10,11,12,13,14,15,16,17,18,19,20,21,22,23,24,25,26,27,28,29,30,31,32,33,34,35,36,37,38,39,40,41,42,43,44,45,46,47,48,49,50,51,52,53,54,55,56,57,58,59,60,61,62,63,64,65,66,67,68,69,70,71,72,73,74,75,76,77,78,79,80,81,82,83,84,85,86,87,88,89,90,91,92,93,94,95,96,97,98,99,100,101,102,103,104,105,106,107,108,109,110,111,112,113,114,115,116,117,118,119,120,121,122,123,124,125,126,127,128,129,130,131,132,133,134,135,136,137,138,139,140,141,142,143,144,145,146,147,148,149,150,151,152,153,154,155,156,157,158,159,160,161,162,163,164,165,166,167,168,169,170,171,172,173,174,175,176,177,178,179,180,181,182,183,184,185,186,187,188,189,190,191,192,193,194,195,196,197,198,199,200,201,202,203,204,205,206,207,208,209,210,211,212,213,214,215,216,217,218,219,220,221,222,223,224,225,226,227,228,229,230,231,232,233,234,235,236,237,238,239,240,241,242,243,244,245,246,247,248,249,250,251,252,253,254,255,256,257,258,259,260,261,262,263,264,265,266,267,268,269,270,271,272,273,274,275,276,277,278,279,280,281,282,283,284,285,286,287,288,289,290,291,292,293,294,295,296,297,298,299,300,301,302,303,304,305,306,307,308,309,310,311,312,313,314,315,316,317,318,319,320,321,322,323,324,325,326,327,328,329,330,331,332,333,334,335,336,337,338,339,340,341,342,343,344,345,346,347,348,349,350,351,352,353,354,355,356,357,358,359,360,361,362,363,364,365,366,367,368,369,370,371,372,373,374,375,376,377,378,379,380,381,382,383,384,385,386,387,388,389,390,391,392,393,394,395,396,397,398,399,400,401,402,403,404,405,406,407,408,409,410,411,412,413,414,415,416,417,418,419,420,421,422,423,424,425,426,427,428,429,430,431,432,433,434,435,436,437,438,439,440,441,442,443,444,445,446,447,448,449,450,451,452,453,454,455,456,457,458,459,460,461,462,463,464,465,466,467,468,469,470,471,472,473,474,475,476,477,478,479,480,481,482,483,484,485,486,487,488,489,490,491,492,493,494,495,496,497,498,499,500,501,502,503,504,505,506,507,508,509,510,511,512,513,514,515,516,517,518,519,520,521,522,523,524,525,526,527,528,529,530,531,532,533,534,535,536,537,538,539,540,541,542,543,544,545,546,547,548,549,550,551,552,553,554,555,556,557,558,559,560,561,562,563,564,565,566,567,568,569,570,571,572,573,574,575,576,577,578,579,580,581,582,583,584,585,586,587,588,589,590,591,592,593,594,595,596,597,598,599,600,601,602,603,604,605,606,607,608,609,610,611,612,613,614,615,616,617,618,619,620,621,622,623,624,625,626,627,628,629,630,631,632,633,634,635,636,637,638,639,640,641,642,643,644,645,646,647,648,649,650,651,652,653,654,655,656,657,658,659,660,661,662,663,664,665,666,667,668,669,670,671,672,673,674,675,676,677,678,679,680,681,682,683,684,685,686,687,688,689,690,691,692,693,694,695,696,697,698,699,700,701,702,703,704,705,706,707,708,709,710,711,712,713,714,715,716,717,718,719,720,721,722,723,724,725,726,727,728,729,730,731,732,733,734,735,736,737,738,739,740,741,742,743,744,745,746,747,748,749,750,751,752,753,754,755,756,757,758,759,760,761,762,763,764,765,766,767,768,769,770,771,772,773,774,775,776,777,778,779,780,781,782,783,784,785,786,787,788,789,790,791,792,793,794,795,796,797,798,799,800,801,802,803,804,805,806,807,808,809,810,811,812,813,814,815,816,817,818,819,820,821,822,823,824,825,826,827,828,829,830,831,832,833,834,835,836,837,838,839,840,841,842,843,844,845,846,847,848,849,850,851,852,853,854,855,856,857,858,859,860,861,862,863,864,865,866,867,868,869,870,871,872,873,874,875,876,877,878,879,880,881,882,883,884,885,886,887,888,889,890,891,892,893,894,895,896,897,898,899,900,901,902,903,904,905,906,907,908,909,910,911,912,913,914,915,916,917,918,919,920,921,922,923,924,925,926,927,928,929,930,931,932,933,934,935,936,937,938,939,940,941,942,943,944,945,946,947,948,949,950,951,952,953,954,955,956,957,958,959,960,961,962,963,964,965,966,967,968,969,970,971,972,973,974,975,976,977,978,979,980,981,982,983,984,985,986,987,988,989,990,991,992,993,994,995,996,997,998,999,1000,1001,1002,1003,1004,1005,1006,1007,1008,1009,1010,1011,1012,1013,1014,1015,1016,1017,1018,1019,1020,1021,1022,1023,1024,1025,1026,1027,1028,1029,1030,1031,1032,1033,1034,1035,1036,1037,1038,1039,1040,1041,1042,1043,1044,1045,1046,1047,1048,1049,1050,1051,1052,1053,1054,1055,1056,1057,1058,1059,1060,1061,1062,1063,1064,1065,1066,1067,1068,1069,1070,1071,1072,1073,1074,1075,1076,1077,1078,1079,1080,1081,1082,1083,1084,1085,1086,1087,1088,1089,1090,1091,1092,1093,1094,1095,1096,1097,1098,1099,1100,1101,1102,1103,1104,1105,1106,1107,1108,1109,1110,1111,1112,1113,1114,1115,1116,1117,1118,1119,1120,1121,1122,1123,1124,1125,1126,1127,1128,1129,1130,1131,1132,1133,1134,1135,1136,1137,1138,1139,1140,1141,1142,1143,1144,1145,1146,1147,1148,1149,1150,1151,1152,1153,1154,1155,1156,1157,1158,1159,1160,1161,1162,1163,1164,1165,1166,1167,1168,1169,1170,1171,1172,1173,1174,1175,1176,1177,1178,1179,1180,1181,1182,1183,1184,1185,1186,1187,1188,1189,1190,1191,1192,1193,1194,1195,1196,1197,1198,1199,1200,1201,1202,1203,1204,1205,1206,1207,1208,1209,1210,1211,1212,1213,1214,1215,1216,1217,1218,1219,1220,1221,1222,1223,1224,1225,1226,1227,1228,1229,1230,1231,1232,1233,1234,1235,1236,1237,1238,1239,1240,1241,1242,1243,1244,1245,1246,1247,1248,1249,1250,1251,1252,1253,1254,1255,1256,1257,1258,1259,1260,1261,1262,1263,1264,1265,1266,1267,1268,1269,1270,1271,1272,1273,1274,1275,1276,1277,1278,1279,1280,1281,1282,1283,1284,1285,1286,1287,1288,1289,1290,1291,1292,1293,1294,1295,1296,1297,1298,1299,1300,1301,1302,1303,1304,1305,1306,1307,1308,1309,1310,1311,1312,1313,1314,1315,1316,1317,1318,1319,1320,1321,1322,1323,1324,1325,1326,1327,1328,1329,1330,1331,1332,1333,1334,1335,1336,1337,1338,1339,1340,1341,1342,1343,1344,1345,1346,1347,1348,1349,1350,1351,1352,1353,1354,1355,1356,1357,1358,1359,1360,1361,1362,1363,1364,1365,1366,1367,1368,1369,1370,1371,1372,1373,1374,1375,1376,1377,1378,1379,1380,1381,1382,1383,1384,1385,1386,1387,1388,1389,1390,1391,1392,1393,1394,1395,1396,1397,1398,1399,1400,1401,1402,1403,1404,1405,1406,1407,1408,1409,1410,1411,1412,1413,1414,1415,1416,1417,1418,1419,1420,1421,1422,1423,1424,1425,1426,1427,1428,1429,1430,1431,1432,1433,1434,1435,1436,1437,1438,1439,1440,1441,1442,1443,1444,1445,1446,1447,1448,1449,1450,1451,1452,1453,1454,1455,1456,1457,1458,1459,1460,1461,1462,1463,1464,1465,1466,1467,1468,1469,1470,1471,1472,1473,1474,1475,1476,1477,1478,1479,1480,1481,1482,1483,1484,1485,1486,1487,1488,1489,1490,1491,1492,1493,1494,1495,1496,1497,1498,1499,1500],"tree_info":[0,0,0,0,0,0,0,0,0,0,0,0,0,0,0,0,0,0,0,0,0,0,0,0,0,0,0,0,0,0,0,0,0,0,0,0,0,0,0,0,0,0,0,0,0,0,0,0,0,0,0,0,0,0,0,0,0,0,0,0,0,0,0,0,0,0,0,0,0,0,0,0,0,0,0,0,0,0,0,0,0,0,0,0,0,0,0,0,0,0,0,0,0,0,0,0,0,0,0,0,0,0,0,0,0,0,0,0,0,0,0,0,0,0,0,0,0,0,0,0,0,0,0,0,0,0,0,0,0,0,0,0,0,0,0,0,0,0,0,0,0,0,0,0,0,0,0,0,0,0,0,0,0,0,0,0,0,0,0,0,0,0,0,0,0,0,0,0,0,0,0,0,0,0,0,0,0,0,0,0,0,0,0,0,0,0,0,0,0,0,0,0,0,0,0,0,0,0,0,0,0,0,0,0,0,0,0,0,0,0,0,0,0,0,0,0,0,0,0,0,0,0,0,0,0,0,0,0,0,0,0,0,0,0,0,0,0,0,0,0,0,0,0,0,0,0,0,0,0,0,0,0,0,0,0,0,0,0,0,0,0,0,0,0,0,0,0,0,0,0,0,0,0,0,0,0,0,0,0,0,0,0,0,0,0,0,0,0,0,0,0,0,0,0,0,0,0,0,0,0,0,0,0,0,0,0,0,0,0,0,0,0,0,0,0,0,0,0,0,0,0,0,0,0,0,0,0,0,0,0,0,0,0,0,0,0,0,0,0,0,0,0,0,0,0,0,0,0,0,0,0,0,0,0,0,0,0,0,0,0,0,0,0,0,0,0,0,0,0,0,0,0,0,0,0,0,0,0,0,0,0,0,0,0,0,0,0,0,0,0,0,0,0,0,0,0,0,0,0,0,0,0,0,0,0,0,0,0,0,0,0,0,0,0,0,0,0,0,0,0,0,0,0,0,0,0,0,0,0,0,0,0,0,0,0,0,0,0,0,0,0,0,0,0,0,0,0,0,0,0,0,0,0,0,0,0,0,0,0,0,0,0,0,0,0,0,0,0,0,0,0,0,0,0,0,0,0,0,0,0,0,0,0,0,0,0,0,0,0,0,0,0,0,0,0,0,0,0,0,0,0,0,0,0,0,0,0,0,0,0,0,0,0,0,0,0,0,0,0,0,0,0,0,0,0,0,0,0,0,0,0,0,0,0,0,0,0,0,0,0,0,0,0,0,0,0,0,0,0,0,0,0,0,0,0,0,0,0,0,0,0,0,0,0,0,0,0,0,0,0,0,0,0,0,0,0,0,0,0,0,0,0,0,0,0,0,0,0,0,0,0,0,0,0,0,0,0,0,0,0,0,0,0,0,0,0,0,0,0,0,0,0,0,0,0,0,0,0,0,0,0,0,0,0,0,0,0,0,0,0,0,0,0,0,0,0,0,0,0,0,0,0,0,0,0,0,0,0,0,0,0,0,0,0,0,0,0,0,0,0,0,0,0,0,0,0,0,0,0,0,0,0,0,0,0,0,0,0,0,0,0,0,0,0,0,0,0,0,0,0,0,0,0,0,0,0,0,0,0,0,0,0,0,0,0,0,0,0,0,0,0,0,0,0,0,0,0,0,0,0,0,0,0,0,0,0,0,0,0,0,0,0,0,0,0,0,0,0,0,0,0,0,0,0,0,0,0,0,0,0,0,0,0,0,0,0,0,0,0,0,0,0,0,0,0,0,0,0,0,0,0,0,0,0,0,0,0,0,0,0,0,0,0,0,0,0,0,0,0,0,0,0,0,0,0,0,0,0,0,0,0,0,0,0,0,0,0,0,0,0,0,0,0,0,0,0,0,0,0,0,0,0,0,0,0,0,0,0,0,0,0,0,0,0,0,0,0,0,0,0,0,0,0,0,0,0,0,0,0,0,0,0,0,0,0,0,0,0,0,0,0,0,0,0,0,0,0,0,0,0,0,0,0,0,0,0,0,0,0,0,0,0,0,0,0,0,0,0,0,0,0,0,0,0,0,0,0,0,0,0,0,0,0,0,0,0,0,0,0,0,0,0,0,0,0,0,0,0,0,0,0,0,0,0,0,0,0,0,0,0,0,0,0,0,0,0,0,0,0,0,0,0,0,0,0,0,0,0,0,0,0,0,0,0,0,0,0,0,0,0,0,0,0,0,0,0,0,0,0,0,0,0,0,0,0,0,0,0,0,0,0,0,0,0,0,0,0,0,0,0,0,0,0,0,0,0,0,0,0,0,0,0,0,0,0,0,0,0,0,0,0,0,0,0,0,0,0,0,0,0,0,0,0,0,0,0,0,0,0,0,0,0,0,0,0,0,0,0,0,0,0,0,0,0,0,0,0,0,0,0,0,0,0,0,0,0,0,0,0,0,0,0,0,0,0,0,0,0,0,0,0,0,0,0,0,0,0,0,0,0,0,0,0,0,0,0,0,0,0,0,0,0,0,0,0,0,0,0,0,0,0,0,0,0,0,0,0,0,0,0,0,0,0,0,0,0,0,0,0,0,0,0,0,0,0,0,0,0,0,0,0,0,0,0,0,0,0,0,0,0,0,0,0,0,0,0,0,0,0,0,0,0,0,0,0,0,0,0,0,0,0,0,0,0,0,0,0,0,0,0,0,0,0,0,0,0,0,0,0,0,0,0,0,0,0,0,0,0,0,0,0,0,0,0,0,0,0,0,0,0,0,0,0,0,0,0,0,0,0,0,0,0,0,0,0,0,0,0,0,0,0,0,0,0,0,0,0,0,0,0,0,0,0,0,0,0,0,0,0,0,0,0,0,0,0,0,0,0,0,0,0,0,0,0,0,0,0,0,0,0,0,0,0,0,0,0,0,0,0,0,0,0,0,0,0,0,0,0,0,0,0,0,0,0,0,0,0,0,0,0,0,0,0,0,0,0,0,0,0,0,0,0,0,0,0,0,0,0,0,0,0,0,0,0,0,0,0,0,0,0,0,0,0,0,0,0,0,0,0,0,0,0,0,0,0,0,0,0,0,0,0,0,0,0,0,0,0,0,0,0,0,0,0,0,0,0,0,0,0,0,0,0,0,0,0,0,0,0,0,0,0,0,0,0,0,0,0,0,0,0,0,0,0,0,0,0,0,0,0,0,0,0,0,0,0,0,0,0,0,0,0,0,0,0,0,0,0,0,0,0,0,0,0,0,0,0,0,0,0,0,0,0,0,0,0,0,0,0,0,0,0,0,0,0,0,0,0,0,0,0,0,0,0,0,0,0,0,0,0,0,0,0,0,0,0,0,0,0,0,0,0,0,0,0,0,0,0,0,0,0,0,0,0,0,0,0,0,0,0,0,0,0,0,0,0,0,0,0,0,0,0,0,0,0,0,0,0,0,0,0],"trees":[{"base_weights":[2.3315937E1,-1.06175545E2,1.7879477E2,-2.0558302E0,-6.910729E1,1.1116202E0,2.3450785E0,-7.696221E-1,-1.9153197E-1],"categories":[],"categories_nodes":[],"categories_segments":[],"categories_sizes":[],"default_left":[0,0,0,0,0,0,0,0,0],"id":0,"left_children":[1,3,5,-1,7,-1,-1,-1,-1],"loss_changes":[6.4368706E5,5.7381438E4,4.160228E4,0E0,4.56016E3,0E0,0E0,0E0,0E0],"parents":[2147483647,0,0,1,1,2,2,4,4],"right_children":[2,4,6,-1,8,-1,-1,-1,-1],"split_conditions":[2.21E2,7.2E1,3.87E2,-2.0558302E0,2.08E2,1.1116202E0,2.3450785E0,-7.696221E-1,-1.9153197E-1],"split_indices":[1,1,1,0,1,0,0,0,0],"split_type":[0,0,0,0,0,0,0,0,0],"sum_hessian":[3.1E1,1.7E1,1.4E1,4E0,1.3E1,7E0,7E0,1.1E1,2E0],"tree_param":{"num_deleted":"0","num_feature":"2","num_nodes":"9","size_leaf_vector":"1"}},{"base_weights":[3.5057274E1,-1.1795281E2,1.4698814E2,-1.8037732E2,-2.6557728E1,8.874512E1,2.0867052E0,-2.1096215E0,-1.0936067E0,-5.633636E-1,-5.1933482E-2,3.6809775E-1,1.1414214E0],"categories":[],"categories_nodes":[],"categories_segments":[],"categories_sizes":[],"default_left":[0,0,0,0,0,0,0,0,0,0,0,0,0],"id":1,"left_children":[1,3,5,7,9,11,-1,-1,-1,-1,-1,-1,-1],"loss_changes":[7.8792694E5,1.0885803E5,8.594381E4,1.34429375E4,5.2614316E3,1.702479E4,0E0,0E0,0E0,0E0,0E0,0E0,0E0],"parents":[2147483647,0,0,1,1,2,2,3,3,4,4,5,5],"right_children":[2,4,6,8,10,12,-1,-1,-1,-1,-1,-1,-1],"split_conditions":[2.69E2,1.6E2,3.76E2,1.13E2,2.1E2,3.13E2,2.0867052E0,-2.1096215E0,-1.0936067E0,-5.633636E-1,-5.1933482E-2,3.6809775E-1,1.1414214E0],"split_indices":[1,1,1,1,1,1,0,0,0,0,0,0,0],"split_type":[0,0,0,0,0,0,0,0,0,0,0,0,0],"sum_hessian":[4.5E1,1.9E1,2.6E1,1.1E1,8E0,1.4E1,1.2E1,7E0,4E0,3E0,5E0,5E0,9E0],"tree_param":{"num_deleted":"0","num_feature":"2","num_nodes":"13","size_leaf_vector":"1"}},{"base_weights":[-2.6963436E1,-1.1762184E2,1.6054399E2,-2.063099E2,-4.69558E1,5.790154E-1,1.840552E0,-2.25406E0,-1.1539805E0,-9.0205765E-1,-2.638488E-1],"categories":[],"categories_nodes":[],"categories_segments":[],"categories_sizes":[],"default_left":[0,0,0,0,0,0,0,0,0,0,0],"id":2,"left_children":[1,3,5,7,9,-1,-1,-1,-1,-1,-1],"loss_changes":[4.939168E5,1.17367375E5,1.759736E4,1.7508438E3,9.04142E3,0E0,0E0,0E0,0E0,0E0,0E0],"parents":[2147483647,0,0,1,1,2,2,3,3,4,4],"right_children":[2,4,6,8,10,-1,-1,-1,-1,-1,-1],"split_conditions":[2.72E2,1.41E2,3.2E2,6.2E1,1.8E2,5.790154E-1,1.840552E0,-2.25406E0,-1.1539805E0,-9.0205765E-1,-2.638488E-1],"split_indices":[1,1,1,1,1,0,0,0,0,0,0],"split_type":[0,0,0,0,0,0,0,0,0,0,0],"sum_hessian":[2.8E1,1.9E1,9E0,8E0,1.1E1,2E0,7E0,6E0,2E0,3E0,8E0],"tree_param":{"num_deleted":"0","num_feature":"2","num_nodes":"11","size_leaf_vector":"1"}},{"base_weights":[-3.0831083E1,-1.4064235E2,1.9400043E2,-1.977809E2,-3.871418E1,7.7311486E-1,2.236586E0,-2.1798098E0,-1.4682837E0,-7.792021E-1,-8.5935295E-2],"categories":[],"categories_nodes":[],"categories_segments":[],"categories_sizes":[],"default_left":[0,0,0,0,0,0,0,0,0,0,0],"id":3,"left_children":[1,3,5,7,9,-1,-1,-1,-1,-1,-1],"loss_changes":[1.0135481E6,1.5633225E5,3.8074906E4,2.0089375E3,1.2064763E4,0E0,0E0,0E0,0E0,0E0,0E0],"parents":[2147483647,0,0,1,1,2,2,3,3,4,4],"right_children":[2,4,6,8,10,-1,-1,-1,-1,-1,-1],"split_conditions":[2.75E2,1.3E2,3.57E2,8.3E1,2.13E2,7.7311486E-1,2.236586E0,-2.1798098E0,-1.4682837E0,-7.792021E-1,-8.5935295E-2],"split_indices":[1,1,1,1,1,0,0,0,0,0,0],"split_type":[0,0,0,0,0,0,0,0,0,0,0],"sum_hessian":[4E1,2.7E1,1.3E1,1.7E1,1E1,3E0,1E1,1.1E1,6E0,4E0,6E0],"tree_param":{"num_deleted":"0","num_feature":"2","num_nodes":"11","size_leaf_vector":"1"}},{"base_weights":[-5.2488472E1,-3.0938997E1,-1.3979182E2,-4.3171997E1,1.62869E0,-1.9957114E0,-7.712203E1,-2.8242445E-1,-1.5695992E0,8.251321E-1,-1.5747876E0],"categories":[],"categories_nodes":[],"categories_segments":[],"categories_sizes":[],"default_left":[0,0,0,0,0,0,0,0,0,0,0],"id":4,"left_children":[1,3,5,7,-1,-1,9,-1,-1,-1,-1],"loss_changes":[5.145571E4,5.9230746E4,1.2909305E4,3.600659E4,0E0,0E0,5.139422E4,0E0,0E0,0E0,0E0],"parents":[2147483647,0,0,1,1,2,2,3,3,6,6],"right_children":[2,4,6,8,-1,-1,10,-1,-1,-1,-1],"split_conditions":[4.13207E5,4.09887E5,4.25453E5,3.11325E5,1.62869E0,-1.9957114E0,4.61899E5,-2.8242445E-1,-1.5695992E0,8.251321E-1,-1.5747876E0],"split_indices":[0,0,0,0,0,0,0,0,0,0,0],"split_type":[0,0,0,0,0,0,0,0,0,0,0],"sum_hessian":[2.8E1,2.3E1,5E0,2.2E1,1E0,2E0,3E0,2E1,2E0,1E0,2E0],"tree_param":{"num_deleted":"0","num_feature":"2","num_nodes":"11","size_leaf_vector":"1"}},{"base_weights":[4.4539585E0,1.21816666E2,-2.3560242E1,1.7179714E0,6.9407776E1,-1.8748475E0,3.6921375E0,2.503657E-1,1.4980466E0,3.1842974E-1,-1.1180602E0],"categories":[],"categories_nodes":[],"categories_segments":[],"categories_sizes":[],"default_left":[0,0,0,0,0,0,0,0,0,0,0],"id":5,"left_children":[1,3,5,-1,7,-1,9,-1,-1,-1,-1],"loss_changes":[1.2801619E5,1.3683641E4,1.410671E5,0E0,1.4177586E4,0E0,9.1192805E4,0E0,0E0,0E0,0E0],"parents":[2147483647,0,0,1,1,2,2,4,4,6,6],"right_children":[2,4,6,-1,8,-1,10,-1,-1,-1,-1],"split_conditions":[1.02421E5,5.8634E4,1.06155E5,1.7179714E0,9.6136E4,-1.8748475E0,4.42565E5,2.503657E-1,1.4980466E0,3.1842974E-1,-1.1180602E0],"split_indices":[0,0,0,0,0,0,0,0,0,0,0],"split_type":[0,0,0,0,0,0,0,0,0,0,0],"sum_hessian":[3.8E1,7E0,3.1E1,3E0,4E0,4E0,2.7E1,3E0,1E0,2.2E1,5E0],"tree_param":{"num_deleted":"0","num_feature":"2","num_nodes":"11","size_leaf_vector":"1"}},{"base_weights":[3.8429832E1,-1.0715925E2,1.672409E2,-1.9055429E0,-5.043092E1,8.9450485E1,2.5349724E0,-6.960771E-1,-2.1333706E-2,5.6972736E-1,1.1379637E0],"categories":[],"categories_nodes":[],"categories_segments":[],"categories_sizes":[],"default_left":[0,0,0,0,0,0,0,0,0,0,0],"id":6,"left_children":[1,3,5,-1,7,9,-1,-1,-1,-1,-1],"loss_changes":[6.5595594E5,7.325431E4,1.1279575E5,0E0,9.650771E3,5.060703E3,0E0,0E0,0E0,0E0,0E0],"parents":[2147483647,0,0,1,1,2,2,4,4,5,5],"right_children":[2,4,6,-1,8,10,-1,-1,-1,-1,-1],"split_conditions":[2.48E2,1.07E2,3.83E2,-1.9055429E0,2.16E2,3.25E2,2.5349724E0,-6.960771E-1,-2.1333706E-2,5.6972736E-1,1.1379637E0],"split_indices":[1,1,1,0,1,1,0,0,0,0,0],"split_type":[0,0,0,0,0,0,0,0,0,0,0],"sum_hessian":[3.4E1,1.6E1,1.8E1,6E0,1E1,1E1,8E0,7E0,3E0,5E0,5E0],"tree_param":{"num_deleted":"0","num_feature":"2","num_nodes":"11","size_leaf_vector":"1"}},{"base_weights":[3.9653595E1,-2.8774258E1,4.879958E1,-7.865378E-1,-3.2867084E0,5.3534454E1,-6.3742757E-1,-6.4234495E-2,3.0367633E-2,1.4465753E0,4.7993717E-1],"categories":[],"categories_nodes":[],"categories_segments":[],"categories_sizes":[],"default_left":[0,0,0,0,0,0,0,0,0,0,0],"id":7,"left_children":[1,3,5,-1,7,9,-1,-1,-1,-1,-1],"loss_changes":[2.2919422E4,5.591626E3,1.849175E4,0E0,7.9176094E1,1.1927797E4,0E0,0E0,0E0,0E0,0E0],"parents":[2147483647,0,0,1,1,2,2,4,4,5,5],"right_children":[2,4,6,-1,8,10,-1,-1,-1,-1,-1],"split_conditions":[4.2598E4,1.8462E4,4.60204E5,-7.865378E-1,2.603E4,4.6978E4,-6.3742757E-1,-6.4234495E-2,3.0367633E-2,1.4465753E0,4.7993717E-1],"split_indices":[0,0,0,0,0,0,0,0,0,0,0],"split_type":[0,0,0,0,0,0,0,0,0,0,0],"sum_hessian":[3.5E1,4E0,3.1E1,1E0,3E0,3E1,1E0,2E0,1E0,1E0,2.9E1],"tree_param":{"num_deleted":"0","num_feature":"2","num_nodes":"11","size_leaf_vector":"1"}},{"base_weights":[-1.6754665E1,-1.3541275E2,1.5158107E2,-1.875324E2,-3.2569878E1,5.933699E-1,1.8389609E2,-1.9841722E0,-9.995573E-1,-5.0122845E-1,-5.348938E-2,1.2764683E0,2.0869203E0],"categories":[],"categories_nodes":[],"categories_segments":[],"categories_sizes":[],"default_left":[0,0,0,0,0,0,0,0,0,0,0,0,0],"id":8,"left_children":[1,3,5,7,9,-1,11,-1,-1,-1,-1,-1,-1],"loss_changes":[6.993796E5,1.0682878E5,3.7766688E4,2.9525E3,3.4495098E3,0E0,1.3255E3,0E0,0E0,0E0,0E0,0E0,0E0],"parents":[2147483647,0,0,1,1,2,2,3,3,4,4,6,6],"right_children":[2,4,6,8,10,-1,12,-1,-1,-1,-1,-1,-1],"split_conditions":[2.43E2,1.47E2,3.49E2,1.15E2,2.23E2,5.933699E-1,4.02E2,-1.9841722E0,-9.995573E-1,-5.0122845E-1,-5.348938E-2,1.2764683E0,2.0869203E0],"split_indices":[1,1,1,1,1,0,1,0,0,0,0,0,0],"split_type":[0,0,0,0,0,0,0,0,0,0,0,0,0],"sum_hessian":[3.4E1,2E1,1.4E1,1.3E1,7E0,4E0,1E1,1.1E1,2E0,4E0,3E0,4E0,6E0],"tree_param":{"num_deleted":"0","num_feature":"2","num_nodes":"13","size_leaf_vector":"1"}},{"base_weights":[-2.1207912E1,-2.0435998E0,-5.958561E-1,7.046107E1,-4.843836E1,2.8266096E-1,1.7984031E0,-1.312247E0,-2.9084325E-1],"categories":[],"categories_nodes":[],"categories_segments":[],"categories_sizes":[],"default_left":[0,0,0,0,0,0,0,0,0],"id":9,"left_children":[1,-1,3,5,7,-1,-1,-1,-1],"loss_changes":[1.6793288E5,0E0,1.3938792E5,7.3610016E4,3.7346832E4,0E0,0E0,0E0,0E0],"parents":[2147483647,0,0,2,2,3,3,4,4],"right_children":[2,-1,4,6,8,-1,-1,-1,-1],"split_conditions":[4.453E4,-2.0435998E0,2.4993E5,1.97E5,3.0894E5,2.8266096E-1,1.7984031E0,-1.312247E0,-2.9084325E-1],"split_indices":[0,0,0,0,0,0,0,0,0],"split_type":[0,0,0,0,0,0,0,0,0],"sum_hessian":[4.4E1,4E0,4E1,1.6E1,2.4E1,1.2E1,4E0,4E0,2E1],"tree_param":{"num_deleted":"0","num_feature":"2","num_nodes":"9","size_leaf_vector":"1"}},{"base_weights":[4.9793118E1,-3.9605003E1,1.0232548E2,-4.221427E0,-1.4009788E0,1.7338177E2,4.853307E1,-2.2647738E-1,5.927232E-1,9.3525714E-1,2.030441E0,-1.1590668E0,6.6324514E-1],"categories":[],"categories_nodes":[],"categories_segments":[],"categories_sizes":[],"default_left":[0,0,0,0,0,0,0,0,0,0,0,0,0],"id":10,"left_children":[1,3,5,7,-1,9,11,-1,-1,-1,-1,-1,-1],"loss_changes":[1.6874478E5,4.7707566E4,8.179411E4,1.2955728E4,0E0,1.3007906E4,4.333961E4,0E0,0E0,0E0,0E0,0E0,0E0],"parents":[2147483647,0,0,1,1,2,2,3,3,5,5,6,6],"right_children":[2,4,6,8,-1,10,12,-1,-1,-1,-1,-1,-1],"split_conditions":[1.66143E5,1.429E5,3.33665E5,1.28287E5,-1.4009788E0,2.07951E5,3.38075E5,-2.2647738E-1,5.927232E-1,9.3525714E-1,2.030441E0,-1.1590668E0,6.6324514E-1],"split_indices":[0,0,0,0,0,0,0,0,0,0,0,0,0],"split_type":[0,0,0,0,0,0,0,0,0,0,0,0,0],"sum_hessian":[3.5E1,1.3E1,2.2E1,1E1,3E0,9E0,1.3E1,8E0,2E0,3E0,6E0,1E0,1.2E1],"tree_param":{"num_deleted":"0","num_feature":"2","num_nodes":"13","size_leaf_vector":"1"}},{"base_weights":[-4.1354823E0,-1.4107913E2,1.4772466E2,-2.055384E0,-5.562427E1,9.446206E1,2.387893E0,-7.645949E-1,-2.3978524E-1,2.560066E-1,1.253615E0],"categories":[],"categories_nodes":[],"categories_segments":[],"categories_sizes":[],"default_left":[0,0,0,0,0,0,0,0,0,0,0],"id":11,"left_children":[1,3,5,-1,7,9,-1,-1,-1,-1,-1],"loss_changes":[8.110773E5,1.07204875E5,7.845306E4,0E0,5.3470977E3,2.4992555E4,0E0,0E0,0E0,0E0,0E0],"parents":[2147483647,0,0,1,1,2,2,4,4,5,5],"right_children":[2,4,6,-1,8,10,-1,-1,-1,-1,-1],"split_conditions":[2.46E2,1.27E2,3.94E2,-2.055384E0,1.97E2,3.17E2,2.387893E0,-7.645949E-1,-2.3978524E-1,2.560066E-1,1.253615E0],"split_indices":[1,1,1,0,1,1,0,0,0,0,0],"split_type":[0,0,0,0,0,0,0,0,0,0,0],"sum_hessian":[3.8E1,2E1,1.8E1,1.1E1,9E0,1.2E1,6E0,5E0,4E0,4E0,8E0],"tree_param":{"num_deleted":"0","num_feature":"2","num_nodes":"11","size_leaf_vector":"1"}},{"base_weights":[-3.9780014E1,-1.505291E2,8.1697426E1,-2.0380995E0,-9.122704E1,1.996643E1,2.038283E0,-1.1303312E0,-6.2403506E-1,-8.014898E-3,7.0821506E-1],"categories":[],"categories_nodes":[],"categories_segments":[],"categories_sizes":[],"default_left":[0,0,0,0,0,0,0,0,0,0,0],"id":12,"left_children":[1,3,5,-1,7,9,-1,-1,-1,-1,-1],"loss_changes":[6.317374E5,6.811531E4,1.6759853E5,0E0,4.3297812E3,1.6398771E4,0E0,0E0,0E0,0E0,0E0],"parents":[2147483647,0,0,1,1,2,2,4,4,5,5],"right_children":[2,4,6,-1,8,10,-1,-1,-1,-1,-1],"split_conditions":[2.13E2,1.09E2,3.39E2,-2.0380995E0,1.73E2,2.91E2,2.038283E0,-1.1303312E0,-6.2403506E-1,-8.014898E-3,7.0821506E-1],"split_indices":[1,1,1,0,1,1,0,0,0,0,0],"split_type":[0,0,0,0,0,0,0,0,0,0,0],"sum_hessian":[4.6E1,2.4E1,2.2E1,1.2E1,1.2E1,1.5E1,7E0,6E0,6E0,1.1E1,4E0],"tree_param":{"num_deleted":"0","num_feature":"2","num_nodes":"11","size_leaf_vector":"1"}},{"base_weights":[1.754894E1,-1.4794208E2,3.3177547E1,-1.3020995E-1,-1.9930632E0,7.108589E1,-6.407578E1,1.8554417E0,5.795574E-1,-9.3940467E-1,9.073652E-2],"categories":[],"categories_nodes":[],"categories_segments":[],"categories_sizes":[],"default_left":[0,0,0,0,0,0,0,0,0,0,0],"id":13,"left_children":[1,3,5,-1,-1,7,9,-1,-1,-1,-1],"loss_changes":[1.0461675E5,2.2957836E4,1.3684248E5,0E0,0E0,3.444897E4,2.3364336E4,0E0,0E0,0E0,0E0],"parents":[2147483647,0,0,1,1,2,2,5,5,6,6],"right_children":[2,4,6,-1,-1,8,10,-1,-1,-1,-1],"split_conditions":[1.2435E4,1.0322E4,3.71066E5,-1.3020995E-1,-1.9930632E0,1.02421E5,4.72542E5,1.8554417E0,5.795574E-1,-9.3940467E-1,9.073652E-2],"split_indices":[0,0,0,0,0,0,0,0,0,0,0],"split_type":[0,0,0,0,0,0,0,0,0,0,0],"sum_hessian":[3.9E1,3E0,3.6E1,1E0,2E0,2.6E1,1E1,2E0,2.4E1,7E0,3E0],"tree_param":{"num_deleted":"0","num_feature":"2","num_nodes":"11","size_leaf_vector":"1"}},{"base_weights":[-1.2805735E1,1.0858041E1,-9.896311E1,-1.05444506E-1,1.6875333E0,-1.4036894E2,-8.096357E1,-3.6076635E-1,2.884955E-1,-6.2260354E-1,-1.7168788E0,-2.8304875E-1,-1.0711331E0],"categories":[],"categories_nodes":[],"categories_segments":[],"categories_sizes":[],"default_left":[0,0,0,0,0,0,0,0,0,0,0,0,0],"id":14,"left_children":[1,3,5,7,-1,9,11,-1,-1,-1,-1,-1,-1],"loss_changes":[9.94195E4,6.665558E4,2.143125E3,3.8536812E4,0E0,7.7101953E2,1.01886875E4,0E0,0E0,0E0,0E0,0E0,0E0],"parents":[2147483647,0,0,1,1,2,2,3,3,5,5,6,6],"right_children":[2,4,6,8,-1,10,12,-1,-1,-1,-1,-1,-1],"split_conditions":[3.95312E5,3.48945E5,4.01942E5,1.94724E5,1.6875333E0,3.99736E5,4.37396E5,-3.6076635E-1,2.884955E-1,-6.2260354E-1,-1.7168788E0,-2.8304875E-1,-1.0711331E0],"split_indices":[0,0,0,0,0,0,0,0,0,0,0,0,0],"split_type":[0,0,0,0,0,0,0,0,0,0,0,0,0],"sum_hessian":[4.8E1,3.8E1,1E1,3.6E1,2E0,2E0,8E0,1.6E1,2E1,1E0,1E0,3E0,5E0],"tree_param":{"num_deleted":"0","num_feature":"2","num_nodes":"13","size_leaf_vector":"1"}},{"base_weights":[-2.636415E1,-1.4712099E2,1.579838E2,-1.9504935E0,-6.798391E1,3.2985622E1,2.0887851E2,-8.241294E-1,-3.559772E-1,9.431091E-2,3.836819E-1,1.1559532E0,2.2604768E0],"categories":[],"categories_nodes":[],"categories_segments":[],"categories_sizes":[],"default_left":[0,0,0,0,0,0,0,0,0,0,0,0,0],"id":15,"left_children":[1,3,5,-1,7,9,11,-1,-1,-1,-1,-1,-1],"loss_changes":[7.5737394E5,7.112453E4,8.243859E4,0E0,2.505207E3,3.896006E2,2.150125E3,0E0,0E0,0E0,0E0,0E0,0E0],"parents":[2147483647,0,0,1,1,2,2,4,4,5,5,6,6],"right_children":[2,4,6,-1,8,10,12,-1,-1,-1,-1,-1,-1],"split_conditions":[2.23E2,1.3E2,3.02E2,-1.9504935E0,1.98E2,2.45E2,3.96E2,-8.241294E-1,-3.559772E-1,9.431091E-2,3.836819E-1,1.1559532E0,2.2604768E0],"split_indices":[1,1,1,0,1,1,1,0,0,0,0,0,0],"split_type":[0,0,0,0,0,0,0,0,0,0,0,0,0],"sum_hessian":[3.3E1,2E1,1.3E1,1.2E1,8E0,4E0,9E0,5E0,3E0,1E0,3E0,2E0,7E0],"tree_param":{"num_deleted":"0","num_feature":"2","num_nodes":"13","size_leaf_vector":"1"}},{"base_weights":[-7.642645E0,-1.4924911E2,1.5135985E2,-1.791917E0,-6.21856E1,8.508005E1,2.087361E0,-7.514807E-1,-2.569641E-2,1.7375326E-1,9.2948985E-1],"categories":[],"categories_nodes":[],"categories_segments":[],"categories_sizes":[],"default_left":[0,0,0,0,0,0,0,0,0,0,0],"id":16,"left_children":[1,3,5,-1,7,9,-1,-1,-1,-1,-1],"loss_changes":[7.880896E5,4.2656188E4,5.3868E4,0E0,4.1536855E3,3.7209922E3,0E0,0E0,0E0,0E0,0E0],"parents":[2147483647,0,0,1,1,2,2,4,4,5,5],"right_children":[2,4,6,-1,8,10,-1,-1,-1,-1,-1],"split_conditions":[2.63E2,1.22E2,3.69E2,-1.791917E0,1.87E2,2.91E2,2.087361E0,-7.514807E-1,-2.569641E-2,1.7375326E-1,9.2948985E-1],"split_indices":[1,1,1,0,1,1,0,0,0,0,0],"split_type":[0,0,0,0,0,0,0,0,0,0,0],"sum_hessian":[3.4E1,1.8E1,1.6E1,1.3E1,5E0,8E0,8E0,4E0,1E0,1E0,7E0],"tree_param":{"num_deleted":"0","num_feature":"2","num_nodes":"11","size_leaf_vector":"1"}},{"base_weights":[1.1503906E0,-8.528589E0,1.1298568E0,1.6846277E1,-1.0504846E2,1.1062579E-1,1.3268852E0,-1.5362653E0,-4.4798347E-1],"categories":[],"categories_nodes":[],"categories_segments":[],"categories_sizes":[],"default_left":[0,0,0,0,0,0,0,0,0],"id":17,"left_children":[1,3,-1,5,7,-1,-1,-1,-1],"loss_changes":[4.7568453E4,1.00076586E5,0E0,2.104095E4,2.1436977E4,0E0,0E0,0E0,0E0],"parents":[2147483647,0,0,1,1,3,3,4,4],"right_children":[2,4,-1,6,8,-1,-1,-1,-1],"split_conditions":[4.88886E5,3.99803E5,1.1298568E0,3.86347E5,4.25453E5,1.1062579E-1,1.3268852E0,-1.5362653E0,-4.4798347E-1],"split_indices":[0,0,0,0,0,0,0,0,0],"split_type":[0,0,0,0,0,0,0,0,0],"sum_hessian":[4.3E1,4E1,3E0,3.2E1,8E0,3.1E1,1E0,4E0,4E0],"tree_param":{"num_deleted":"0","num_feature":"2","num_nodes":"9","size_leaf_vector":"1"}},{"base_weights":[-1.3315954E1,-3.6565594E1,1.6124426E2,-2.3823088E1,-1.8980807E0,8.021318E-1,2.1002648E0,-8.9673865E-1,1.8999802E-1],"categories":[],"categories_nodes":[],"categories_segments":[],"categories_sizes":[],"default_left":[0,0,0,0,0,0,0,0,0],"id":18,"left_children":[1,3,5,7,-1,-1,-1,-1,-1],"loss_changes":[1.5514033E5,6.315432E4,9.3645E3,8.96794E4,0E0,0E0,0E0,0E0,0E0],"parents":[2147483647,0,0,1,1,2,2,3,3],"right_children":[2,4,6,8,-1,-1,-1,-1,-1],"split_conditions":[4.72542E5,3.99803E5,4.79936E5,1.51846E5,-1.8980807E0,8.021318E-1,2.1002648E0,-8.9673865E-1,1.8999802E-1],"split_indices":[0,0,0,0,0,0,0,0,0],"split_type":[0,0,0,0,0,0,0,0,0],"sum_hessian":[3.7E1,3.3E1,4E0,3.1E1,2E0,2E0,2E0,1.2E1,1.9E1],"tree_param":{"num_deleted":"0","num_feature":"2","num_nodes":"9","size_leaf_vector":"1"}},{"base_weights":[-1.3944627E1,-1.0498669E2,1.403659E2,-1.5872601E2,-3.7336758E1,7.81124E1,1.9326168E0,-1.9254899E0,-1.0748979E0,-5.2973527E-1,-7.126953E-2,4.302035E-1,9.672705E-1],"categories":[],"categories_nodes":[],"categories_segments":[],"categories_sizes":[],"default_left":[0,0,0,0,0,0,0,0,0,0,0,0,0],"id":19,"left_children":[1,3,5,7,9,11,-1,-1,-1,-1,-1,-1,-1],"loss_changes":[5.4824506E5,8.6105625E4,4.019972E4,1.30465E4,5.2436436E3,2.818582E3,0E0,0E0,0E0,0E0,0E0,0E0,0E0],"parents":[2147483647,0,0,1,1,2,2,3,3,4,4,5,5],"right_children":[2,4,6,8,10,12,-1,-1,-1,-1,-1,-1,-1],"split_conditions":[2.67E2,1.73E2,3.69E2,8.6E1,2.23E2,3.19E2,1.9326168E0,-1.9254899E0,-1.0748979E0,-5.2973527E-1,-7.126953E-2,4.302035E-1,9.672705E-1],"split_indices":[1,1,1,1,1,1,0,0,0,0,0,0,0],"split_type":[0,0,0,0,0,0,0,0,0,0,0,0,0],"sum_hessian":[3.8E1,2.4E1,1.4E1,1.3E1,1.1E1,7E0,7E0,7E0,6E0,7E0,4E0,3E0,4E0],"tree_param":{"num_deleted":"0","num_feature":"2","num_nodes":"13","size_leaf_vector":"1"}},{"base_weights":[1.0463448E1,-1.4864165E2,1.61141E2,-2.064111E0,-5.015236E1,3.620029E-1,1.9221603E2,-8.367586E-1,-1.8506038E-1,1.4275385E0,2.245523E0],"categories":[],"categories_nodes":[],"categories_segments":[],"categories_sizes":[],"default_left":[0,0,0,0,0,0,0,0,0,0,0],"id":20,"left_children":[1,3,5,-1,7,-1,9,-1,-1,-1,-1],"loss_changes":[9.109849E5,1.0008294E5,7.223025E4,0E0,7.182465E3,0E0,8.76325E3,0E0,0E0,0E0,0E0],"parents":[2147483647,0,0,1,1,2,2,4,4,6,6],"right_children":[2,4,6,-1,8,-1,10,-1,-1,-1,-1],"split_conditions":[2.7E2,1.27E2,3.19E2,-2.064111E0,1.76E2,3.620029E-1,4.35E2,-8.367586E-1,-1.8506038E-1,1.4275385E0,2.245523E0],"split_indices":[1,1,1,0,1,0,1,0,0,0,0],"split_type":[0,0,0,0,0,0,0,0,0,0,0],"sum_hessian":[3.7E1,1.8E1,1.9E1,1.1E1,7E0,4E0,1.5E1,3E0,4E0,7E0,8E0],"tree_param":{"num_deleted":"0","num_feature":"2","num_nodes":"11","size_leaf_vector":"1"}},{"base_weights":[-1.9565556E0,-8.2787735E1,1.6813512E2,-1.4534047E2,-1.7564438E1,1.0983894E0,2.0282426E0,-1.9079971E0,-9.667992E-1,-4.8163158E-1,-7.0013427E-3],"categories":[],"categories_nodes":[],"categories_segments":[],"categories_sizes":[],"default_left":[0,0,0,0,0,0,0,0,0,0,0],"id":21,"left_children":[1,3,5,7,9,-1,-1,-1,-1,-1,-1],"loss_changes":[6.187774E5,1.23160375E5,1.8183562E4,2.5063875E4,7.981545E3,0E0,0E0,0E0,0E0,0E0,0E0],"parents":[2147483647,0,0,1,1,2,2,3,3,4,4],"right_children":[2,4,6,8,10,-1,-1,-1,-1,-1,-1],"split_conditions":[2.87E2,1.79E2,3.83E2,8.3E1,2.23E2,1.0983894E0,2.0282426E0,-1.9079971E0,-9.667992E-1,-4.8163158E-1,-7.0013427E-3],"split_indices":[1,1,1,1,1,0,0,0,0,0,0],"split_type":[0,0,0,0,0,0,0,0,0,0,0],"sum_hessian":[4.4E1,3E1,1.4E1,1.5E1,1.5E1,6E0,8E0,7E0,8E0,5E0,1E1],"tree_param":{"num_deleted":"0","num_feature":"2","num_nodes":"11","size_leaf_vector":"1"}},{"base_weights":[5.796868E1,-3.748552E-2,1.05739204E2,1.7177952E1,-2.7377445E1,1.5743059E2,6.1096405E1,-1.2313282E-1,1.0319766E0,-1.6725074E0,2.8525937E-1,7.9597265E-1,1.8021897E0,3.3505315E-1,1.8683257E0],"categories":[],"categories_nodes":[],"categories_segments":[],"categories_sizes":[],"default_left":[0,0,0,0,0,0,0,0,0,0,0,0,0,0,0],"id":22,"left_children":[1,3,5,7,9,11,13,-1,-1,-1,-1,-1,-1,-1,-1],"loss_changes":[1.288528E5,1.0354535E4,5.4035812E4,3.488252E4,6.885031E4,1.3225031E4,4.7173434E4,0E0,0E0,0E0,0E0,0E0,0E0,0E0,0E0],"parents":[2147483647,0,0,1,1,2,2,3,3,4,4,5,5,6,6],"right_children":[2,4,6,8,10,12,14,-1,-1,-1,-1,-1,-1,-1,-1],"split_conditions":[2.79311E5,2.07951E5,3.71066E5,1.97591E5,2.27714E5,3.25947E5,4.79936E5,-1.2313282E-1,1.0319766E0,-1.6725074E0,2.8525937E-1,7.9597265E-1,1.8021897E0,3.3505315E-1,1.8683257E0],"split_indices":[0,0,0,0,0,0,0,0,0,0,0,0,0,0,0],"split_type":[0,0,0,0,0,0,0,0,0,0,0,0,0,0,0],"sum_hessian":[4.6E1,2.1E1,2.5E1,1.3E1,8E0,1.1E1,1.4E1,1E1,3E0,2E0,6E0,3E0,8E0,1.2E1,2E0],"tree_param":{"num_deleted":"0","num_feature":"2","num_nodes":"15","size_leaf_vector":"1"}},{"base_weights":[-7.258321E0,-1.12211945E2,1.5887025E2,-1.7076523E2,-2.6009214E1,8.854544E1,1.9862564E0,-1.9727767E0,-1.2295934E0,-5.051201E-1,-7.04503E-2,5.112496E-1,9.9496216E-1],"categories":[],"categories_nodes":[],"categories_segments":[],"categories_sizes":[],"default_left":[0,0,0,0,0,0,0,0,0,0,0,0,0],"id":23,"left_children":[1,3,5,7,9,11,-1,-1,-1,-1,-1,-1,-1],"loss_changes":[6.976275E5,1.21441875E5,3.4541062E4,6.2494688E3,4.701165E3,1.2022266E2,0E0,0E0,0E0,0E0,0E0,0E0,0E0],"parents":[2147483647,0,0,1,1,2,2,3,3,4,4,5,5],"right_children":[2,4,6,8,10,12,-1,-1,-1,-1,-1,-1,-1],"split_conditions":[2.76E2,1.67E2,3.94E2,1.07E2,2.15E2,3.28E2,1.9862564E0,-1.9727767E0,-1.2295934E0,-5.051201E-1,-7.04503E-2,5.112496E-1,9.9496216E-1],"split_indices":[1,1,1,1,1,1,0,0,0,0,0,0,0],"split_type":[0,0,0,0,0,0,0,0,0,0,0,0,0],"sum_hessian":[3.9E1,2.4E1,1.5E1,1.4E1,1E1,6E0,9E0,8E0,6E0,4E0,6E0,2E0,4E0],"tree_param":{"num_deleted":"0","num_feature":"2","num_nodes":"13","size_leaf_vector":"1"}},{"base_weights":[-1.0637536E1,-1.7754471E2,9.102442E1,-2.0469644E0,-1.2420415E0,1.2002979E1,1.8670258E2,-1.4922573E-1,3.8128334E-1,1.2628738E0,2.234614E0],"categories":[],"categories_nodes":[],"categories_segments":[],"categories_sizes":[],"default_left":[0,0,0,0,0,0,0,0,0,0,0],"id":24,"left_children":[1,3,5,-1,-1,7,9,-1,-1,-1,-1],"loss_changes":[6.9528894E5,9.736406E3,1.9167547E5,0E0,0E0,1.048436E4,1.14289375E4,0E0,0E0,0E0,0E0],"parents":[2147483647,0,0,1,1,2,2,5,5,6,6],"right_children":[2,4,6,-1,-1,8,10,-1,-1,-1,-1],"split_conditions":[1.52E2,7.3E1,3.38E2,-2.0469644E0,-1.2420415E0,2.7E2,4.14E2,-1.4922573E-1,3.8128334E-1,1.2628738E0,2.234614E0],"split_indices":[1,1,1,0,0,1,1,0,0,0,0],"split_type":[0,0,0,0,0,0,0,0,0,0,0],"sum_hessian":[4E1,1.5E1,2.5E1,9E0,6E0,1.4E1,1.1E1,7E0,7E0,5E0,6E0],"tree_param":{"num_deleted":"0","num_feature":"2","num_nodes":"11","size_leaf_vector":"1"}},{"base_weights":[-4.6969914E0,-1.2779901E2,1.2352545E2,-1.7811918E0,-4.7431183E1,3.5039883E1,1.6536574E2,-7.054384E-1,-3.7843275E-1,8.821465E-2,5.7364976E-1,1.1840769E0,2.0259638E0],"categories":[],"categories_nodes":[],"categories_segments":[],"categories_sizes":[],"default_left":[0,0,0,0,0,0,0,0,0,0,0,0,0],"id":25,"left_children":[1,3,5,-1,7,9,11,-1,-1,-1,-1,-1,-1],"loss_changes":[7.8922306E5,9.890091E4,8.780819E4,0E0,9.920156E2,4.7222725E3,1.6852094E4,0E0,0E0,0E0,0E0,0E0,0E0],"parents":[2147483647,0,0,1,1,2,2,4,4,5,5,6,6],"right_children":[2,4,6,-1,8,10,12,-1,-1,-1,-1,-1,-1],"split_conditions":[2.34E2,1.22E2,3.35E2,-1.7811918E0,1.63E2,2.78E2,4.1E2,-7.054384E-1,-3.7843275E-1,8.821465E-2,5.7364976E-1,1.1840769E0,2.0259638E0],"split_indices":[1,1,1,0,1,1,1,0,0,0,0,0,0],"split_type":[0,0,0,0,0,0,0,0,0,0,0,0,0],"sum_hessian":[4.9E1,2.5E1,2.4E1,1.5E1,1E1,8E0,1.6E1,2E0,8E0,4E0,4E0,8E0,8E0],"tree_param":{"num_deleted":"0","num_feature":"2","num_nodes":"13","size_leaf_vector":"1"}},{"base_weights":[-9.978339E-1,-1.331896E2,1.0128255E2,-1.7401237E0,-7.676257E1,3.8474407E1,1.8153341E0,-9.106832E-1,-3.922866E-1,8.830782E-2,6.9505554E-1],"categories":[],"categories_nodes":[],"categories_segments":[],"categories_sizes":[],"default_left":[0,0,0,0,0,0,0,0,0,0,0],"id":26,"left_children":[1,3,5,-1,7,9,-1,-1,-1,-1,-1],"loss_changes":[6.354539E5,4.0543125E4,1.3007859E5,0E0,3.314793E3,1.395118E4,0E0,0E0,0E0,0E0,0E0],"parents":[2147483647,0,0,1,1,2,2,4,4,5,5],"right_children":[2,4,6,-1,8,10,-1,-1,-1,-1,-1],"split_conditions":[2.07E2,1.35E2,3.6E2,-1.7401237E0,1.86E2,3.02E2,1.8153341E0,-9.106832E-1,-3.922866E-1,8.830782E-2,6.9505554E-1],"split_indices":[1,1,1,0,1,1,0,0,0,0,0],"split_type":[0,0,0,0,0,0,0,0,0,0,0],"sum_hessian":[4.6E1,2E1,2.6E1,1.1E1,9E0,1.5E1,1.1E1,6E0,3E0,8E0,7E0],"tree_param":{"num_deleted":"0","num_feature":"2","num_nodes":"11","size_leaf_vector":"1"}},{"base_weights":[2.8431194E1,-3.576501E1,4.7078636E1,-2.5923045E0,-8.278426E1,7.527866E1,-1.32834425E1,-5.7243884E-1,7.443837E-1,-4.7474357E-1,-1.1403934E0,4.6292225E-1,1.6675652E0,-1.3992252E0,2.981515E-1],"categories":[],"categories_nodes":[],"categories_segments":[],"categories_sizes":[],"default_left":[0,0,0,0,0,0,0,0,0,0,0,0,0,0,0],"id":27,"left_children":[1,3,5,7,9,11,13,-1,-1,-1,-1,-1,-1,-1,-1],"loss_changes":[4.453585E4,1.3150625E4,4.9013027E4,2.5284734E4,1.1556777E3,4.7846797E4,5.393659E4,0E0,0E0,0E0,0E0,0E0,0E0,0E0,0E0],"parents":[2147483647,0,0,1,1,2,2,3,3,4,4,5,5,6,6],"right_children":[2,4,6,8,10,12,14,-1,-1,-1,-1,-1,-1,-1,-1],"split_conditions":[1.05657E5,8.6311E4,3.41014E5,3.698E4,1.02421E5,2.7364E5,3.49171E5,-5.7243884E-1,7.443837E-1,-4.7474357E-1,-1.1403934E0,4.6292225E-1,1.6675652E0,-1.3992252E0,2.981515E-1],"split_indices":[0,0,0,0,0,0,0,0,0,0,0,0,0,0,0],"split_type":[0,0,0,0,0,0,0,0,0,0,0,0,0,0,0],"sum_hessian":[3.6E1,8E0,2.8E1,5E0,3E0,1.9E1,9E0,3E0,2E0,2E0,1E0,1.5E1,4E0,2E0,7E0],"tree_param":{"num_deleted":"0","num_feature":"2","num_nodes":"15","size_leaf_vector":"1"}},{"base_weights":[-7.982514E0,1.5026153E1,-5.6260715E1,-3.6669518E1,7.382392E1,-8.2622635E1,3.086227E-1,-9.596517E-1,-1.1872545E-1,1.3223413E0,1.8280138E-1,-1.0812569E0,-4.9608415E-1],"categories":[],"categories_nodes":[],"categories_segments":[],"categories_sizes":[],"default_left":[0,0,0,0,0,0,0,0,0,0,0,0,0],"id":28,"left_children":[1,3,5,7,9,11,-1,-1,-1,-1,-1,-1,-1],"loss_changes":[4.6521598E4,8.798186E4,3.22808E4,2.2220791E4,4.258975E4,6.1586484E3,0E0,0E0,0E0,0E0,0E0,0E0,0E0],"parents":[2147483647,0,0,1,1,2,2,3,3,4,4,5,5],"right_children":[2,4,6,8,10,12,-1,-1,-1,-1,-1,-1,-1],"split_conditions":[3.62146E5,1.94724E5,4.6466E5,8.6311E4,2.92618E5,4.37682E5,3.086227E-1,-9.596517E-1,-1.1872545E-1,1.3223413E0,1.8280138E-1,-1.0812569E0,-4.9608415E-1],"split_indices":[0,0,0,0,0,0,0,0,0,0,0,0,0],"split_type":[0,0,0,0,0,0,0,0,0,0,0,0,0],"sum_hessian":[4.1E1,2.8E1,1.3E1,1.5E1,1.3E1,1E1,3E0,4E0,1.1E1,6E0,7E0,5E0,5E0],"tree_param":{"num_deleted":"0","num_feature":"2","num_nodes":"13","size_leaf_vector":"1"}},{"base_weights":[4.5511932E1,-1.1556529E0,5.1677002E1,9.871312E1,3.383996E1,6.367367E-1,1.4968449E0,-5.248075E-1,6.617254E-1],"categories":[],"categories_nodes":[],"categories_segments":[],"categories_sizes":[],"default_left":[0,0,0,0,0,0,0,0,0],"id":29,"left_children":[1,-1,3,5,7,-1,-1,-1,-1],"loss_changes":[3.923242E4,0E0,2.811375E4,1.2201609E4,7.569714E4,0E0,0E0,0E0,0E0],"parents":[2147483647,0,0,2,2,3,3,4,4],"right_children":[2,-1,4,6,8,-1,-1,-1,-1],"split_conditions":[6.358E3,-1.1556529E0,1.85214E5,1.04261E5,2.84855E5,6.367367E-1,1.4968449E0,-5.248075E-1,6.617254E-1],"split_indices":[0,0,0,0,0,0,0,0,0],"split_type":[0,0,0,0,0,0,0,0,0],"sum_hessian":[3.6E1,1E0,3.5E1,9E0,2.6E1,6E0,3E0,7E0,1.9E1],"tree_param":{"num_deleted":"0","num_feature":"2","num_nodes":"9","size_leaf_vector":"1"}},{"base_weights":[2.800808E1,-1.2791397E2,5.478799E1,-3.1888783E-1,-1.4570969E0,6.988343E1,-1.3429576E0,2.7001852E-1,1.0774415E0],"categories":[],"categories_nodes":[],"categories_segments":[],"categories_sizes":[],"default_left":[0,0,0,0,0,0,0,0,0],"id":30,"left_children":[1,3,5,-1,-1,7,-1,-1,-1],"loss_changes":[1.559127E5,7.0753594E3,9.460304E4,0E0,0E0,4.643939E4,0E0,0E0,0E0],"parents":[2147483647,0,0,1,1,2,2,5,5],"right_children":[2,4,6,-1,-1,8,-1,-1,-1],"split_conditions":[1.116E5,3.87E4,4.6466E5,-3.1888783E-1,-1.4570969E0,3.14485E5,-1.3429576E0,2.7001852E-1,1.0774415E0],"split_indices":[0,0,0,0,0,0,0,0,0],"split_type":[0,0,0,0,0,0,0,0,0],"sum_hessian":[3.6E1,5E0,3.1E1,1E0,4E0,2.9E1,2E0,1.4E1,1.5E1],"tree_param":{"num_deleted":"0","num_feature":"2","num_nodes":"9","size_leaf_vector":"1"}},{"base_weights":[-2.1955605E1,-1.581368E0,-1.6215616E1,-4.1747046E0,-5.70508E1,-4.6414068E-1,5.3928003E-2,-8.373912E-1,2.3748998E-1],"categories":[],"categories_nodes":[],"categories_segments":[],"categories_sizes":[],"default_left":[0,0,0,0,0,0,0,0,0],"id":31,"left_children":[1,-1,3,5,7,-1,-1,-1,-1],"loss_changes":[2.8812482E4,0E0,1.8319396E4,1.204685E4,1.9323861E4,0E0,0E0,0E0,0E0],"parents":[2147483647,0,0,2,2,3,3,4,4],"right_children":[2,-1,4,6,8,-1,-1,-1,-1],"split_conditions":[1.2435E4,-1.581368E0,3.84533E5,1.18615E5,4.88886E5,-4.6414068E-1,5.3928003E-2,-8.373912E-1,2.3748998E-1],"split_indices":[0,0,0,0,0,0,0,0,0],"split_type":[0,0,0,0,0,0,0,0,0],"sum_hessian":[3.8E1,1E0,3.7E1,2.9E1,8E0,5E0,2.4E1,6E0,2E0],"tree_param":{"num_deleted":"0","num_feature":"2","num_nodes":"9","size_leaf_vector":"1"}},{"base_weights":[-4.70565E0,-8.713023E1,2.7350937E1,-1.5852519E1,-1.3752743E0,5.900893E1,-3.5711693E1,-1.4907559E0,1.2054105E0,1.935672E-1,8.7207574E-1,-1.5417027E0,1.2596351E-1],"categories":[],"categories_nodes":[],"categories_segments":[],"categories_sizes":[],"default_left":[0,0,0,0,0,0,0,0,0,0,0,0,0],"id":32,"left_children":[1,3,5,7,-1,9,11,-1,-1,-1,-1,-1,-1],"loss_changes":[8.970695E4,3.303579E4,4.996634E4,9.075333E4,0E0,1.7605258E4,4.9612266E4,0E0,0E0,0E0,0E0,0E0,0E0],"parents":[2147483647,0,0,1,1,2,2,3,3,5,5,6,6],"right_children":[2,4,6,8,-1,10,12,-1,-1,-1,-1,-1,-1],"split_conditions":[1.28287E5,6.7069E4,4.04778E5,1.2435E4,-1.3752743E0,2.86568E5,4.19329E5,-1.4907559E0,1.2054105E0,1.935672E-1,8.7207574E-1,-1.5417027E0,1.2596351E-1],"split_indices":[0,0,0,0,0,0,0,0,0,0,0,0,0],"split_type":[0,0,0,0,0,0,0,0,0,0,0,0,0],"sum_hessian":[3.3E1,9E0,2.4E1,4E0,5E0,1.6E1,8E0,2E0,2E0,7E0,9E0,2E0,6E0],"tree_param":{"num_deleted":"0","num_feature":"2","num_nodes":"13","size_leaf_vector":"1"}},{"base_weights":[1.4398742E1,-1.4012665E2,1.01983795E2,-1.632871E0,-7.0515937E-1,3.6447292E1,1.9387177E0,1.12044774E-1,7.0537E-1],"categories":[],"categories_nodes":[],"categories_segments":[],"categories_sizes":[],"default_left":[0,0,0,0,0,0,0,0,0],"id":33,"left_children":[1,3,5,-1,-1,7,-1,-1,-1],"loss_changes":[5.417428E5,1.762E4,1.500284E5,0E0,0E0,1.2942898E4,0E0,0E0,0E0],"parents":[2147483647,0,0,1,1,2,2,5,5],"right_children":[2,4,6,-1,-1,8,-1,-1,-1],"split_conditions":[2E2,1.41E2,3.67E2,-1.632871E0,-7.0515937E-1,3.02E2,1.9387177E0,1.12044774E-1,7.0537E-1],"split_indices":[1,1,1,0,0,1,0,0,0],"split_type":[0,0,0,0,0,0,0,0,0],"sum_hessian":[3.9E1,1.4E1,2.5E1,1E1,4E0,1.5E1,1E1,9E0,6E0],"tree_param":{"num_deleted":"0","num_feature":"2","num_nodes":"9","size_leaf_vector":"1"}},{"base_weights":[-1.9971169E1,-1.1533006E2,9.4481445E1,-1.6738864E0,-5.8658287E1,4.7678574E1,1.5775146E2,-7.746082E-1,-3.5343572E-1,1.4443976E-1,6.246873E-1,1.1647706E0,2.0007532E0],"categories":[],"categories_nodes":[],"categories_segments":[],"categories_sizes":[],"default_left":[0,0,0,0,0,0,0,0,0,0,0,0,0],"id":34,"left_children":[1,3,5,-1,7,9,11,-1,-1,-1,-1,-1,-1],"loss_changes":[4.9112456E5,6.737178E4,5.6944297E4,0E0,4.110824E3,5.693164E3,3.1965E3,0E0,0E0,0E0,0E0,0E0,0E0],"parents":[2147483647,0,0,1,1,2,2,4,4,5,5,6,6],"right_children":[2,4,6,-1,8,10,12,-1,-1,-1,-1,-1,-1],"split_conditions":[2.49E2,1.47E2,3.57E2,-1.6738864E0,1.87E2,2.78E2,3.94E2,-7.746082E-1,-3.5343572E-1,1.4443976E-1,6.246873E-1,1.1647706E0,2.0007532E0],"split_indices":[1,1,1,0,1,1,1,0,0,0,0,0,0],"split_type":[0,0,0,0,0,0,0,0,0,0,0,0,0],"sum_hessian":[4.4E1,2.4E1,2E1,1.2E1,1.2E1,1.2E1,8E0,6E0,6E0,4E0,8E0,5E0,3E0],"tree_param":{"num_deleted":"0","num_feature":"2","num_nodes":"13","size_leaf_vector":"1"}},{"base_weights":[-2.570451E1,-8.8338715E1,9.332796E0,-1.2442377E1,-1.0099711E2,8.802728E1,-3.9200367E1,-3.6385608E-1,1.5648314E-1,-1.1467538E0,-6.6978085E-1,1.8307368E0,6.6076314E-1,-8.4187233E-1,5.024732E-1],"categories":[],"categories_nodes":[],"categories_segments":[],"categories_sizes":[],"default_left":[0,0,0,0,0,0,0,0,0,0,0,0,0,0,0],"id":35,"left_children":[1,3,5,7,9,11,13,-1,-1,-1,-1,-1,-1,-1,-1],"loss_changes":[8.270724E4,1.2341469E4,9.529802E4,1.9661417E3,1.5108281E3,1.3772008E4,6.448664E4,0E0,0E0,0E0,0E0,0E0,0E0,0E0,0E0],"parents":[2147483647,0,0,1,1,2,2,3,3,4,4,5,5,6,6],"right_children":[2,4,6,8,10,12,14,-1,-1,-1,-1,-1,-1,-1,-1],"split_conditions":[2.54275E5,8.6311E4,3.50128E5,6.0338E4,1.49684E5,2.58939E5,4.60317E5,-3.6385608E-1,1.5648314E-1,-1.1467538E0,-6.6978085E-1,1.8307368E0,6.6076314E-1,-8.4187233E-1,5.024732E-1],"split_indices":[0,0,0,0,0,0,0,0,0,0,0,0,0,0,0],"split_type":[0,0,0,0,0,0,0,0,0,0,0,0,0,0,0],"sum_hessian":[3.7E1,1.3E1,2.4E1,2E0,1.1E1,9E0,1.5E1,1E0,1E0,7E0,4E0,1E0,8E0,1E1,5E0],"tree_param":{"num_deleted":"0","num_feature":"2","num_nodes":"15","size_leaf_vector":"1"}},{"base_weights":[1.9261536E1,-1.5045265E0,3.0941952E1,8.025613E1,4.052666E0,3.481403E-1,1.3492662E0,-1.4204273E0,2.0946257E-1],"categories":[],"categories_nodes":[],"categories_segments":[],"categories_sizes":[],"default_left":[0,0,0,0,0,0,0,0,0],"id":36,"left_children":[1,-1,3,5,7,-1,-1,-1,-1],"loss_changes":[7.66651E4,0E0,4.6911188E4,2.8705594E4,5.948742E4,0E0,0E0,0E0,0E0],"parents":[2147483647,0,0,2,2,3,3,4,4],"right_children":[2,-1,4,6,8,-1,-1,-1,-1],"split_conditions":[1.2435E4,-1.5045265E0,1.85214E5,1.06155E5,2.25671E5,3.481403E-1,1.3492662E0,-1.4204273E0,2.0946257E-1],"split_indices":[0,0,0,0,0,0,0,0,0],"split_type":[0,0,0,0,0,0,0,0,0],"sum_hessian":[3.7E1,2E0,3.5E1,1.2E1,2.3E1,7E0,5E0,2E0,2.1E1],"tree_param":{"num_deleted":"0","num_feature":"2","num_nodes":"9","size_leaf_vector":"1"}},{"base_weights":[5.4680243E0,-7.060942E1,2.8883451E1,6.9560265E1,-1.1908934E2,6.3350666E1,-2.993731E1,3.196824E-1,8.3965534E-1,-1.4503506E0,-7.613085E-1,1.2485131E0,4.6321175E-1,-3.6750698E-1,2.3193258E-1],"categories":[],"categories_nodes":[],"categories_segments":[],"categories_sizes":[],"default_left":[0,0,0,0,0,0,0,0,0,0,0,0,0,0,0],"id":37,"left_children":[1,3,5,7,9,11,13,-1,-1,-1,-1,-1,-1,-1,-1],"loss_changes":[6.4258914E4,6.190298E4,5.6701445E4,1.1693359E1,1.7240078E3,1.54365625E4,4.227176E3,0E0,0E0,0E0,0E0,0E0,0E0,0E0,0E0],"parents":[2147483647,0,0,1,1,2,2,3,3,4,4,5,5,6,6],"right_children":[2,4,6,8,10,12,14,-1,-1,-1,-1,-1,-1,-1,-1],"split_conditions":[1.76933E5,4.2843E4,4.34867E5,1.3558E4,1.48866E5,2.39188E5,4.78341E5,3.196824E-1,8.3965534E-1,-1.4503506E0,-7.613085E-1,1.2485131E0,4.6321175E-1,-3.6750698E-1,2.3193258E-1],"split_indices":[0,0,0,0,0,0,0,0,0,0,0,0,0,0,0],"split_type":[0,0,0,0,0,0,0,0,0,0,0,0,0,0,0],"sum_hessian":[3.5E1,8E0,2.7E1,2E0,6E0,1.7E1,1E1,1E0,1E0,3E0,3E0,3E0,1.4E1,9E0,1E0],"tree_param":{"num_deleted":"0","num_feature":"2","num_nodes":"15","size_leaf_vector":"1"}},{"base_weights":[-2.0516453E1,-1.448866E2,1.1590014E2,-1.9148492E0,-8.793684E1,6.39684E1,1.7813138E0,-1.0081753E0,-4.4092754E-1,-3.2851215E-2,8.537925E-1],"categories":[],"categories_nodes":[],"categories_segments":[],"categories_sizes":[],"default_left":[0,0,0,0,0,0,0,0,0,0,0],"id":38,"left_children":[1,3,5,-1,7,9,-1,-1,-1,-1,-1],"loss_changes":[7.6339E5,5.3944125E4,6.378578E4,0E0,4.271875E3,1.8139684E4,0E0,0E0,0E0,0E0,0E0],"parents":[2147483647,0,0,1,1,2,2,4,4,5,5],"right_children":[2,4,6,-1,8,10,-1,-1,-1,-1,-1],"split_conditions":[2.13E2,9.7E1,3.72E2,-1.9148492E0,1.76E2,2.69E2,1.7813138E0,-1.0081753E0,-4.4092754E-1,-3.2851215E-2,8.537925E-1],"split_indices":[1,1,1,0,1,1,0,0,0,0,0],"split_type":[0,0,0,0,0,0,0,0,0,0,0],"sum_hessian":[4.4E1,2.3E1,2.1E1,1.2E1,1.1E1,1.2E1,9E0,8E0,3E0,3E0,9E0],"tree_param":{"num_deleted":"0","num_feature":"2","num_nodes":"11","size_leaf_vector":"1"}},{"base_weights":[-4.2644978E1,-8.223321E-1,-8.351996E1,-8.4296486E1,4.813915E1,-1.4220879E2,-5.7869205E1,3.0876106E-1,-1.4992481E0,8.8470024E-1,2.856215E-1,-6.285342E-1,-1.7049413E0,1.1506771E0,-7.273829E-1],"categories":[],"categories_nodes":[],"categories_segments":[],"categories_sizes":[],"default_left":[0,0,0,0,0,0,0,0,0,0,0,0,0,0,0],"id":39,"left_children":[1,3,5,7,9,11,13,-1,-1,-1,-1,-1,-1,-1,-1],"loss_changes":[7.603841E4,9.398689E4,2.9757031E4,6.656253E4,1.0185141E4,9.231781E3,4.661323E4,0E0,0E0,0E0,0E0,0E0,0E0,0E0,0E0],"parents":[2147483647,0,0,1,1,2,2,3,3,4,4,5,5,6,6],"right_children":[2,4,6,8,10,12,14,-1,-1,-1,-1,-1,-1,-1,-1],"split_conditions":[2.72597E5,1.36888E5,3.38075E5,3.8666E4,1.53652E5,2.97036E5,3.41014E5,3.0876106E-1,-1.4992481E0,8.8470024E-1,2.856215E-1,-6.285342E-1,-1.7049413E0,1.1506771E0,-7.273829E-1],"split_indices":[0,0,0,0,0,0,0,0,0,0,0,0,0,0,0],"split_type":[0,0,0,0,0,0,0,0,0,0,0,0,0,0,0],"sum_hessian":[4.4E1,2.2E1,2.2E1,8E0,1.4E1,6E0,1.6E1,3E0,5E0,4E0,1E1,2E0,4E0,1E0,1.5E1],"tree_param":{"num_deleted":"0","num_feature":"2","num_nodes":"15","size_leaf_vector":"1"}},{"base_weights":[-2.536655E1,-4.661817E1,-3.4962323E0,-1.9622696E1,-9.210216E1,1.075792E2,-3.3683586E1,-3.4889603E-1,5.4529613E-1,-1.2889091E0,-3.1644866E-1,1.4485899E0,4.8783568E-1,-7.2233975E-1,1.7392486E-1],"categories":[],"categories_nodes":[],"categories_segments":[],"categories_sizes":[],"default_left":[0,0,0,0,0,0,0,0,0,0,0,0,0,0,0],"id":40,"left_children":[1,3,5,7,9,11,13,-1,-1,-1,-1,-1,-1,-1,-1],"loss_changes":[1.8742086E4,2.4267527E4,7.0549836E4,1.6234289E4,1.4641754E4,6.330133E3,3.3116707E4,0E0,0E0,0E0,0E0,0E0,0E0,0E0,0E0],"parents":[2147483647,0,0,1,1,2,2,3,3,4,4,5,5,6,6],"right_children":[2,4,6,8,10,12,14,-1,-1,-1,-1,-1,-1,-1,-1],"split_conditions":[2.61301E5,1.6241E5,2.79311E5,1.28287E5,2.23979E5,2.69027E5,4.09887E5,-3.4889603E-1,5.4529613E-1,-1.2889091E0,-3.1644866E-1,1.4485899E0,4.8783568E-1,-7.2233975E-1,1.7392486E-1],"split_indices":[0,0,0,0,0,0,0,0,0,0,0,0,0,0,0],"split_type":[0,0,0,0,0,0,0,0,0,0,0,0,0,0,0],"sum_hessian":[4E1,2E1,2E1,1.3E1,7E0,4E0,1.6E1,1.1E1,2E0,4E0,3E0,2E0,2E0,9E0,7E0],"tree_param":{"num_deleted":"0","num_feature":"2","num_nodes":"15","size_leaf_vector":"1"}},{"base_weights":[6.1830106E0,-9.588259E1,1.1463404E2,-1.4532715E0,-5.180096E1,7.53055E1,2.0240319E0,-5.9888834E-1,-1.7177148E-1,3.3067E-1,1.0525303E0],"categories":[],"categories_nodes":[],"categories_segments":[],"categories_sizes":[],"default_left":[0,0,0,0,0,0,0,0,0,0,0],"id":41,"left_children":[1,3,5,-1,7,9,-1,-1,-1,-1,-1],"loss_changes":[3.5417297E5,3.2199312E4,4.588239E4,0E0,2.145955E3,1.2806602E4,0E0,0E0,0E0,0E0,0E0],"parents":[2147483647,0,0,1,1,2,2,4,4,5,5],"right_children":[2,4,6,-1,8,10,-1,-1,-1,-1,-1],"split_conditions":[2.49E2,1.43E2,3.96E2,-1.4532715E0,2.16E2,3.28E2,2.0240319E0,-5.9888834E-1,-1.7177148E-1,3.3067E-1,1.0525303E0],"split_indices":[1,1,1,0,1,1,0,0,0,0,0],"split_type":[0,0,0,0,0,0,0,0,0,0,0],"sum_hessian":[3.1E1,1.6E1,1.5E1,7E0,9E0,1.1E1,4E0,7E0,2E0,5E0,6E0],"tree_param":{"num_deleted":"0","num_feature":"2","num_nodes":"11","size_leaf_vector":"1"}},{"base_weights":[2.841139E1,-1.1905927E1,7.0311226E1,5.1081493E1,-4.6989864E1,1.5393149E0,3.739549E1,1.5028726E-1,7.9836905E-1,-1.0415308E0,-2.0687957E-1,-1.261663E0,5.710374E-1],"categories":[],"categories_nodes":[],"categories_segments":[],"categories_sizes":[],"default_left":[0,0,0,0,0,0,0,0,0,0,0,0,0],"id":42,"left_children":[1,3,5,7,9,-1,11,-1,-1,-1,-1,-1,-1],"loss_changes":[5.7009742E4,3.9872473E4,4.2536797E4,6.138707E3,1.6212914E4,0E0,4.3896258E4,0E0,0E0,0E0,0E0,0E0,0E0],"parents":[2147483647,0,0,1,1,2,2,3,3,4,4,6,6],"right_children":[2,4,6,8,10,-1,12,-1,-1,-1,-1,-1,-1],"split_conditions":[2.19824E5,7.0465E4,2.69027E5,3.87E4,1.116E5,1.5393149E0,3.0894E5,1.5028726E-1,7.9836905E-1,-1.0415308E0,-2.0687957E-1,-1.261663E0,5.710374E-1],"split_indices":[0,0,0,0,0,0,0,0,0,0,0,0,0],"split_type":[0,0,0,0,0,0,0,0,0,0,0,0,0],"sum_hessian":[3.3E1,1.7E1,1.6E1,6E0,1.1E1,4E0,1.2E1,3E0,3E0,3E0,8E0,1E0,1.1E1],"tree_param":{"num_deleted":"0","num_feature":"2","num_nodes":"13","size_leaf_vector":"1"}},{"base_weights":[1.5393478E0,1.9164665E1,-7.963973E1,-1.2809029E1,1.5788281E0,-1.0912343E2,7.4669516E-1,3.9249033E-1,-4.665264E-1,-6.4808124E-1,-1.3784966E0],"categories":[],"categories_nodes":[],"categories_segments":[],"categories_sizes":[],"default_left":[0,0,0,0,0,0,0,0,0,0,0],"id":43,"left_children":[1,3,5,7,-1,9,-1,-1,-1,-1,-1],"loss_changes":[6.014163E4,1.5403011E5,3.8196152E4,5.1127773E4,0E0,3.8076953E3,0E0,0E0,0E0,0E0,0E0],"parents":[2147483647,0,0,1,1,2,2,3,3,5,5],"right_children":[2,4,6,8,-1,10,-1,-1,-1,-1,-1],"split_conditions":[3.85221E5,3.03944E5,4.48139E5,1.40269E5,1.5788281E0,4.1772E5,7.4669516E-1,3.9249033E-1,-4.665264E-1,-6.4808124E-1,-1.3784966E0],"split_indices":[0,0,0,0,0,0,0,0,0,0,0],"split_type":[0,0,0,0,0,0,0,0,0,0,0],"sum_hessian":[4.1E1,3.4E1,7E0,2.8E1,6E0,6E0,1E0,1.1E1,1.7E1,3E0,3E0],"tree_param":{"num_deleted":"0","num_feature":"2","num_nodes":"11","size_leaf_vector":"1"}},{"base_weights":[1.7923795E0,-8.951536E1,1.4971208E2,-1.5071245E2,-2.9633423E1,8.816938E1,2.0127397E0,-1.741222E0,-1.0934522E0,-6.7393005E-1,-7.899913E-2,2.3806478E-1,9.62401E-1],"categories":[],"categories_nodes":[],"categories_segments":[],"categories_sizes":[],"default_left":[0,0,0,0,0,0,0,0,0,0,0,0,0],"id":44,"left_children":[1,3,5,7,9,11,-1,-1,-1,-1,-1,-1,-1],"loss_changes":[5.1318378E5,8.3885016E4,3.7139188E4,1.6168594E3,9.991903E3,2.7503438E3,0E0,0E0,0E0,0E0,0E0,0E0,0E0],"parents":[2147483647,0,0,1,1,2,2,3,3,4,4,5,5],"right_children":[2,4,6,8,10,12,-1,-1,-1,-1,-1,-1,-1],"split_conditions":[2.72E2,1.38E2,3.96E2,1E2,1.97E2,3.02E2,2.0127397E0,-1.741222E0,-1.0934522E0,-6.7393005E-1,-7.899913E-2,2.3806478E-1,9.62401E-1],"split_indices":[1,1,1,1,1,1,0,0,0,0,0,0,0],"split_type":[0,0,0,0,0,0,0,0,0,0,0,0,0],"sum_hessian":[3.7E1,2.3E1,1.4E1,1.1E1,1.2E1,7E0,7E0,6E0,5E0,4E0,8E0,1E0,6E0],"tree_param":{"num_deleted":"0","num_feature":"2","num_nodes":"13","size_leaf_vector":"1"}},{"base_weights":[1.685579E1,-1.1314639E0,3.406719E1,1.6852564E1,1.4313338E0,3.430831E-1,-8.3935845E-1],"categories":[],"categories_nodes":[],"categories_segments":[],"categories_sizes":[],"default_left":[0,0,0,0,0,0,0],"id":45,"left_children":[1,-1,3,5,-1,-1,-1],"loss_changes":[8.583427E4,0E0,6.1691297E4,5.3340293E4,0E0,0E0,0E0],"parents":[2147483647,0,0,2,2,3,3],"right_children":[2,-1,4,6,-1,-1,-1],"split_conditions":[4.453E4,-1.1314639E0,4.5723E5,3.95312E5,1.4313338E0,3.430831E-1,-8.3935845E-1],"split_indices":[0,0,0,0,0,0,0],"split_type":[0,0,0,0,0,0,0],"sum_hessian":[3.7E1,4E0,3.3E1,2.9E1,4E0,2.5E1,4E0],"tree_param":{"num_deleted":"0","num_feature":"2","num_nodes":"7","size_leaf_vector":"1"}},{"base_weights":[-4.2765045E0,2.105747E1,-1.2671989E2,-1.908544E1,1.3080214E2,-5.51121E1,-1.52422E0,4.879135E-3,-1.3100287E0,1.7537732E0,9.0545005E-1,-1.448364E0,5.298291E-1],"categories":[],"categories_nodes":[],"categories_segments":[],"categories_sizes":[],"default_left":[0,0,0,0,0,0,0,0,0,0,0,0,0],"id":46,"left_children":[1,3,5,7,9,11,-1,-1,-1,-1,-1,-1,-1],"loss_changes":[1.1765836E5,1.4002052E5,7.762922E3,5.1511047E4,7.3132188E3,2.8083807E4,0E0,0E0,0E0,0E0,0E0,0E0,0E0],"parents":[2147483647,0,0,1,1,2,2,3,3,4,4,5,5],"right_children":[2,4,6,8,10,12,-1,-1,-1,-1,-1,-1,-1],"split_conditions":[4.04778E5,2.99635E5,4.42565E5,2.62411E5,3.25648E5,4.37682E5,-1.52422E0,4.879135E-3,-1.3100287E0,1.7537732E0,9.0545005E-1,-1.448364E0,5.298291E-1],"split_indices":[0,0,0,0,0,0,0,0,0,0,0,0,0],"split_type":[0,0,0,0,0,0,0,0,0,0,0,0,0],"sum_hessian":[3.7E1,3.1E1,6E0,2.3E1,8E0,2E0,4E0,2E1,3E0,3E0,5E0,1E0,1E0],"tree_param":{"num_deleted":"0","num_feature":"2","num_nodes":"13","size_leaf_vector":"1"}},{"base_weights":[6.572805E0,2.0455626E1,-9.5512436E1,-2.1026741E1,1.0465723E2,-1.4093307E0,1.2026103E-1,2.853385E-1,-1.3175293E0,1.5494583E0,1.0681244E-1],"categories":[],"categories_nodes":[],"categories_segments":[],"categories_sizes":[],"default_left":[0,0,0,0,0,0,0,0,0,0,0],"id":47,"left_children":[1,3,5,7,9,-1,-1,-1,-1,-1,-1],"loss_changes":[4.1367973E4,9.016878E4,1.7943078E4,9.791368E4,3.934282E4,0E0,0E0,0E0,0E0,0E0,0E0],"parents":[2147483647,0,0,1,1,2,2,3,3,4,4],"right_children":[2,4,6,8,10,-1,-1,-1,-1,-1,-1],"split_conditions":[4.04778E5,3.34369E5,4.86222E5,2.02979E5,3.48945E5,-1.4093307E0,1.2026103E-1,2.853385E-1,-1.3175293E0,1.5494583E0,1.0681244E-1],"split_indices":[0,0,0,0,0,0,0,0,0,0,0],"split_type":[0,0,0,0,0,0,0,0,0,0,0],"sum_hessian":[2.8E1,2.5E1,3E0,1.7E1,8E0,2E0,1E0,1.2E1,5E0,5E0,3E0],"tree_param":{"num_deleted":"0","num_feature":"2","num_nodes":"11","size_leaf_vector":"1"}},{"base_weights":[-1.4188278E1,-1.130814E2,1.19295166E2,-1.509476E2,-2.5737633E1,7.887533E1,1.7826623E0,-1.6853755E0,-9.704132E-1,-3.5709795E-1,-1.2088667E-1,3.4152508E-1,9.688951E-1],"categories":[],"categories_nodes":[],"categories_segments":[],"categories_sizes":[],"default_left":[0,0,0,0,0,0,0,0,0,0,0,0,0],"id":48,"left_children":[1,3,5,7,9,11,-1,-1,-1,-1,-1,-1,-1],"loss_changes":[4.4896494E5,6.2551344E4,2.7531844E4,4.6232812E3,6.688716E2,5.999125E3,0E0,0E0,0E0,0E0,0E0,0E0,0E0],"parents":[2147483647,0,0,1,1,2,2,3,3,4,4,5,5],"right_children":[2,4,6,8,10,12,-1,-1,-1,-1,-1,-1,-1],"split_conditions":[2.7E2,1.67E2,3.76E2,1.15E2,2.07E2,3.25E2,1.7826623E0,-1.6853755E0,-9.704132E-1,-3.5709795E-1,-1.2088667E-1,3.4152508E-1,9.688951E-1],"split_indices":[1,1,1,1,1,1,0,0,0,0,0,0,0],"split_type":[0,0,0,0,0,0,0,0,0,0,0,0,0],"sum_hessian":[3.3E1,1.9E1,1.4E1,1.3E1,6E0,9E0,5E0,9E0,4E0,3E0,3E0,3E0,6E0],"tree_param":{"num_deleted":"0","num_feature":"2","num_nodes":"13","size_leaf_vector":"1"}},{"base_weights":[-3.004351E1,-1.1916358E1,-6.82524E1,-2.688098E1,8.7509094E1,-7.407503E1,1.0783732E-1,-2.0730975E-1,-1.3477074E0,1.1650268E0,-9.312297E-2,-9.844846E-1,-5.6065404E-1],"categories":[],"categories_nodes":[],"categories_segments":[],"categories_sizes":[],"default_left":[0,0,0,0,0,0,0,0,0,0,0,0,0],"id":49,"left_children":[1,3,5,7,9,11,-1,-1,-1,-1,-1,-1,-1],"loss_changes":[3.318533E4,5.1019625E4,7.532453E3,1.8176945E4,1.3174852E4,3.6050938E3,0E0,0E0,0E0,0E0,0E0,0E0,0E0],"parents":[2147483647,0,0,1,1,2,2,3,3,4,4,5,5],"right_children":[2,4,6,8,10,12,-1,-1,-1,-1,-1,-1,-1],"split_conditions":[3.55441E5,2.97383E5,4.73424E5,2.95883E5,3.41014E5,4.17693E5,1.0783732E-1,-2.0730975E-1,-1.3477074E0,1.1650268E0,-9.312297E-2,-9.844846E-1,-5.6065404E-1],"split_indices":[0,0,0,0,0,0,0,0,0,0,0,0,0],"split_type":[0,0,0,0,0,0,0,0,0,0,0,0,0],"sum_hessian":[4.8E1,3.3E1,1.5E1,2.9E1,4E0,1.4E1,1E0,2.8E1,1E0,3E0,1E0,5E0,9E0],"tree_param":{"num_deleted":"0","num_feature":"2","num_nodes":"13","size_leaf_vector":"1"}},{"base_weights":[3.9534927E1,2.3665285E1,1.5279912E2,3.8446354E1,-3.4242645E1,1.6464032E0,6.634243E-1,-5.1087573E-2,4.840428E-1,-5.831675E-1,-6.3638E-2],"categories":[],"categories_nodes":[],"categories_segments":[],"categories_sizes":[],"default_left":[0,0,0,0,0,0,0,0,0,0,0],"id":50,"left_children":[1,3,5,7,9,-1,-1,-1,-1,-1,-1],"loss_changes":[7.997649E4,3.5323867E4,1.6932812E2,1.4219496E4,5.519288E3,0E0,0E0,0E0,0E0,0E0,0E0],"parents":[2147483647,0,0,1,1,2,2,3,3,4,4],"right_children":[2,4,6,8,10,-1,-1,-1,-1,-1,-1],"split_conditions":[4.52994E5,3.37338E5,4.82987E5,2.5847E4,3.80689E5,1.6464032E0,6.634243E-1,-5.1087573E-2,4.840428E-1,-5.831675E-1,-6.3638E-2],"split_indices":[0,0,0,0,0,0,0,0,0,0,0],"split_type":[0,0,0,0,0,0,0,0,0,0,0],"sum_hessian":[4.5E1,4E1,5E0,3.2E1,8E0,4E0,1E0,6E0,2.6E1,4E0,4E0],"tree_param":{"num_deleted":"0","num_feature":"2","num_nodes":"11","size_leaf_vector":"1"}},{"base_weights":[9.404936E0,2.6524982E1,-5.459317E1,-5.8139744E0,1.0172119E2,-9.4471664E1,-8.648773E0,-1.1347916E0,7.457731E-2,1.204095E0,2.5312042E-1,-3.9973286E-1,-1.0433215E0,7.316184E-1,-4.2474926E-1],"categories":[],"categories_nodes":[],"categories_segments":[],"categories_sizes":[],"default_left":[0,0,0,0,0,0,0,0,0,0,0,0,0,0,0],"id":51,"left_children":[1,3,5,7,9,11,13,-1,-1,-1,-1,-1,-1,-1,-1],"loss_changes":[4.400224E4,7.689637E4,1.5165111E4,3.2573414E4,1.2041703E4,3.3296875E2,1.4006797E4,0E0,0E0,0E0,0E0,0E0,0E0,0E0,0E0],"parents":[2147483647,0,0,1,1,2,2,3,3,4,4,5,5,6,6],"right_children":[2,4,6,8,10,12,14,-1,-1,-1,-1,-1,-1,-1,-1],"split_conditions":[3.67983E5,2.27714E5,4.5723E5,1.8462E4,3.51156E5,3.80689E5,4.61899E5,-1.1347916E0,7.457731E-2,1.204095E0,2.5312042E-1,-3.9973286E-1,-1.0433215E0,7.316184E-1,-4.2474926E-1],"split_indices":[0,0,0,0,0,0,0,0,0,0,0,0,0,0,0],"split_type":[0,0,0,0,0,0,0,0,0,0,0,0,0,0,0],"sum_hessian":[3.9E1,3.1E1,8E0,2.2E1,9E0,4E0,4E0,2E0,2E1,7E0,2E0,1E0,3E0,1E0,3E0],"tree_param":{"num_deleted":"0","num_feature":"2","num_nodes":"15","size_leaf_vector":"1"}},{"base_weights":[-2.0072887E1,-6.1484406E1,-3.346767E0,3.314957E1,-1.13036476E2,6.1305065E1,-4.0415974E1,-4.1893736E-1,8.201628E-1,-7.7911514E-1,-1.3149904E0,9.815911E-1,2.5277886E-1,-5.8495545E-1,7.1252364E-1],"categories":[],"categories_nodes":[],"categories_segments":[],"categories_sizes":[],"default_left":[0,0,0,0,0,0,0,0,0,0,0,0,0,0,0],"id":52,"left_children":[1,3,5,7,9,11,13,-1,-1,-1,-1,-1,-1,-1,-1],"loss_changes":[3.487614E4,7.261292E4,8.871447E4,2.1887145E4,1.0380781E3,1.6683965E4,4.952849E4,0E0,0E0,0E0,0E0,0E0,0E0,0E0,0E0],"parents":[2147483647,0,0,1,1,2,2,3,3,4,4,5,5,6,6],"right_children":[2,4,6,8,10,12,14,-1,-1,-1,-1,-1,-1,-1,-1],"split_conditions":[1.04261E5,4.0521E4,2.07951E5,2.3263E4,5.8106E4,1.57705E5,4.73424E5,-4.1893736E-1,8.201628E-1,-7.7911514E-1,-1.3149904E0,9.815911E-1,2.5277886E-1,-5.8495545E-1,7.1252364E-1],"split_indices":[0,0,0,0,0,0,0,0,0,0,0,0,0,0,0],"split_type":[0,0,0,0,0,0,0,0,0,0,0,0,0,0,0],"sum_hessian":[5E1,1.4E1,3.6E1,5E0,9E0,1.3E1,2.3E1,2E0,3E0,4E0,5E0,6E0,7E0,2E1,3E0],"tree_param":{"num_deleted":"0","num_feature":"2","num_nodes":"15","size_leaf_vector":"1"}},{"base_weights":[6.1967483E0,-1.4098447E2,1.1900567E2,-1.7456344E0,-8.905213E-1,5.037523E1,1.7649407E0,1.434021E-2,6.180645E-1],"categories":[],"categories_nodes":[],"categories_segments":[],"categories_sizes":[],"default_left":[0,0,0,0,0,0,0,0,0],"id":53,"left_children":[1,3,5,-1,-1,7,-1,-1,-1],"loss_changes":[6.3101475E5,2.1000656E4,8.038181E4,0E0,0E0,5.829992E3,0E0,0E0,0E0],"parents":[2147483647,0,0,1,1,2,2,5,5],"right_children":[2,4,6,-1,-1,8,-1,-1,-1],"split_conditions":[1.9E2,1E2,3.48E2,-1.7456344E0,-8.905213E-1,2.73E2,1.7649407E0,1.434021E-2,6.180645E-1],"split_indices":[1,1,1,0,0,1,0,0,0],"split_type":[0,0,0,0,0,0,0,0,0],"sum_hessian":[3.7E1,1.6E1,2.1E1,9E0,7E0,1E1,1.1E1,2E0,8E0],"tree_param":{"num_deleted":"0","num_feature":"2","num_nodes":"9","size_leaf_vector":"1"}},{"base_weights":[-6.5235333E0,4.2602844E1,-3.9475513E1,-9.039583E1,6.406459E1,-1.0236532E2,1.55593405E1,-1.3275005E0,-1.7909667E-1,1.3255044E0,4.0435645E-1,-6.064775E-1,-1.2979054E0,1.1912785E0,-3.431834E-1],"categories":[],"categories_nodes":[],"categories_segments":[],"categories_sizes":[],"default_left":[0,0,0,0,0,0,0,0,0,0,0,0,0,0,0],"id":54,"left_children":[1,3,5,7,9,11,13,-1,-1,-1,-1,-1,-1,-1,-1],"loss_changes":[6.640274E4,4.9992906E4,8.5594086E4,6.4864805E3,2.0784723E4,9.221555E3,7.178186E4,0E0,0E0,0E0,0E0,0E0,0E0,0E0,0E0],"parents":[2147483647,0,0,1,1,2,2,3,3,4,4,5,5,6,6],"right_children":[2,4,6,8,10,12,14,-1,-1,-1,-1,-1,-1,-1,-1],"split_conditions":[1.68235E5,1.8462E4,3.0894E5,1.2435E4,5.8634E4,2.54059E5,3.45798E5,-1.3275005E0,-1.7909667E-1,1.3255044E0,4.0435645E-1,-6.064775E-1,-1.2979054E0,1.1912785E0,-3.431834E-1],"split_indices":[0,0,0,0,0,0,0,0,0,0,0,0,0,0,0],"split_type":[0,0,0,0,0,0,0,0,0,0,0,0,0,0,0],"sum_hessian":[4E1,1.6E1,2.4E1,2E0,1.4E1,1.1E1,1.3E1,1E0,1E0,3E0,1.1E1,5E0,6E0,4E0,9E0],"tree_param":{"num_deleted":"0","num_feature":"2","num_nodes":"15","size_leaf_vector":"1"}},{"base_weights":[2.9258192E0,1.9989326E1,-8.713705E1,6.6420536E0,1.23063446E2,-1.032648E0,-3.4228596E-1,-3.2512245E-1,2.488505E-1,1.5927492E0,6.2239265E-1],"categories":[],"categories_nodes":[],"categories_segments":[],"categories_sizes":[],"default_left":[0,0,0,0,0,0,0,0,0,0,0],"id":55,"left_children":[1,3,5,7,9,-1,-1,-1,-1,-1,-1],"loss_changes":[7.233156E4,5.3933766E4,4.6324023E3,2.576189E4,4.9548203E3,0E0,0E0,0E0,0E0,0E0,0E0],"parents":[2147483647,0,0,1,1,2,2,3,3,4,4],"right_children":[2,4,6,8,10,-1,-1,-1,-1,-1,-1],"split_conditions":[4.41488E5,3.99736E5,4.88102E5,1.38629E5,4.24861E5,-1.032648E0,-3.4228596E-1,-3.2512245E-1,2.488505E-1,1.5927492E0,6.2239265E-1],"split_indices":[0,0,0,0,0,0,0,0,0,0,0],"split_type":[0,0,0,0,0,0,0,0,0,0,0],"sum_hessian":[4.6E1,3.9E1,7E0,3.5E1,4E0,5E0,2E0,1.1E1,2.4E1,2E0,2E0],"tree_param":{"num_deleted":"0","num_feature":"2","num_nodes":"11","size_leaf_vector":"1"}},{"base_weights":[2.7348642E1,-1.2357804E1,5.8208927E1,3.4005795E1,-9.974669E1,1.1904986E2,2.675926E1,-2.2423065E-1,7.04561E-1,-1.3883784E0,-5.757491E-1,7.0111763E-1,1.8332846E0,-5.347405E-1,7.710086E-1],"categories":[],"categories_nodes":[],"categories_segments":[],"categories_sizes":[],"default_left":[0,0,0,0,0,0,0,0,0,0,0,0,0,0,0],"id":56,"left_children":[1,3,5,7,9,11,13,-1,-1,-1,-1,-1,-1,-1,-1],"loss_changes":[4.263433E4,6.4496758E4,3.5718984E4,2.238684E4,5.070203E3,1.4020133E4,5.6588938E4,0E0,0E0,0E0,0E0,0E0,0E0,0E0,0E0],"parents":[2147483647,0,0,1,1,2,2,3,3,4,4,5,5,6,6],"right_children":[2,4,6,8,10,12,14,-1,-1,-1,-1,-1,-1,-1,-1],"split_conditions":[1.86153E5,1.25021E5,2.69027E5,3.3943E4,1.45398E5,2.35023E5,3.17042E5,-2.2423065E-1,7.04561E-1,-1.3883784E0,-5.757491E-1,7.0111763E-1,1.8332846E0,-5.347405E-1,7.710086E-1],"split_indices":[0,0,0,0,0,0,0,0,0,0,0,0,0,0,0],"split_type":[0,0,0,0,0,0,0,0,0,0,0,0,0,0,0],"sum_hessian":[3.4E1,1.5E1,1.9E1,1E1,5E0,6E0,1.3E1,4E0,6E0,2E0,3E0,4E0,2E0,5E0,8E0],"tree_param":{"num_deleted":"0","num_feature":"2","num_nodes":"15","size_leaf_vector":"1"}},{"base_weights":[2.8966114E1,-1.124232E2,1.1770451E2,-1.7249032E0,-4.7002598E1,5.6927624E1,1.8252665E0,-7.599351E-1,-1.373872E-1,2.4987032E-1,6.870437E-1],"categories":[],"categories_nodes":[],"categories_segments":[],"categories_sizes":[],"default_left":[0,0,0,0,0,0,0,0,0,0,0],"id":57,"left_children":[1,3,5,-1,7,9,-1,-1,-1,-1,-1],"loss_changes":[6.653161E5,7.650361E4,1.2284444E5,0E0,9.603652E3,5.724379E3,0E0,0E0,0E0,0E0,0E0],"parents":[2147483647,0,0,1,1,2,2,4,4,5,5],"right_children":[2,4,6,-1,8,10,-1,-1,-1,-1,-1],"split_conditions":[2.41E2,1.07E2,3.76E2,-1.7249032E0,2.07E2,2.91E2,1.8252665E0,-7.599351E-1,-1.373872E-1,2.4987032E-1,6.870437E-1],"split_indices":[1,1,1,0,1,1,0,0,0,0,0],"split_type":[0,0,0,0,0,0,0,0,0,0,0],"sum_hessian":[5.2E1,2E1,3.2E1,1E1,1E1,1.7E1,1.5E1,5E0,5E0,5E0,1.2E1],"tree_param":{"num_deleted":"0","num_feature":"2","num_nodes":"11","size_leaf_vector":"1"}},{"base_weights":[-9.556476E0,-1.02383E2,1.1951117E2,-1.6937672E0,-4.7372456E1,8.200764E1,1.8024417E0,-7.1121407E-1,-1.06809385E-1,4.160538E-1,1.0367014E0],"categories":[],"categories_nodes":[],"categories_segments":[],"categories_sizes":[],"default_left":[0,0,0,0,0,0,0,0,0,0,0],"id":58,"left_children":[1,3,5,-1,7,9,-1,-1,-1,-1,-1],"loss_changes":[4.4342084E5,7.5223375E4,2.7913688E4,0E0,1.0512494E4,7.033133E3,0E0,0E0,0E0,0E0,0E0],"parents":[2147483647,0,0,1,1,2,2,4,4,5,5],"right_children":[2,4,6,-1,8,10,-1,-1,-1,-1,-1],"split_conditions":[2.63E2,1E2,3.98E2,-1.6937672E0,2E2,3.36E2,1.8024417E0,-7.1121407E-1,-1.06809385E-1,4.160538E-1,1.0367014E0],"split_indices":[1,1,1,0,1,1,0,0,0,0,0],"split_type":[0,0,0,0,0,0,0,0,0,0,0],"sum_hessian":[3.6E1,2.1E1,1.5E1,9E0,1.2E1,1E1,5E0,7E0,5E0,4E0,6E0],"tree_param":{"num_deleted":"0","num_feature":"2","num_nodes":"11","size_leaf_vector":"1"}},{"base_weights":[2.8294184E1,5.723365E1,-4.9688496E1,-4.9615673E1,9.011676E1,-8.643232E0,-6.3666634E1,-1.2100627E0,-1.2654886E-1,1.3941369E0,8.2288814E-1,-3.1224033E-1,3.1872517E-1,-1.1853285E0,-3.7666804E-1],"categories":[],"categories_nodes":[],"categories_segments":[],"categories_sizes":[],"default_left":[0,0,0,0,0,0,0,0,0,0,0,0,0,0,0],"id":59,"left_children":[1,3,5,7,9,11,13,-1,-1,-1,-1,-1,-1,-1,-1],"loss_changes":[9.507818E4,1.093985E5,6.3228223E3,1.9024236E4,3.3324062E3,3.699668E3,9.892977E3,0E0,0E0,0E0,0E0,0E0,0E0,0E0,0E0],"parents":[2147483647,0,0,1,1,2,2,3,3,4,4,5,5,6,6],"right_children":[2,4,6,8,10,12,14,-1,-1,-1,-1,-1,-1,-1,-1],"split_conditions":[4.42508E5,1.28984E5,4.61899E5,7.39E3,1.57705E5,4.60204E5,4.6498E5,-1.2100627E0,-1.2654886E-1,1.3941369E0,8.2288814E-1,-3.1224033E-1,3.1872517E-1,-1.1853285E0,-3.7666804E-1],"split_indices":[0,0,0,0,0,0,0,0,0,0,0,0,0,0,0],"split_type":[0,0,0,0,0,0,0,0,0,0,0,0,0,0,0],"sum_hessian":[4.1E1,3E1,1.1E1,7E0,2.3E1,3E0,8E0,2E0,5E0,2E0,2.1E1,2E0,1E0,2E0,6E0],"tree_param":{"num_deleted":"0","num_feature":"2","num_nodes":"15","size_leaf_vector":"1"}},{"base_weights":[-1.6370128E0,-3.917704E1,2.5928719E1,-6.4781256E0,-1.0398594E0,7.863339E1,4.3805513E0,-4.3885574E-1,1.369658E0,4.9122825E-1,1.6062769E0,-8.41807E-1,3.608738E-1],"categories":[],"categories_nodes":[],"categories_segments":[],"categories_sizes":[],"default_left":[0,0,0,0,0,0,0,0,0,0,0,0,0],"id":60,"left_children":[1,3,5,7,-1,9,11,-1,-1,-1,-1,-1,-1],"loss_changes":[4.034841E4,3.462967E4,2.5380777E4,6.4712938E4,0E0,1.1782797E4,4.7850875E4,0E0,0E0,0E0,0E0,0E0,0E0],"parents":[2147483647,0,0,1,1,2,2,3,3,5,5,6,6],"right_children":[2,4,6,8,-1,10,12,-1,-1,-1,-1,-1,-1],"split_conditions":[1.85214E5,1.02421E5,2.39188E5,9.6459E4,-1.0398594E0,2.07951E5,2.98624E5,-4.3885574E-1,1.369658E0,4.9122825E-1,1.6062769E0,-8.41807E-1,3.608738E-1],"split_indices":[0,0,0,0,0,0,0,0,0,0,0,0,0],"split_type":[0,0,0,0,0,0,0,0,0,0,0,0,0],"sum_hessian":[3.8E1,1.6E1,2.2E1,1.1E1,5E0,6E0,1.6E1,9E0,2E0,5E0,1E0,4E0,1.2E1],"tree_param":{"num_deleted":"0","num_feature":"2","num_nodes":"13","size_leaf_vector":"1"}},{"base_weights":[2.18981E0,-1.4989023E2,6.44818E1,-1.6979768E0,-7.4442786E-1,1.6552794E1,1.5498691E2,2.4773736E-2,5.4715085E-1,9.659352E-1,1.7190467E0],"categories":[],"categories_nodes":[],"categories_segments":[],"categories_sizes":[],"default_left":[0,0,0,0,0,0,0,0,0,0,0],"id":61,"left_children":[1,3,5,-1,-1,7,9,-1,-1,-1,-1],"loss_changes":[4.074507E5,1.24545E4,1.3102074E5,0E0,0E0,1.0943808E4,2.070375E3,0E0,0E0,0E0,0E0],"parents":[2147483647,0,0,1,1,2,2,5,5,6,6],"right_children":[2,4,6,-1,-1,8,10,-1,-1,-1,-1],"split_conditions":[1.9E2,1.27E2,3.35E2,-1.6979768E0,-7.4442786E-1,2.91E2,3.83E2,2.4773736E-2,5.4715085E-1,9.659352E-1,1.7190467E0],"split_indices":[1,1,1,0,0,1,1,0,0,0,0],"split_type":[0,0,0,0,0,0,0,0,0,0,0],"sum_hessian":[4.2E1,1.2E1,3E1,9E0,3E0,2E1,1E1,1.5E1,5E0,3E0,7E0],"tree_param":{"num_deleted":"0","num_feature":"2","num_nodes":"11","size_leaf_vector":"1"}},{"base_weights":[-4.9556246E0,-4.299066E1,4.9660934E1,-3.3056828E1,-1.3174412E0,1.0533798E2,3.0669405E1,-4.8087868E-1,2.3240206E-1,3.76663E-1,1.1929185E0,-1.4065037E0,4.856903E-1],"categories":[],"categories_nodes":[],"categories_segments":[],"categories_sizes":[],"default_left":[0,0,0,0,0,0,0,0,0,0,0,0,0],"id":62,"left_children":[1,3,5,7,-1,9,11,-1,-1,-1,-1,-1,-1],"loss_changes":[9.3509234E4,2.1186535E4,1.7946434E4,2.1290758E4,0E0,2.0026289E3,4.7880746E4,0E0,0E0,0E0,0E0,0E0,0E0],"parents":[2147483647,0,0,1,1,2,2,3,3,5,5,6,6],"right_children":[2,4,6,8,-1,10,12,-1,-1,-1,-1,-1,-1],"split_conditions":[2.84855E5,2.79311E5,3.38629E5,2.23979E5,-1.3174412E0,2.9717E5,3.44207E5,-4.8087868E-1,2.3240206E-1,3.76663E-1,1.1929185E0,-1.4065037E0,4.856903E-1],"split_indices":[0,0,0,0,0,0,0,0,0,0,0,0,0],"split_type":[0,0,0,0,0,0,0,0,0,0,0,0,0],"sum_hessian":[4.4E1,2.6E1,1.8E1,2.4E1,2E0,4E0,1.4E1,1.9E1,5E0,1E0,3E0,1E0,1.3E1],"tree_param":{"num_deleted":"0","num_feature":"2","num_nodes":"13","size_leaf_vector":"1"}},{"base_weights":[-1.151584E1,-7.481722E1,5.4568806E0,3.9415758E0,-1.2358737E0,1.4564664E0,-8.060727E0,-1.1740637E0,5.5384755E-1,6.164523E-2,-3.9253208E-1],"categories":[],"categories_nodes":[],"categories_segments":[],"categories_sizes":[],"default_left":[0,0,0,0,0,0,0,0,0,0,0],"id":63,"left_children":[1,3,5,7,-1,-1,9,-1,-1,-1,-1],"loss_changes":[5.338677E4,4.057489E4,7.544072E4,3.1342623E4,0E0,0E0,1.6316799E4,0E0,0E0,0E0,0E0],"parents":[2147483647,0,0,1,1,2,2,3,3,6,6],"right_children":[2,4,6,8,-1,-1,10,-1,-1,-1,-1],"split_conditions":[1.06155E5,4.2843E4,1.23939E5,7.39E3,-1.2358737E0,1.4564664E0,3.56139E5,-1.1740637E0,5.5384755E-1,6.164523E-2,-3.9253208E-1],"split_indices":[0,0,0,0,0,0,0,0,0,0,0],"split_type":[0,0,0,0,0,0,0,0,0,0,0],"sum_hessian":[4.9E1,1E1,3.9E1,4E0,6E0,3E0,3.6E1,1E0,3E0,2.5E1,1.1E1],"tree_param":{"num_deleted":"0","num_feature":"2","num_nodes":"11","size_leaf_vector":"1"}},{"base_weights":[-1.4407872E1,-1.6936152E0,-7.687086E1,-2.2739962E1,2.876939E1,-4.4801292E1,-1.192219E0,2.8658178E-1,-7.8351593E-1,1.2596396E0,-4.9987722E-2,-7.5903904E-1,-2.5071415E-1],"categories":[],"categories_nodes":[],"categories_segments":[],"categories_sizes":[],"default_left":[0,0,0,0,0,0,0,0,0,0,0,0,0],"id":64,"left_children":[1,3,5,7,9,11,-1,-1,-1,-1,-1,-1,-1],"loss_changes":[3.051047E4,2.1163994E4,6.1575195E3,5.6860234E4,4.4622945E4,1.809919E3,0E0,0E0,0E0,0E0,0E0,0E0,0E0],"parents":[2147483647,0,0,1,1,2,2,3,3,4,4,5,5],"right_children":[2,4,6,8,10,12,-1,-1,-1,-1,-1,-1,-1],"split_conditions":[4.42565E5,3.19027E5,4.85559E5,1.6933E5,3.38629E5,4.5723E5,-1.192219E0,2.8658178E-1,-7.8351593E-1,1.2596396E0,-4.9987722E-2,-7.5903904E-1,-2.5071415E-1],"split_indices":[0,0,0,0,0,0,0,0,0,0,0,0,0],"split_type":[0,0,0,0,0,0,0,0,0,0,0,0,0],"sum_hessian":[3.8E1,3.2E1,6E0,1.9E1,1.3E1,4E0,2E0,1E1,9E0,3E0,1E1,1E0,3E0],"tree_param":{"num_deleted":"0","num_feature":"2","num_nodes":"13","size_leaf_vector":"1"}},{"base_weights":[-3.9923634E1,3.508147E1,-4.9616627E1,-3.429803E0,1.3892146E0,-1.0122691E2,-3.3264053E1,7.788964E-2,-1.396261E-1,-6.550724E-1,-1.3363686E0,1.3365175E0,-4.6845663E-1],"categories":[],"categories_nodes":[],"categories_segments":[],"categories_sizes":[],"default_left":[0,0,0,0,0,0,0,0,0,0,0,0,0],"id":65,"left_children":[1,3,5,7,-1,9,11,-1,-1,-1,-1,-1,-1],"loss_changes":[3.3949914E4,2.2232795E4,3.2496812E4,5.861202E2,0E0,6.6208047E3,7.454054E4,0E0,0E0,0E0,0E0,0E0,0E0],"parents":[2147483647,0,0,1,1,2,2,3,3,5,5,6,6],"right_children":[2,4,6,8,-1,10,12,-1,-1,-1,-1,-1,-1],"split_conditions":[3.8666E4,3.3943E4,1.59447E5,1.3558E4,1.3892146E0,1.17645E5,2.39188E5,7.788964E-2,-1.396261E-1,-6.550724E-1,-1.3363686E0,1.3365175E0,-4.6845663E-1],"split_indices":[0,0,0,0,0,0,0,0,0,0,0,0,0],"split_type":[0,0,0,0,0,0,0,0,0,0,0,0,0],"sum_hessian":[4.5E1,5E0,4E1,4E0,1E0,9E0,3.1E1,2E0,2E0,5E0,4E0,2E0,2.9E1],"tree_param":{"num_deleted":"0","num_feature":"2","num_nodes":"13","size_leaf_vector":"1"}},{"base_weights":[-2.110213E0,1.38133335E1,-1.4164909E0,-5.4437613E0,1.1199887E2,5.4573E-1,-2.2326925E-1,7.1803933E-1,1.3619398E0],"categories":[],"categories_nodes":[],"categories_segments":[],"categories_sizes":[],"default_left":[0,0,0,0,0,0,0,0,0],"id":66,"left_children":[1,3,-1,5,7,-1,-1,-1,-1],"loss_changes":[9.763332E4,7.4990195E4,0E0,3.4553867E4,1.4317578E3,0E0,0E0,0E0,0E0],"parents":[2147483647,0,0,1,1,3,3,4,4],"right_children":[2,4,-1,6,8,-1,-1,-1,-1],"split_conditions":[4.17693E5,3.48945E5,-1.4164909E0,8.1076E4,3.7974E5,5.4573E-1,-2.2326925E-1,7.1803933E-1,1.3619398E0],"split_indices":[0,0,0,0,0,0,0,0,0],"split_type":[0,0,0,0,0,0,0,0,0],"sum_hessian":[4.3E1,3.9E1,4E0,3.3E1,6E0,7E0,2.6E1,3E0,3E0],"tree_param":{"num_deleted":"0","num_feature":"2","num_nodes":"9","size_leaf_vector":"1"}},{"base_weights":[-2.406758E1,2.6324482E1,-5.2249977E1,-7.318917E1,6.771964E1,-6.541472E1,8.194863E1,-3.672498E-1,-1.3387588E0,8.20212E-1,5.550421E-2,-1.7306329E0,-5.1376176E-1,1.4219536E0,-5.6142982E-2],"categories":[],"categories_nodes":[],"categories_segments":[],"categories_sizes":[],"default_left":[0,0,0,0,0,0,0,0,0,0,0,0,0,0,0],"id":67,"left_children":[1,3,5,7,9,11,13,-1,-1,-1,-1,-1,-1,-1,-1],"loss_changes":[5.6784406E4,6.2209234E4,4.773093E4,7.4997188E3,9.108102E3,3.1068234E4,1.3587615E4,0E0,0E0,0E0,0E0,0E0,0E0,0E0,0E0],"parents":[2147483647,0,0,1,1,2,2,3,3,4,4,5,5,6,6],"right_children":[2,4,6,8,10,12,14,-1,-1,-1,-1,-1,-1,-1,-1],"split_conditions":[2.02216E5,4.453E4,4.60204E5,4.0521E4,1.94174E5,2.23693E5,4.82987E5,-3.672498E-1,-1.3387588E0,8.20212E-1,5.550421E-2,-1.7306329E0,-5.1376176E-1,1.4219536E0,-5.6142982E-2],"split_indices":[0,0,0,0,0,0,0,0,0,0,0,0,0,0,0],"split_type":[0,0,0,0,0,0,0,0,0,0,0,0,0,0,0],"sum_hessian":[3.9E1,1.4E1,2.5E1,4E0,1E1,2.3E1,2E0,3E0,1E0,8E0,2E0,2E0,2.1E1,1E0,1E0],"tree_param":{"num_deleted":"0","num_feature":"2","num_nodes":"15","size_leaf_vector":"1"}},{"base_weights":[5.9626646E0,3.8620163E1,-6.955082E1,-7.617077E-1,6.0720127E1,-1.4965124E0,-3.2477066E1,1.4483762E0,4.8980913E-1,4.0698946E-1,-7.6091164E-1],"categories":[],"categories_nodes":[],"categories_segments":[],"categories_sizes":[],"default_left":[0,0,0,0,0,0,0,0,0,0,0],"id":68,"left_children":[1,3,5,-1,7,-1,9,-1,-1,-1,-1],"loss_changes":[9.382109E4,6.953976E4,3.1720555E4,0E0,1.8671E4,0E0,2.8676213E4,0E0,0E0,0E0,0E0],"parents":[2147483647,0,0,1,1,2,2,4,4,6,6],"right_children":[2,4,6,-1,8,-1,10,-1,-1,-1,-1],"split_conditions":[3.85221E5,6.2806E4,4.01942E5,-7.617077E-1,8.1076E4,-1.4965124E0,4.30992E5,1.4483762E0,4.8980913E-1,4.0698946E-1,-7.6091164E-1],"split_indices":[0,0,0,0,0,0,0,0,0,0,0],"split_type":[0,0,0,0,0,0,0,0,0,0,0],"sum_hessian":[3.7E1,2.6E1,1.1E1,4E0,2.2E1,3E0,8E0,2E0,2E1,3E0,5E0],"tree_param":{"num_deleted":"0","num_feature":"2","num_nodes":"11","size_leaf_vector":"1"}},{"base_weights":[-6.7653117E0,-2.5895632E1,8.057732E1,5.737392E0,-1.0438529E0,1.509752E0,5.405268E1,-7.518221E-1,3.9486343E-1,-3.2413548E-1,1.0809246E0],"categories":[],"categories_nodes":[],"categories_segments":[],"categories_sizes":[],"default_left":[0,0,0,0,0,0,0,0,0,0,0],"id":69,"left_children":[1,3,5,7,-1,-1,9,-1,-1,-1,-1],"loss_changes":[6.0359977E4,7.354398E4,8.057E3,6.0199797E4,0E0,0E0,2.7451215E4,0E0,0E0,0E0,0E0],"parents":[2147483647,0,0,1,1,2,2,3,3,6,6],"right_children":[2,4,6,8,-1,-1,10,-1,-1,-1,-1],"split_conditions":[4.25453E5,3.41014E5,4.30992E5,1.59447E5,-1.0438529E0,1.509752E0,4.6466E5,-7.518221E-1,3.9486343E-1,-3.2413548E-1,1.0809246E0],"split_indices":[0,0,0,0,0,0,0,0,0,0,0],"split_type":[0,0,0,0,0,0,0,0,0,0,0],"sum_hessian":[3.5E1,2.9E1,6E0,2.1E1,8E0,1E0,5E0,6E0,1.5E1,2E0,3E0],"tree_param":{"num_deleted":"0","num_feature":"2","num_nodes":"11","size_leaf_vector":"1"}},{"base_weights":[-1.5612326E0,-9.587048E1,1.2498926E2,-1.4952023E0,-4.2614838E1,7.638856E1,2.041379E0,-6.556588E-1,-1.6822805E-1,2.9691327E-1,1.0211096E0],"categories":[],"categories_nodes":[],"categories_segments":[],"categories_sizes":[],"default_left":[0,0,0,0,0,0,0,0,0,0,0],"id":70,"left_children":[1,3,5,-1,7,9,-1,-1,-1,-1,-1],"loss_changes":[5.728983E5,7.538578E4,7.106006E4,0E0,8.031832E3,1.4699828E4,0E0,0E0,0E0,0E0,0E0],"parents":[2147483647,0,0,1,1,2,2,4,4,5,5],"right_children":[2,4,6,-1,8,10,-1,-1,-1,-1,-1],"split_conditions":[2.56E2,1.38E2,3.98E2,-1.4952023E0,2.03E2,3.22E2,2.041379E0,-6.556588E-1,-1.6822805E-1,2.9691327E-1,1.0211096E0],"split_indices":[1,1,1,0,1,1,0,0,0,0,0],"split_type":[0,0,0,0,0,0,0,0,0,0,0],"sum_hessian":[4.7E1,2.7E1,2E1,1.3E1,1.4E1,1.3E1,7E0,7E0,7E0,5E0,8E0],"tree_param":{"num_deleted":"0","num_feature":"2","num_nodes":"11","size_leaf_vector":"1"}},{"base_weights":[-2.6090724E0,-1.3403398E2,9.966828E1,-1.7607051E0,-6.624723E1,3.1633865E1,1.5283046E2,-8.306292E-1,-3.5163158E-1,1.106688E-1,5.782686E-1,1.0474578E0,1.7790385E0],"categories":[],"categories_nodes":[],"categories_segments":[],"categories_sizes":[],"default_left":[0,0,0,0,0,0,0,0,0,0,0,0,0],"id":71,"left_children":[1,3,5,-1,7,9,11,-1,-1,-1,-1,-1,-1],"loss_changes":[5.3763025E5,4.403453E4,7.8961984E4,0E0,2.459875E3,5.3364824E3,5.75325E3,0E0,0E0,0E0,0E0,0E0,0E0],"parents":[2147483647,0,0,1,1,2,2,4,4,5,5,6,6],"right_children":[2,4,6,-1,8,10,12,-1,-1,-1,-1,-1,-1],"split_conditions":[2.1E2,1E2,3.55E2,-1.7607051E0,1.79E2,2.8E2,4.21E2,-8.306292E-1,-3.5163158E-1,1.106688E-1,5.782686E-1,1.0474578E0,1.7790385E0],"split_indices":[1,1,1,0,1,1,1,0,0,0,0,0,0],"split_type":[0,0,0,0,0,0,0,0,0,0,0,0,0],"sum_hessian":[3.9E1,1.7E1,2.2E1,1E1,7E0,1E1,1.2E1,4E0,3E0,6E0,4E0,5E0,7E0],"tree_param":{"num_deleted":"0","num_feature":"2","num_nodes":"13","size_leaf_vector":"1"}},{"base_weights":[-2.3220531E1,-1.2377594E0,-1.6207232E1,1.02629105E2,-2.4347715E1,1.3903052E0,3.2017985E-1,-1.3004875E-1,-8.503549E-1],"categories":[],"categories_nodes":[],"categories_segments":[],"categories_sizes":[],"default_left":[0,0,0,0,0,0,0,0,0],"id":72,"left_children":[1,-1,3,5,7,-1,-1,-1,-1],"loss_changes":[2.6853373E4,0E0,3.7526344E4,4.200121E3,2.3884262E4,0E0,0E0,0E0,0E0],"parents":[2147483647,0,0,2,2,3,3,4,4],"right_children":[2,-1,4,6,8,-1,-1,-1,-1],"split_conditions":[7.39E3,-1.2377594E0,1.3558E4,9.961E3,4.37396E5,1.3903052E0,3.2017985E-1,-1.3004875E-1,-8.503549E-1],"split_indices":[0,0,0,0,0,0,0,0,0],"split_type":[0,0,0,0,0,0,0,0,0],"sum_hessian":[3.9E1,2E0,3.7E1,2E0,3.5E1,1E0,1E0,3E1,5E0],"tree_param":{"num_deleted":"0","num_feature":"2","num_nodes":"9","size_leaf_vector":"1"}},{"base_weights":[-9.658491E0,-3.275374E1,1.9328287E1,1.5975936E1,-4.8988342E1,7.620273E1,-2.6589867E1,-1.3369262E-1,3.4654513E-1,-1.0484626E0,-1.7396651E-1,-2.1526081E-2,8.842298E-1,-6.247547E-1,8.638492E-1],"categories":[],"categories_nodes":[],"categories_segments":[],"categories_sizes":[],"default_left":[0,0,0,0,0,0,0,0,0,0,0,0,0,0,0],"id":73,"left_children":[1,3,5,7,9,11,13,-1,-1,-1,-1,-1,-1,-1,-1],"loss_changes":[2.475171E4,1.660901E4,4.4104004E4,3.2463494E3,2.6440035E4,7.276586E3,4.1213074E4,0E0,0E0,0E0,0E0,0E0,0E0,0E0,0E0],"parents":[2147483647,0,0,1,1,2,2,3,3,4,4,5,5,6,6],"right_children":[2,4,6,8,10,12,14,-1,-1,-1,-1,-1,-1,-1,-1],"split_conditions":[2.54059E5,6.0338E4,3.33665E5,2.3263E4,1.59447E5,2.58843E5,4.19329E5,-1.3369262E-1,3.4654513E-1,-1.0484626E0,-1.7396651E-1,-2.1526081E-2,8.842298E-1,-6.247547E-1,8.638492E-1],"split_indices":[0,0,0,0,0,0,0,0,0,0,0,0,0,0,0],"split_type":[0,0,0,0,0,0,0,0,0,0,0,0,0,0,0],"sum_hessian":[3.6E1,2E1,1.6E1,5E0,1.5E1,7E0,9E0,2E0,3E0,5E0,1E1,1E0,6E0,7E0,2E0],"tree_param":{"num_deleted":"0","num_feature":"2","num_nodes":"15","size_leaf_vector":"1"}},{"base_weights":[2.0788212E1,-1.1642512E2,9.655588E1,-1.3847953E0,-3.9930934E-1,5.481228E1,1.6208578E0,2.0409198E-1,7.789626E-1],"categories":[],"categories_nodes":[],"categories_segments":[],"categories_sizes":[],"default_left":[0,0,0,0,0,0,0,0,0],"id":74,"left_children":[1,3,5,-1,-1,7,-1,-1,-1],"loss_changes":[3.6429428E5,1.8323125E4,5.7105594E4,0E0,0E0,1.0720422E4,0E0,0E0,0E0],"parents":[2147483647,0,0,1,1,2,2,5,5],"right_children":[2,4,6,-1,-1,8,-1,-1,-1],"split_conditions":[2.23E2,1.67E2,3.8E2,-1.3847953E0,-3.9930934E-1,3.02E2,1.6208578E0,2.0409198E-1,7.789626E-1],"split_indices":[1,1,1,0,0,1,0,0,0],"split_type":[0,0,0,0,0,0,0,0,0],"sum_hessian":[3.4E1,1.2E1,2.2E1,9E0,3E0,1.4E1,8E0,6E0,8E0],"tree_param":{"num_deleted":"0","num_feature":"2","num_nodes":"9","size_leaf_vector":"1"}},{"base_weights":[2.7647655E0,-3.4929634E1,4.842042E1,-2.5054604E1,-1.32619E0,8.461608E1,1.8474897E1,-6.85317E-1,-7.3690796E-3,2.7443883E-1,1.0565536E0,-2.607246E-1,1.1046655E0],"categories":[],"categories_nodes":[],"categories_segments":[],"categories_sizes":[],"default_left":[0,0,0,0,0,0,0,0,0,0,0,0,0],"id":75,"left_children":[1,3,5,7,-1,9,11,-1,-1,-1,-1,-1,-1],"loss_changes":[8.947522E4,2.5832176E4,2.4689965E4,2.799221E4,0E0,1.1180266E4,5.6762867E4,0E0,0E0,0E0,0E0,0E0,0E0],"parents":[2147483647,0,0,1,1,2,2,3,3,5,5,6,6],"right_children":[2,4,6,8,-1,10,12,-1,-1,-1,-1,-1,-1],"split_conditions":[2.86328E5,2.58843E5,3.48945E5,1.01981E5,-1.32619E0,3.03944E5,4.73424E5,-6.85317E-1,-7.3690796E-3,2.7443883E-1,1.0565536E0,-2.607246E-1,1.1046655E0],"split_indices":[0,0,0,0,0,0,0,0,0,0,0,0,0],"split_type":[0,0,0,0,0,0,0,0,0,0,0,0,0],"sum_hessian":[5.1E1,2.8E1,2.3E1,2.6E1,2E0,1E1,1.3E1,9E0,1.7E1,3E0,7E0,9E0,4E0],"tree_param":{"num_deleted":"0","num_feature":"2","num_nodes":"13","size_leaf_vector":"1"}},{"base_weights":[-1.208289E1,-7.269127E1,6.9932113E0,-1.7653587E1,-1.3188274E0,7.255062E1,-5.0829765E1,-1.3666028E0,2.3976819E-1,4.970221E-1,1.7228255E0,-8.2353026E-1,-1.6316517E-1],"categories":[],"categories_nodes":[],"categories_segments":[],"categories_sizes":[],"default_left":[0,0,0,0,0,0,0,0,0,0,0,0,0],"id":76,"left_children":[1,3,5,7,-1,9,11,-1,-1,-1,-1,-1,-1],"loss_changes":[4.592295E4,2.9784633E4,1.1746098E5,2.8886973E4,0E0,2.8759977E4,1.7279648E4,0E0,0E0,0E0,0E0,0E0,0E0],"parents":[2147483647,0,0,1,1,2,2,3,3,5,5,6,6],"right_children":[2,4,6,8,-1,10,12,-1,-1,-1,-1,-1,-1],"split_conditions":[1.38629E5,5.3068E4,2.72597E5,1.2435E4,-1.3188274E0,2.58843E5,3.09867E5,-1.3666028E0,2.3976819E-1,4.970221E-1,1.7228255E0,-8.2353026E-1,-1.6316517E-1],"split_indices":[0,0,0,0,0,0,0,0,0,0,0,0,0],"split_type":[0,0,0,0,0,0,0,0,0,0,0,0,0],"sum_hessian":[3.9E1,9E0,3E1,5E0,4E0,1.4E1,1.6E1,1E0,4E0,1.2E1,2E0,8E0,8E0],"tree_param":{"num_deleted":"0","num_feature":"2","num_nodes":"13","size_leaf_vector":"1"}},{"base_weights":[-1.6228521E1,-1.00387344E2,1.3087123E2,-1.4307013E2,-2.9956406E1,5.6115635E1,1.7154418E0,-1.6364515E0,-9.452504E-1,-5.0905716E-1,-1.6371666E-1,2.1002404E-1,7.317999E-1],"categories":[],"categories_nodes":[],"categories_segments":[],"categories_sizes":[],"default_left":[0,0,0,0,0,0,0,0,0,0,0,0,0],"id":77,"left_children":[1,3,5,7,9,11,-1,-1,-1,-1,-1,-1,-1],"loss_changes":[4.584295E5,6.8502484E4,3.6234047E4,6.7485625E3,2.2869092E3,2.527037E3,0E0,0E0,0E0,0E0,0E0,0E0,0E0],"parents":[2147483647,0,0,1,1,2,2,3,3,4,4,5,5],"right_children":[2,4,6,8,10,12,-1,-1,-1,-1,-1,-1,-1],"split_conditions":[2.38E2,1.8E2,3.81E2,1E2,2.03E2,3.08E2,1.7154418E0,-1.6364515E0,-9.452504E-1,-5.0905716E-1,-1.6371666E-1,2.1002404E-1,7.317999E-1],"split_indices":[1,1,1,1,1,1,0,0,0,0,0,0,0],"split_type":[0,0,0,0,0,0,0,0,0,0,0,0,0],"sum_hessian":[3.6E1,2.3E1,1.3E1,1.4E1,9E0,5E0,8E0,9E0,5E0,3E0,6E0,2E0,3E0],"tree_param":{"num_deleted":"0","num_feature":"2","num_nodes":"13","size_leaf_vector":"1"}},{"base_weights":[-1.0310491E1,-1.1110447E2,1.3434874E2,-1.6003666E0,-4.9898937E1,7.503107E1,1.7597024E0,-7.011409E-1,-1.7796552E-1,3.0369362E-1,7.896134E-1],"categories":[],"categories_nodes":[],"categories_segments":[],"categories_sizes":[],"default_left":[0,0,0,0,0,0,0,0,0,0,0],"id":78,"left_children":[1,3,5,-1,7,9,-1,-1,-1,-1,-1],"loss_changes":[6.5630806E5,7.537256E4,3.9072875E4,0E0,7.488039E3,2.9302734E2,0E0,0E0,0E0,0E0,0E0],"parents":[2147483647,0,0,1,1,2,2,4,4,5,5],"right_children":[2,4,6,-1,8,10,-1,-1,-1,-1,-1],"split_conditions":[2.43E2,1.18E2,3.96E2,-1.6003666E0,1.76E2,2.69E2,1.7597024E0,-7.011409E-1,-1.7796552E-1,3.0369362E-1,7.896134E-1],"split_indices":[1,1,1,0,1,1,0,0,0,0,0],"split_type":[0,0,0,0,0,0,0,0,0,0,0],"sum_hessian":[4.4E1,2.6E1,1.8E1,1.4E1,1.2E1,8E0,1E1,7E0,5E0,1E0,7E0],"tree_param":{"num_deleted":"0","num_feature":"2","num_nodes":"11","size_leaf_vector":"1"}},{"base_weights":[2.6757208E1,-2.0660808E0,7.3313034E1,2.1733534E1,-9.0585915E1,9.346317E1,-5.016034E1,-2.511137E-2,1.0821582E0,-1.6193099E0,-2.668429E-1,1.0230943E0,5.357252E-1,-9.348458E-1,9.884013E-2],"categories":[],"categories_nodes":[],"categories_segments":[],"categories_sizes":[],"default_left":[0,0,0,0,0,0,0,0,0,0,0,0,0,0,0],"id":79,"left_children":[1,3,5,7,9,11,13,-1,-1,-1,-1,-1,-1,-1,-1],"loss_changes":[5.4422355E4,5.4706195E4,4.0908164E4,4.3118938E4,2.2914355E4,2.0234375E3,6.965442E3,0E0,0E0,0E0,0E0,0E0,0E0,0E0,0E0],"parents":[2147483647,0,0,1,1,2,2,3,3,4,4,5,5,6,6],"right_children":[2,4,6,8,10,12,14,-1,-1,-1,-1,-1,-1,-1,-1],"split_conditions":[3.19027E5,2.86328E5,4.82987E5,2.54059E5,3.04714E5,4.41488E5,4.86222E5,-2.511137E-2,1.0821582E0,-1.6193099E0,-2.668429E-1,1.0230943E0,5.357252E-1,-9.348458E-1,9.884013E-2],"split_indices":[0,0,0,0,0,0,0,0,0,0,0,0,0,0,0],"split_type":[0,0,0,0,0,0,0,0,0,0,0,0,0,0,0],"sum_hessian":[4E1,2.5E1,1.5E1,2E1,5E0,1.3E1,2E0,1.6E1,4E0,2E0,3E0,1E1,3E0,1E0,1E0],"tree_param":{"num_deleted":"0","num_feature":"2","num_nodes":"15","size_leaf_vector":"1"}},{"base_weights":[3.8709397E0,-1.0236583E2,1.09997116E2,-1.4049982E2,-4.215386E1,4.5736816E1,1.6170384E0,-1.6015612E0,-9.649627E-1,-5.14552E-1,-1.3260132E-1,2.2929634E-1,6.346213E-1],"categories":[],"categories_nodes":[],"categories_segments":[],"categories_sizes":[],"default_left":[0,0,0,0,0,0,0,0,0,0,0,0,0],"id":80,"left_children":[1,3,5,7,9,11,-1,-1,-1,-1,-1,-1,-1],"loss_changes":[3.9460028E5,3.7220844E4,5.444917E4,1.3547031E3,1.6744785E3,2.708668E3,0E0,0E0,0E0,0E0,0E0,0E0,0E0],"parents":[2147483647,0,0,1,1,2,2,3,3,4,4,5,5],"right_children":[2,4,6,8,10,12,-1,-1,-1,-1,-1,-1,-1],"split_conditions":[2.49E2,1.44E2,3.64E2,1E2,2.07E2,3.1E2,1.6170384E0,-1.6015612E0,-9.649627E-1,-5.14552E-1,-1.3260132E-1,2.2929634E-1,6.346213E-1],"split_indices":[1,1,1,1,1,1,0,0,0,0,0,0,0],"split_type":[0,0,0,0,0,0,0,0,0,0,0,0,0],"sum_hessian":[3.4E1,1.7E1,1.7E1,1E1,7E0,8E0,9E0,6E0,4E0,5E0,2E0,4E0,4E0],"tree_param":{"num_deleted":"0","num_feature":"2","num_nodes":"13","size_leaf_vector":"1"}},{"base_weights":[-2.4096775E1,-8.4039825E-1,-2.0195425E1,6.728204E1,-2.5476336E1,6.872904E-2,1.0526383E0,-4.6272963E-1,-1.1799359E-1],"categories":[],"categories_nodes":[],"categories_segments":[],"categories_sizes":[],"default_left":[0,0,0,0,0,0,0,0,0],"id":81,"left_children":[1,-1,3,5,7,-1,-1,-1,-1],"loss_changes":[9.324252E3,0E0,2.0028418E4,5.374385E3,1.0962184E4,0E0,0E0,0E0,0E0],"parents":[2147483647,0,0,2,2,3,3,4,4],"right_children":[2,-1,4,6,8,-1,-1,-1,-1],"split_conditions":[1.8462E4,-8.4039825E-1,4.656E4,2.3263E4,2.27714E5,6.872904E-2,1.0526383E0,-4.6272963E-1,-1.1799359E-1],"split_indices":[0,0,0,0,0,0,0,0,0],"split_type":[0,0,0,0,0,0,0,0,0],"sum_hessian":[4.3E1,2E0,4.1E1,2E0,3.9E1,1E0,1E0,1.5E1,2.4E1],"tree_param":{"num_deleted":"0","num_feature":"2","num_nodes":"9","size_leaf_vector":"1"}},{"base_weights":[1.4440358E1,2.9769953E1,-7.745637E1,5.798358E0,8.750127E1,-3.284262E1,-1.2442433E0,2.852831E-1,-9.334235E-1,1.0933621E0,3.4450474E-1,-8.774639E-1,6.9611204E-1],"categories":[],"categories_nodes":[],"categories_segments":[],"categories_sizes":[],"default_left":[0,0,0,0,0,0,0,0,0,0,0,0,0],"id":82,"left_children":[1,3,5,7,9,11,-1,-1,-1,-1,-1,-1,-1],"loss_changes":[5.3980664E4,4.4723453E4,9.481586E3,5.4287844E4,9.121094E3,2.2741922E4,0E0,0E0,0E0,0E0,0E0,0E0,0E0],"parents":[2147483647,0,0,1,1,2,2,3,3,4,4,5,5],"right_children":[2,4,6,8,10,12,-1,-1,-1,-1,-1,-1,-1],"split_conditions":[4.04778E5,3.22684E5,4.61899E5,2.66255E5,3.67983E5,4.42565E5,-1.2442433E0,2.852831E-1,-9.334235E-1,1.0933621E0,3.4450474E-1,-8.774639E-1,6.9611204E-1],"split_indices":[0,0,0,0,0,0,0,0,0,0,0,0,0],"split_type":[0,0,0,0,0,0,0,0,0,0,0,0,0],"sum_hessian":[3.7E1,3.2E1,5E0,2.3E1,9E0,3E0,2E0,1.9E1,4E0,6E0,3E0,2E0,1E0],"tree_param":{"num_deleted":"0","num_feature":"2","num_nodes":"13","size_leaf_vector":"1"}},{"base_weights":[3.3342495E1,-1.0675907E2,1.23342674E2,-1.753627E0,-7.7791405E1,5.185385E1,1.8496778E0,-8.412766E-1,-3.282959E-2,2.9907307E-1,8.754689E-1],"categories":[],"categories_nodes":[],"categories_segments":[],"categories_sizes":[],"default_left":[0,0,0,0,0,0,0,0,0,0,0],"id":83,"left_children":[1,3,5,-1,7,9,-1,-1,-1,-1,-1],"loss_changes":[5.2986444E5,2.5969375E4,1.0754478E5,0E0,5.7632188E3,8.482586E3,0E0,0E0,0E0,0E0,0E0],"parents":[2147483647,0,0,1,1,2,2,4,4,5,5],"right_children":[2,4,6,-1,8,10,-1,-1,-1,-1,-1],"split_conditions":[2.46E2,6.3E1,3.94E2,-1.753627E0,1.98E2,3.32E2,1.8496778E0,-8.412766E-1,-3.282959E-2,2.9907307E-1,8.754689E-1],"split_indices":[1,1,1,0,1,1,0,0,0,0,0],"split_type":[0,0,0,0,0,0,0,0,0,0,0],"sum_hessian":[4.1E1,1.6E1,2.5E1,4E0,1.2E1,1.2E1,1.3E1,1.1E1,1E0,8E0,4E0],"tree_param":{"num_deleted":"0","num_feature":"2","num_nodes":"11","size_leaf_vector":"1"}},{"base_weights":[1.0994803E-1,-1.3239545E2,7.761102E1,-1.6860484E0,-8.253176E-1,1.6403011E1,1.5673439E2,-4.8137564E-2,3.9355147E-1,1.0058656E0,1.7997413E0],"categories":[],"categories_nodes":[],"categories_segments":[],"categories_sizes":[],"default_left":[0,0,0,0,0,0,0,0,0,0,0],"id":84,"left_children":[1,3,5,-1,-1,7,9,-1,-1,-1,-1],"loss_changes":[4.3131406E5,2.1028188E4,1.2705359E5,0E0,0E0,7.6427607E3,5.9544062E3,0E0,0E0,0E0,0E0],"parents":[2147483647,0,0,1,1,2,2,5,5,6,6],"right_children":[2,4,6,-1,-1,8,10,-1,-1,-1,-1],"split_conditions":[1.74E2,9.3E1,3.54E2,-1.6860484E0,-8.253176E-1,2.67E2,4.02E2,-4.8137564E-2,3.9355147E-1,1.0058656E0,1.7997413E0],"split_indices":[1,1,1,0,0,1,1,0,0,0,0],"split_type":[0,0,0,0,0,0,0,0,0,0,0],"sum_hessian":[4.1E1,1.5E1,2.6E1,8E0,7E0,1.5E1,1.1E1,8E0,7E0,4E0,7E0],"tree_param":{"num_deleted":"0","num_feature":"2","num_nodes":"11","size_leaf_vector":"1"}},{"base_weights":[3.1739492E1,6.4771835E1,-5.4375618E1,-1.1623897E1,9.859493E1,-7.884767E1,4.949331E1,2.8720418E-1,-8.4888494E-1,5.9207195E-1,1.3328767E0,-2.6812828E-1,-1.1425366E0,2.190749E-1,6.0581356E-1],"categories":[],"categories_nodes":[],"categories_segments":[],"categories_sizes":[],"default_left":[0,0,0,0,0,0,0,0,0,0,0,0,0,0,0],"id":85,"left_children":[1,3,5,7,9,11,13,-1,-1,-1,-1,-1,-1,-1,-1],"loss_changes":[1.1696664E5,7.6799266E4,3.1182902E4,2.9299213E4,2.4066828E4,1.5970551E4,1.0108984E2,0E0,0E0,0E0,0E0,0E0,0E0,0E0,0E0],"parents":[2147483647,0,0,1,1,2,2,3,3,4,4,5,5,6,6],"right_children":[2,4,6,8,10,12,14,-1,-1,-1,-1,-1,-1,-1,-1],"split_conditions":[3.71066E5,9.2533E4,4.5723E5,5.8106E4,2.59365E5,4.01811E5,4.69205E5,2.8720418E-1,-8.4888494E-1,5.9207195E-1,1.3328767E0,-2.6812828E-1,-1.1425366E0,2.190749E-1,6.0581356E-1],"split_indices":[0,0,0,0,0,0,0,0,0,0,0,0,0,0,0],"split_type":[0,0,0,0,0,0,0,0,0,0,0,0,0,0,0],"sum_hessian":[4E1,2.9E1,1.1E1,9E0,2E1,9E0,2E0,6E0,3E0,1E1,1E1,4E0,5E0,1E0,1E0],"tree_param":{"num_deleted":"0","num_feature":"2","num_nodes":"15","size_leaf_vector":"1"}},{"base_weights":[-1.8994063E0,-9.000547E1,9.160398E1,-1.533796E2,-4.045227E1,4.2705166E1,1.4743555E0,-1.7101359E0,-8.390883E-1,-6.221285E-1,-1.5014215E-1,2.3421499E-1,7.2416943E-1],"categories":[],"categories_nodes":[],"categories_segments":[],"categories_sizes":[],"default_left":[0,0,0,0,0,0,0,0,0,0,0,0,0],"id":86,"left_children":[1,3,5,7,9,11,-1,-1,-1,-1,-1,-1,-1],"loss_changes":[2.8010262E5,5.185458E4,4.1898484E4,2.0130781E3,5.345201E3,4.5949883E3,0E0,0E0,0E0,0E0,0E0,0E0,0E0],"parents":[2147483647,0,0,1,1,2,2,3,3,4,4,5,5],"right_children":[2,4,6,8,10,12,-1,-1,-1,-1,-1,-1,-1],"split_conditions":[2.52E2,1.38E2,3.6E2,6E1,2.04E2,3.28E2,1.4743555E0,-1.7101359E0,-8.390883E-1,-6.221285E-1,-1.5014215E-1,2.3421499E-1,7.2416943E-1],"split_indices":[1,1,1,1,1,1,0,0,0,0,0,0,0],"split_type":[0,0,0,0,0,0,0,0,0,0,0,0,0],"sum_hessian":[3.3E1,1.7E1,1.6E1,7E0,1E1,9E0,7E0,5E0,2E0,5E0,5E0,6E0,3E0],"tree_param":{"num_deleted":"0","num_feature":"2","num_nodes":"13","size_leaf_vector":"1"}},{"base_weights":[-1.6839243E1,-1.1869983E2,6.537886E1,-1.4022598E0,-7.2039425E-1,1.7079163E0,1.13622055E2,-1.6104434E-1,1.22814655E-1,9.0069866E-1,1.7477609E0],"categories":[],"categories_nodes":[],"categories_segments":[],"categories_sizes":[],"default_left":[0,0,0,0,0,0,0,0,0,0,0],"id":87,"left_children":[1,3,5,-1,-1,7,9,-1,-1,-1,-1],"loss_changes":[3.8493288E5,1.55396875E4,7.8231055E4,0E0,0E0,2.2648005E3,1.30135E4,0E0,0E0,0E0,0E0],"parents":[2147483647,0,0,1,1,2,2,5,5,6,6],"right_children":[2,4,6,-1,-1,8,10,-1,-1,-1,-1],"split_conditions":[2.13E2,1.2E2,2.99E2,-1.4022598E0,-7.2039425E-1,2.36E2,4.24E2,-1.6104434E-1,1.22814655E-1,9.0069866E-1,1.7477609E0],"split_indices":[1,1,1,0,0,1,1,0,0,0,0],"split_type":[0,0,0,0,0,0,0,0,0,0,0],"sum_hessian":[4.5E1,2E1,2.5E1,1.3E1,7E0,1.1E1,1.4E1,4E0,7E0,1.1E1,3E0],"tree_param":{"num_deleted":"0","num_feature":"2","num_nodes":"11","size_leaf_vector":"1"}},{"base_weights":[-1.916569E1,-6.310838E0,-7.777555E1,-2.0886791E1,4.8077156E1,-1.2733206E0,1.1209752E1,-6.723105E-2,-6.576238E-1,8.061653E-1,1.0195875E-1,8.2212806E-1,-1.1086526E0],"categories":[],"categories_nodes":[],"categories_segments":[],"categories_sizes":[],"default_left":[0,0,0,0,0,0,0,0,0,0,0,0,0],"id":88,"left_children":[1,3,5,7,9,-1,11,-1,-1,-1,-1,-1,-1],"loss_changes":[3.5542086E4,3.1815986E4,3.819699E4,1.9800457E4,1.0066402E4,0E0,3.489422E4,0E0,0E0,0E0,0E0,0E0,0E0],"parents":[2147483647,0,0,1,1,2,2,3,3,4,4,6,6],"right_children":[2,4,6,8,10,-1,12,-1,-1,-1,-1,-1,-1],"split_conditions":[3.99803E5,3.44207E5,4.42565E5,2.62411E5,3.71066E5,-1.2733206E0,4.68892E5,-6.723105E-2,-6.576238E-1,8.061653E-1,1.0195875E-1,8.2212806E-1,-1.1086526E0],"split_indices":[0,0,0,0,0,0,0,0,0,0,0,0,0],"split_type":[0,0,0,0,0,0,0,0,0,0,0,0,0],"sum_hessian":[4.7E1,3.9E1,8E0,3.1E1,8E0,5E0,3E0,2.4E1,7E0,4E0,4E0,2E0,1E0],"tree_param":{"num_deleted":"0","num_feature":"2","num_nodes":"13","size_leaf_vector":"1"}},{"base_weights":[-1.5640414E1,-1.1255806E2,1.0855245E2,-1.597415E0,-5.94505E1,5.8195484E1,1.8566426E0,-6.510233E-1,-7.606608E-2,2.2338161E-1,8.22428E-1],"categories":[],"categories_nodes":[],"categories_segments":[],"categories_sizes":[],"default_left":[0,0,0,0,0,0,0,0,0,0,0],"id":89,"left_children":[1,3,5,-1,7,9,-1,-1,-1,-1,-1],"loss_changes":[3.9729484E5,4.1608906E4,5.0902797E4,0E0,2.5360156E3,7.273008E3,0E0,0E0,0E0,0E0,0E0],"parents":[2147483647,0,0,1,1,2,2,4,4,5,5],"right_children":[2,4,6,-1,8,10,-1,-1,-1,-1,-1],"split_conditions":[2.38E2,9E1,3.96E2,-1.597415E0,2.12E2,2.95E2,1.8566426E0,-6.510233E-1,-7.606608E-2,2.2338161E-1,8.22428E-1],"split_indices":[1,1,1,0,1,1,0,0,0,0,0],"split_type":[0,0,0,0,0,0,0,0,0,0,0],"sum_hessian":[3.2E1,1.8E1,1.4E1,9E0,9E0,9E0,5E0,8E0,1E0,4E0,5E0],"tree_param":{"num_deleted":"0","num_feature":"2","num_nodes":"11","size_leaf_vector":"1"}},{"base_weights":[-3.5834522E1,-1.2317275E2,1.2591108E2,-1.6393238E0,-5.5791885E1,6.414903E1,1.6154242E0,-6.9722474E-1,-1.399019E-1,2.3345189E-1,7.969016E-1],"categories":[],"categories_nodes":[],"categories_segments":[],"categories_sizes":[],"default_left":[0,0,0,0,0,0,0,0,0,0,0],"id":90,"left_children":[1,3,5,-1,7,9,-1,-1,-1,-1,-1],"loss_changes":[6.222604E5,7.3699875E4,2.8928922E4,0E0,6.2089883E3,3.191705E3,0E0,0E0,0E0,0E0,0E0],"parents":[2147483647,0,0,1,1,2,2,4,4,5,5],"right_children":[2,4,6,-1,8,10,-1,-1,-1,-1,-1],"split_conditions":[2.72E2,9.7E1,3.66E2,-1.6393238E0,2.23E2,2.99E2,1.6154242E0,-6.9722474E-1,-1.399019E-1,2.3345189E-1,7.969016E-1],"split_indices":[1,1,1,0,1,1,0,0,0,0,0],"split_type":[0,0,0,0,0,0,0,0,0,0,0],"sum_hessian":[4.3E1,2.8E1,1.5E1,1.7E1,1.1E1,6E0,9E0,8E0,3E0,2E0,4E0],"tree_param":{"num_deleted":"0","num_feature":"2","num_nodes":"11","size_leaf_vector":"1"}},{"base_weights":[3.6161797E1,-5.14655E1,1.4067192E2,-1.1604083E2,9.021139E0,8.986333E-1,1.7125072E0,-1.5142872E0,-8.29721E-1,-9.401642E-2,2.3274219E-1],"categories":[],"categories_nodes":[],"categories_segments":[],"categories_sizes":[],"default_left":[0,0,0,0,0,0,0,0,0,0,0],"id":91,"left_children":[1,3,5,7,9,-1,-1,-1,-1,-1,-1],"loss_changes":[2.9209497E5,6.8877445E4,1.4833594E4,3.6648047E3,2.6039312E3,0E0,0E0,0E0,0E0,0E0,0E0],"parents":[2147483647,0,0,1,1,2,2,3,3,4,4],"right_children":[2,4,6,8,10,-1,-1,-1,-1,-1,-1],"split_conditions":[3.13E2,1.73E2,4.1E2,1.07E2,2.4E2,8.986333E-1,1.7125072E0,-1.5142872E0,-8.29721E-1,-9.401642E-2,2.3274219E-1],"split_indices":[1,1,1,1,1,0,0,0,0,0,0],"split_type":[0,0,0,0,0,0,0,0,0,0,0],"sum_hessian":[3.1E1,1.7E1,1.4E1,8E0,9E0,6E0,8E0,3E0,5E0,4E0,5E0],"tree_param":{"num_deleted":"0","num_feature":"2","num_nodes":"11","size_leaf_vector":"1"}},{"base_weights":[-1.29684105E1,-9.1699875E1,1.1562193E2,-1.25628395E2,-4.3246243E1,5.762566E1,1.5154203E0,-1.3883238E0,-8.659927E-1,-5.386555E-1,-8.244359E-2,3.3268657E-1,8.070957E-1],"categories":[],"categories_nodes":[],"categories_segments":[],"categories_sizes":[],"default_left":[0,0,0,0,0,0,0,0,0,0,0,0,0],"id":92,"left_children":[1,3,5,7,9,11,-1,-1,-1,-1,-1,-1,-1],"loss_changes":[4.6594806E5,4.4136344E4,3.2090234E4,2.49175E3,4.4241562E3,2.8743613E3,0E0,0E0,0E0,0E0,0E0,0E0,0E0],"parents":[2147483647,0,0,1,1,2,2,3,3,4,4,5,5],"right_children":[2,4,6,8,10,12,-1,-1,-1,-1,-1,-1,-1],"split_conditions":[2.56E2,1.43E2,3.96E2,1.07E2,2.07E2,3.41E2,1.5154203E0,-1.3883238E0,-8.659927E-1,-5.386555E-1,-8.244359E-2,3.3268657E-1,8.070957E-1],"split_indices":[1,1,1,1,1,1,0,0,0,0,0,0,0],"split_type":[0,0,0,0,0,0,0,0,0,0,0,0,0],"sum_hessian":[4.5E1,2.8E1,1.7E1,1.6E1,1.2E1,7E0,1E1,1.1E1,5E0,9E0,3E0,4E0,3E0],"tree_param":{"num_deleted":"0","num_feature":"2","num_nodes":"13","size_leaf_vector":"1"}},{"base_weights":[-9.677775E0,7.505383E1,-2.1260956E1,1.219462E0,4.4235126E1,-1.032053E0,-7.6024985E-1,-2.6172485E-2,6.349952E-1,-1.2330683E-1,7.703556E-1],"categories":[],"categories_nodes":[],"categories_segments":[],"categories_sizes":[],"default_left":[0,0,0,0,0,0,0,0,0,0,0],"id":93,"left_children":[1,3,5,-1,7,-1,9,-1,-1,-1,-1],"loss_changes":[3.6621203E4,3.80608E3,5.4558074E4,0E0,3.2421382E3,0E0,2.432843E4,0E0,0E0,0E0,0E0],"parents":[2147483647,0,0,1,1,2,2,4,4,6,6],"right_children":[2,4,6,-1,8,-1,10,-1,-1,-1,-1],"split_conditions":[8.2223E4,3.8666E4,1.36888E5,1.219462E0,6.2806E4,-1.032053E0,4.42565E5,-2.6172485E-2,6.349952E-1,-1.2330683E-1,7.703556E-1],"split_indices":[0,0,0,0,0,0,0,0,0,0,0],"split_type":[0,0,0,0,0,0,0,0,0,0,0],"sum_hessian":[3.6E1,4E0,3.2E1,1E0,3E0,6E0,2.6E1,1E0,2E0,2.3E1,3E0],"tree_param":{"num_deleted":"0","num_feature":"2","num_nodes":"11","size_leaf_vector":"1"}},{"base_weights":[9.103122E0,-1.0961695E2,1.1601872E2,-1.4842343E0,-7.298232E1,6.590359E1,1.5237389E0,-8.477175E-1,-1.8301782E-1,2.1641468E-1,7.626406E-1],"categories":[],"categories_nodes":[],"categories_segments":[],"categories_sizes":[],"default_left":[0,0,0,0,0,0,0,0,0,0,0],"id":94,"left_children":[1,3,5,-1,7,9,-1,-1,-1,-1,-1],"loss_changes":[4.9504034E5,2.0884578E4,3.2328844E4,0E0,5.9931133E3,3.5312422E3,0E0,0E0,0E0,0E0,0E0],"parents":[2147483647,0,0,1,1,2,2,4,4,5,5],"right_children":[2,4,6,-1,8,10,-1,-1,-1,-1,-1],"split_conditions":[2.15E2,8.6E1,4.02E2,-1.4842343E0,1.89E2,3.03E2,1.5237389E0,-8.477175E-1,-1.8301782E-1,2.1641468E-1,7.626406E-1],"split_indices":[1,1,1,0,1,1,0,0,0,0,0],"split_type":[0,0,0,0,0,0,0,0,0,0,0],"sum_hessian":[3.8E1,1.8E1,2E1,8E0,1E1,9E0,1.1E1,8E0,2E0,2E0,7E0],"tree_param":{"num_deleted":"0","num_feature":"2","num_nodes":"11","size_leaf_vector":"1"}},{"base_weights":[-4.678521E0,-8.467685E1,1.0858389E2,-1.3711855E2,-2.8202927E1,5.6111626E1,1.5381722E0,-1.5459139E0,-8.0088353E-1,-4.0869823E-1,2.9694125E-2,2.6427838E-1,7.296438E-1],"categories":[],"categories_nodes":[],"categories_segments":[],"categories_sizes":[],"default_left":[0,0,0,0,0,0,0,0,0,0,0,0,0],"id":95,"left_children":[1,3,5,7,9,11,-1,-1,-1,-1,-1,-1,-1],"loss_changes":[3.1719497E5,5.8778984E4,3.0100234E4,4.272578E3,4.206677E3,2.7877578E3,0E0,0E0,0E0,0E0,0E0,0E0,0E0],"parents":[2147483647,0,0,1,1,2,2,3,3,4,4,5,5],"right_children":[2,4,6,8,10,12,-1,-1,-1,-1,