{"learner":{"attributes":{"scikit_learn":"{\"_estimator_type\": \"regressor\"}"},"feature_names":[],"feature_types":[],"gradient_booster":{"model":{"gbtree_model_param":{"num_parallel_tree":"1","num_trees":"21"},"iteration_indptr":[0,1,2,3,4,5,6,7,8,9,10,11,12,13,14,15,16,17,18,19,20,21],"tree_info":[0,0,0,0,0,0,0,0,0,0,0,0,0,0,0,0,0,0,0,0,0],"trees":[{"base_weights":[5.529681E-5,-5.660588E2,6.1996924E2,-8.7220435E2,-2.504327E2,3.1642453E2,8.9894275E2,-3.1345715E2,-2.1084773E2,-1.1427675E2,-3.1703524E1,4.6688866E1,1.2812361E2,2.185023E2,3.1259573E2],"categories":[],"categories_nodes":[],"categories_segments":[],"categories_sizes":[],"default_left":[0,0,0,0,0,0,0,0,0,0,0,0,0,0,0],"id":0,"left_children":[1,3,5,7,9,11,13,-1,-1,-1,-1,-1,-1,-1,-1],"loss_changes":[1.2353054E8,1.7561028E7,1.3941952E7,1.985312E6,1.697528E6,1.392529E6,1.364168E6,0E0,0E0,0E0,0E0,0E0,0E0,0E0,0E0],"parents":[2147483647,0,0,1,1,2,2,3,3,4,4,5,5,6,6],"right_children":[2,4,6,8,10,12,14,-1,-1,-1,-1,-1,-1,-1,-1],"split_conditions":[2.55E2,1.24E2,3.68E2,6.6E1,1.93E2,3.02E2,4.25E2,-3.1345715E2,-2.1084773E2,-1.1427675E2,-3.1703524E1,4.6688866E1,1.2812361E2,2.185023E2,3.1259573E2],"split_indices":[2,2,2,2,2,2,2,0,0,0,0,0,0,0,0],"split_type":[0,0,0,0,0,0,0,0,0,0,0,0,0,0,0],"sum_hessian":[3.5E2,1.83E2,1.67E2,9.2E1,9.1E1,8.1E1,8.6E1,4.3E1,4.9E1,4.7E1,4.4E1,3.4E1,4.7E1,4.2E1,4.4E1],"tree_param":{"num_deleted":"0","num_feature":"3","num_nodes":"15","size_leaf_vector":"1"}},{"base_weights":[1.015312E-1,-4.2691003E2,4.127993E2,-6.5085974E2,-2.3177296E2,1.6539569E2,6.110507E2,-2.4103375E2,-1.6597412E2,-1.0514428E2,-3.9998825E1,1.6117601E1,7.351063E1,1.424654E2,2.1608177E2],"categories":[],"categories_nodes":[],"categories_segments":[],"categories_sizes":[],"default_left":[0,0,0,0,0,0,0,0,0,0,0,0,0,0,0],"id":1,"left_children":[1,3,5,7,9,11,13,-1,-1,-1,-1,-1,-1,-1,-1],"loss_changes":[6.2031804E7,7.409398E6,8.67855E6,7.47044E5,1.051758E6,7.072005E5,1.130312E6,0E0,0E0,0E0,0E0,0E0,0E0,0E0,0E0],"parents":[2147483647,0,0,1,1,2,2,3,3,4,4,5,5,6,6],"right_children":[2,4,6,8,10,12,14,-1,-1,-1,-1,-1,-1,-1,-1],"split_conditions":[2.38E2,1.09E2,3.53E2,4.2E1,1.7E2,2.86E2,4.15E2,-2.4103375E2,-1.6597412E2,-1.0514428E2,-3.9998825E1,1.6117601E1,7.351063E1,1.424654E2,2.1608177E2],"split_indices":[2,2,2,2,2,2,2,0,0,0,0,0,0,0,0],"split_type":[0,0,0,0,0,0,0,0,0,0,0,0,0,0,0],"sum_hessian":[3.5E2,1.72E2,1.78E2,7.9E1,9.3E1,8E1,9.8E1,2.8E1,5.1E1,4.1E1,5.2E1,3.4E1,4.6E1,4.6E1,5.2E1],"tree_param":{"num_deleted":"0","num_feature":"3","num_nodes":"15","size_leaf_vector":"1"}},{"base_weights":[-2.25152E-1,1.1241626E1,-1.9056241E2,-1.10946014E2,1.58404255E1,-3.6052173E2,-1.873009E1,5.1289043E1,-7.8530985E-1,-1.6825947E1,-1.16434814E2,3.4471718E1,-8.439576E1],"categories":[],"categories_nodes":[],"categories_segments":[],"categories_sizes":[],"default_left":[0,0,0,0,0,0,0,0,0,0,0,0,0],"id":2,"left_children":[1,3,5,-1,7,9,11,-1,-1,-1,-1,-1,-1],"loss_changes":[7.6821906E5,5.876636E5,5.773375E5,0E0,9.4246675E5,6.223875E4,4.1832956E5,0E0,0E0,0E0,0E0,0E0,0E0],"parents":[2147483647,0,0,1,1,2,2,4,4,5,5,6,6],"right_children":[2,4,6,-1,8,10,12,-1,-1,-1,-1,-1,-1],"split_conditions":[4.76566E0,7.115E-2,4.85321E0,-1.10946014E2,4.0292E-1,4.76857E0,4.95333E0,5.1289043E1,-7.8530985E-1,-1.6825947E1,-1.16434814E2,3.4471718E1,-8.439576E1],"split_indices":[0,0,0,0,0,0,0,0,0,0,0,0,0],"split_type":[0,0,0,0,0,0,0,0,0,0,0,0,0],"sum_hessian":[3.5E2,3.31E2,1.9E1,3E0,3.28E2,9E0,1E1,3.4E1,2.94E2,1E0,8E0,7E0,3E0],"tree_param":{"num_deleted":"0","num_feature":"3","num_nodes":"13","size_leaf_vector":"1"}},{"base_weights":[-8.517156E-1,-2.6708844E2,3.186377E2,-4.1161288E2,-8.793123E1,1.8403627E2,4.6873215E2,-1.5077354E2,-9.441282E1,-4.0519028E1,-8.106194E-1,3.2928795E1,7.478059E1,1.21657265E2,1.7584567E2],"categories":[],"categories_nodes":[],"categories_segments":[],"categories_sizes":[],"default_left":[0,0,0,0,0,0,0,0,0,0,0,0,0,0,0],"id":3,"left_children":[1,3,5,7,9,11,13,-1,-1,-1,-1,-1,-1,-1,-1],"loss_changes":[2.9941102E7,4.935185E6,3.146203E6,7.76212E5,3.491172E5,3.8931325E5,3.18943E5,0E0,0E0,0E0,0E0,0E0,0E0,0E0,0E0],"parents":[2147483647,0,0,1,1,2,2,3,3,4,4,5,5,6,6],"right_children":[2,4,6,8,10,12,14,-1,-1,-1,-1,-1,-1,-1,-1],"split_conditions":[2.66E2,1.43E2,3.84E2,7.7E1,2.21E2,3.23E2,4.57E2,-1.5077354E2,-9.441282E1,-4.0519028E1,-8.106194E-1,3.2928795E1,7.478059E1,1.21657265E2,1.7584567E2],"split_indices":[2,2,2,2,2,2,2,0,0,0,0,0,0,0,0],"split_type":[0,0,0,0,0,0,0,0,0,0,0,0,0,0,0],"sum_hessian":[3.5E2,1.91E2,1.59E2,1.05E2,8.6E1,8.5E1,7.4E1,5.2E1,5.3E1,5.5E1,3.1E1,4.1E1,4.4E1,5.1E1,2.3E1],"tree_param":{"num_deleted":"0","num_feature":"3","num_nodes":"15","size_leaf_vector":"1"}},{"base_weights":[-2.5802952E-1,-1.8845416E2,2.2557895E2,-2.9630313E2,-6.800634E1,1.3593927E2,3.4182925E2,-1.318362E2,-7.798913E1,-3.455651E1,-4.850276E0,2.6869976E1,5.984409E1,8.6354805E1,1.23177284E2],"categories":[],"categories_nodes":[],"categories_segments":[],"categories_sizes":[],"default_left":[0,0,0,0,0,0,0,0,0,0,0,0,0,0,0],"id":4,"left_children":[1,3,5,7,9,11,13,-1,-1,-1,-1,-1,-1,-1,-1],"loss_changes":[1.4960589E7,2.4739625E6,1.6208345E6,4.11161E5,2.2315653E5,2.532175E5,1.379215E5,0E0,0E0,0E0,0E0,0E0,0E0,0E0,0E0],"parents":[2147483647,0,0,1,1,2,2,3,3,4,4,5,5,6,6],"right_children":[2,4,6,8,10,12,14,-1,-1,-1,-1,-1,-1,-1,-1],"split_conditions":[2.66E2,1.36E2,3.9E2,2.7E1,2.03E2,3.42E2,4.47E2,-1.318362E2,-7.798913E1,-3.455651E1,-4.850276E0,2.6869976E1,5.984409E1,8.6354805E1,1.23177284E2],"split_indices":[2,2,2,2,2,2,2,0,0,0,0,0,0,0,0],"split_type":[0,0,0,0,0,0,0,0,0,0,0,0,0,0,0],"sum_hessian":[3.5E2,1.91E2,1.59E2,1E2,9.1E1,9.1E1,6.8E1,1.8E1,8.2E1,4.7E1,4.4E1,5.4E1,3.7E1,4.1E1,2.7E1],"tree_param":{"num_deleted":"0","num_feature":"3","num_nodes":"15","size_leaf_vector":"1"}},{"base_weights":[-4.6694502E-2,1.3594191E1,-1.974987E1,-3.47398E1,1.7351664E1,-4.7038586E1,8.7242216E-1,2.459169E0,1.5073847E1,-1.1934614E1,-3.6542015E1,6.1141562E0,-1.8479134E1],"categories":[],"categories_nodes":[],"categories_segments":[],"categories_sizes":[],"default_left":[0,0,0,0,0,0,0,0,0,0,0,0,0],"id":5,"left_children":[1,3,5,-1,7,9,11,-1,-1,-1,-1,-1,-1],"loss_changes":[9.460631E4,1.03137375E5,8.1077875E4,0E0,6.07176E4,2.8792875E4,1.02404305E5,0E0,0E0,0E0,0E0,0E0,0E0],"parents":[2147483647,0,0,1,1,2,2,4,4,5,5,6,6],"right_children":[2,4,6,-1,8,10,12,-1,-1,-1,-1,-1,-1],"split_conditions":[2.85226E0,8.352E-2,3.79121E0,-3.47398E1,2.12057E0,3.69895E0,4.76566E0,2.459169E0,1.5073847E1,-1.1934614E1,-3.6542015E1,6.1141562E0,-1.8479134E1],"split_indices":[0,0,0,0,0,0,0,0,0,0,0,0,0],"split_type":[0,0,0,0,0,0,0,0,0,0,0,0,0],"sum_hessian":[3.5E2,2.07E2,1.43E2,5E0,2.02E2,6.1E1,8.2E1,1.59E2,4.3E1,5.7E1,4E0,6.3E1,1.9E1],"tree_param":{"num_deleted":"0","num_feature":"3","num_nodes":"13","size_leaf_vector":"1"}},{"base_weights":[-2.5506684E-1,-1.5595149E2,1.3402415E2,-2.4432991E2,-9.329886E1,4.430729E1,2.0850322E2,-9.9045715E1,-6.526651E1,-3.693561E1,-1.5395301E1,2.0098822E0,2.2000711E1,5.5016174E1,9.74319E1],"categories":[],"categories_nodes":[],"categories_segments":[],"categories_sizes":[],"default_left":[0,0,0,0,0,0,0,0,0,0,0,0,0,0,0],"id":6,"left_children":[1,3,5,7,9,11,13,-1,-1,-1,-1,-1,-1,-1,-1],"loss_changes":[7.359186E6,8.7975825E5,1.2536655E6,8.213225E4,1.1511344E5,9.448584E4,2.41224E5,0E0,0E0,0E0,0E0,0E0,0E0,0E0,0E0],"parents":[2147483647,0,0,1,1,2,2,3,3,4,4,5,5,6,6],"right_children":[2,4,6,8,10,12,14,-1,-1,-1,-1,-1,-1,-1,-1],"split_conditions":[2.26E2,9.4E1,3.45E2,1.7E1,1.72E2,2.78E2,4.64E2,-9.9045715E1,-6.526651E1,-3.693561E1,-1.5395301E1,2.0098822E0,2.2000711E1,5.5016174E1,9.74319E1],"split_indices":[2,2,2,2,2,2,2,0,0,0,0,0,0,0,0],"split_type":[0,0,0,0,0,0,0,0,0,0,0,0,0,0,0],"sum_hessian":[3.5E2,1.62E2,1.88E2,6.6E1,9.6E1,8.6E1,1.02E2,1.3E1,5.3E1,5.5E1,4.1E1,3.8E1,4.8E1,8.6E1,1.6E1],"tree_param":{"num_deleted":"0","num_feature":"3","num_nodes":"15","size_leaf_vector":"1"}},{"base_weights":[-2.9303408E-1,-1.1049515E2,9.475055E1,-1.762053E2,-6.7335686E1,5.0363194E1,1.8065768E2,-7.145441E1,-4.6721184E1,-2.5827785E1,-9.012485E0,4.65916E0,2.5820702E1,4.7576336E1,7.1086685E1],"categories":[],"categories_nodes":[],"categories_segments":[],"categories_sizes":[],"default_left":[0,0,0,0,0,0,0,0,0,0,0,0,0,0,0],"id":7,"left_children":[1,3,5,7,9,11,13,-1,-1,-1,-1,-1,-1,-1,-1],"loss_changes":[3.6868448E6,4.5040562E5,7.115945E5,4.4092E4,6.736584E4,1.5537306E5,4.1941E4,0E0,0E0,0E0,0E0,0E0,0E0,0E0,0E0],"parents":[2147483647,0,0,1,1,2,2,3,3,4,4,5,5,6,6],"right_children":[2,4,6,8,10,12,14,-1,-1,-1,-1,-1,-1,-1,-1],"split_conditions":[2.26E2,9E1,3.99E2,1.7E1,1.79E2,3.15E2,4.66E2,-7.145441E1,-4.6721184E1,-2.5827785E1,-9.012485E0,4.65916E0,2.5820702E1,4.7576336E1,7.1086685E1],"split_indices":[2,2,2,2,2,2,2,0,0,0,0,0,0,0,0],"split_type":[0,0,0,0,0,0,0,0,0,0,0,0,0,0,0],"sum_hessian":[3.5E2,1.62E2,1.88E2,6.3E1,9.9E1,1.25E2,6.3E1,1.3E1,5E1,6.5E1,3.4E1,6.4E1,6.1E1,4.8E1,1.5E1],"tree_param":{"num_deleted":"0","num_feature":"3","num_nodes":"15","size_leaf_vector":"1"}},{"base_weights":[-2.1616611E-1,-2.6766305E0,1.15250025E1,-1.8243186E0,-3.7477062E1,2.2197035E1,7.0183573E0,-6.824064E0,-1.3143803E-1,-1.2512508E1,3.7206504E0],"categories":[],"categories_nodes":[],"categories_segments":[],"categories_sizes":[],"default_left":[0,0,0,0,0,0,0,0,0,0,0],"id":8,"left_children":[1,3,5,7,-1,-1,9,-1,-1,-1,-1],"loss_changes":[1.0170791E4,3.0092115E4,1.6652705E4,8.400811E3,0E0,0E0,1.5732727E4,0E0,0E0,0E0,0E0],"parents":[2147483647,0,0,1,1,2,2,3,3,6,6],"right_children":[2,4,6,8,-1,-1,10,-1,-1,-1,-1],"split_conditions":[4.09023E0,4.04478E0,4.11797E0,2.0352E-1,-3.7477062E1,2.2197035E1,4.22028E0,-6.824064E0,-1.3143803E-1,-1.2512508E1,3.7206504E0],"split_indices":[0,0,0,0,0,0,0,0,0,0,0],"split_type":[0,0,0,0,0,0,0,0,0,0,0],"sum_hessian":[3.5E2,2.9E2,6E1,2.89E2,1E0,3E0,5.7E1,1.7E1,2.72E2,5E0,5.2E1],"tree_param":{"num_deleted":"0","num_feature":"3","num_nodes":"11","size_leaf_vector":"1"}},{"base_weights":[-2.3971978E-1,-6.657909E1,7.936902E1,-1.2131125E2,-3.418103E1,4.6769573E1,1.27537415E2,-4.4043568E1,-2.859075E1,-1.691164E1,-3.5389636E0,6.9357734E0,1.8290588E1,2.951047E1,4.5114525E1],"categories":[],"categories_nodes":[],"categories_segments":[],"categories_sizes":[],"default_left":[0,0,0,0,0,0,0,0,0,0,0,0,0,0,0],"id":9,"left_children":[1,3,5,7,9,11,13,-1,-1,-1,-1,-1,-1,-1,-1],"loss_changes":[1.8589832E6,3.3631088E5,2.4527725E5,3.3098438E4,5.9936844E4,3.1164234E4,2.7853688E4,0E0,0E0,0E0,0E0,0E0,0E0,0E0,0E0],"parents":[2147483647,0,0,1,1,2,2,3,3,4,4,5,5,6,6],"right_children":[2,4,6,8,10,12,14,-1,-1,-1,-1,-1,-1,-1,-1],"split_conditions":[2.66E2,9.8E1,3.99E2,5.1E1,1.81E2,3.17E2,4.39E2,-4.4043568E1,-2.859075E1,-1.691164E1,-3.5389636E0,6.9357734E0,1.8290588E1,2.951047E1,4.5114525E1],"split_indices":[2,2,2,2,2,2,2,0,0,0,0,0,0,0,0],"split_type":[0,0,0,0,0,0,0,0,0,0,0,0,0,0,0],"sum_hessian":[3.5E2,1.91E2,1.59E2,7E1,1.21E2,9.6E1,6.3E1,3.3E1,3.7E1,6E1,6.1E1,3.7E1,5.9E1,3E1,3.3E1],"tree_param":{"num_deleted":"0","num_feature":"3","num_nodes":"15","size_leaf_vector":"1"}},{"base_weights":[-1.4853036E-1,-4.5146206E1,5.9059914E1,-7.250784E1,-1.0206318E1,3.582928E1,9.04422E1,-3.108001E1,-1.7287992E1,2.2004948E1,-3.5968025E0,6.7721953E0,1.4004368E1,2.298995E1,3.9132854E1],"categories":[],"categories_nodes":[],"categories_segments":[],"categories_sizes":[],"default_left":[0,0,0,0,0,0,0,0,0,0,0,0,0,0,0],"id":10,"left_children":[1,3,5,7,9,11,13,-1,-1,-1,-1,-1,-1,-1,-1],"loss_changes":[9.378154E5,1.9046253E5,1.07572125E5,4.5851062E4,1.4138856E4,1.1748492E4,2.5355438E4,0E0,0E0,0E0,0E0,0E0,0E0,0E0,0E0],"parents":[2147483647,0,0,1,1,2,2,3,3,4,4,5,5,6,6],"right_children":[2,4,6,8,10,12,14,-1,-1,-1,-1,-1,-1,-1,-1],"split_conditions":[2.77E2,1.54E2,3.99E2,5.2E1,5.435E-2,3.34E2,4.69E2,-3.108001E1,-1.7287992E1,2.2004948E1,-3.5968025E0,6.7721953E0,1.4004368E1,2.298995E1,3.9132854E1],"split_indices":[2,2,2,2,0,2,2,0,0,0,0,0,0,0,0],"split_type":[0,0,0,0,0,0,0,0,0,0,0,0,0,0,0],"sum_hessian":[3.5E2,1.99E2,1.51E2,1.11E2,8.8E1,8.8E1,6.3E1,3.4E1,7.7E1,1E0,8.7E1,4.1E1,4.7E1,4.9E1,1.4E1],"tree_param":{"num_deleted":"0","num_feature":"3","num_nodes":"15","size_leaf_vector":"1"}},{"base_weights":[4.683924E-2,-4.009766E1,3.4668568E1,-6.3146805E1,-2.2934624E1,1.5620508E1,5.9873135E1,-2.1770374E1,-2.0624428E0,-7.642861E0,3.796831E0,1.4429159E0,7.2145534E0,1.5407199E1,2.8175665E1],"categories":[],"categories_nodes":[],"categories_segments":[],"categories_sizes":[],"default_left":[0,0,0,0,0,0,0,0,0,0,0,0,0,0,0],"id":11,"left_children":[1,3,5,7,9,11,13,-1,-1,-1,-1,-1,-1,-1,-1],"loss_changes":[4.892352E5,6.303347E4,8.980331E4,3.6081094E4,8.915809E3,9.815686E3,1.8660688E4,0E0,0E0,0E0,0E0,0E0,0E0,0E0,0E0],"parents":[2147483647,0,0,1,1,2,2,3,3,4,4,5,5,6,6],"right_children":[2,4,6,8,10,12,14,-1,-1,-1,-1,-1,-1,-1,-1],"split_conditions":[2.26E2,9.6E1,3.77E2,1.1619933E1,1.1619933E1,2.93E2,4.69E2,-2.1770374E1,-2.0624428E0,-7.642861E0,3.796831E0,1.4429159E0,7.2145534E0,1.5407199E1,2.8175665E1],"split_indices":[2,2,2,1,1,2,2,0,0,0,0,0,0,0,0],"split_type":[0,0,0,0,0,0,0,0,0,0,0,0,0,0,0],"sum_hessian":[3.5E2,1.62E2,1.88E2,6.8E1,9.4E1,1.08E2,8E1,5.8E1,1E1,8.8E1,6E0,4.8E1,6E1,6.6E1,1.4E1],"tree_param":{"num_deleted":"0","num_feature":"3","num_nodes":"15","size_leaf_vector":"1"}},{"base_weights":[1.0275485E-1,-1.1486698E1,2.3417244E0,4.172934E1,-1.521591E1,1.0460714E0,1.761875E1,1.4962216E1,2.5942788E0,1.1922432E0,-4.9267983E0,3.7560086E0,-1.1068443E-1,1.0872985E1,1.5127224E-1],"categories":[],"categories_nodes":[],"categories_segments":[],"categories_sizes":[],"default_left":[0,0,0,0,0,0,0,0,0,0,0,0,0,0,0],"id":12,"left_children":[1,3,5,7,9,11,13,-1,-1,-1,-1,-1,-1,-1,-1],"loss_changes":[9.134799E3,1.1946822E4,5.820718E3,6.464751E2,1.3157764E3,4.4370127E3,7.312968E3,0E0,0E0,0E0,0E0,0E0,0E0,0E0,0E0],"parents":[2147483647,0,0,1,1,2,2,3,3,4,4,5,5,6,6],"right_children":[2,4,6,8,10,12,14,-1,-1,-1,-1,-1,-1,-1,-1],"split_conditions":[6.3559E-1,7.115E-2,4.74933E0,5.435E-2,1.1572E-1,1.08117E0,4.84153E0,1.4962216E1,2.5942788E0,1.1922432E0,-4.9267983E0,3.7560086E0,-1.1068443E-1,1.0872985E1,1.5127224E-1],"split_indices":[0,0,0,0,0,0,0,0,0,0,0,0,0,0,0],"split_type":[0,0,0,0,0,0,0,0,0,0,0,0,0,0,0],"sum_hessian":[3.5E2,5.6E1,2.94E2,3E0,5.3E1,2.72E2,2.2E1,2E0,1E0,3E0,5E1,2.9E1,2.43E2,1E1,1.2E1],"tree_param":{"num_deleted":"0","num_feature":"3","num_nodes":"15","size_leaf_vector":"1"}},{"base_weights":[1.5309358E-1,-2.8311337E1,2.4700972E1,-8.295756E1,-2.302228E1,1.6520668E1,5.677216E1,1.7023277E0,-2.946073E1,-8.943775E0,-2.6536257E0,2.2359269E0,7.793301E0,1.424803E1,2.4417969E1],"categories":[],"categories_nodes":[],"categories_segments":[],"categories_sizes":[],"default_left":[0,0,0,0,0,0,0,0,0,0,0,0,0,0,0],"id":13,"left_children":[1,3,5,7,9,11,13,-1,-1,-1,-1,-1,-1,-1,-1],"loss_changes":[2.4595753E5,4.5201508E4,4.8646617E4,1.9473805E4,1.4176078E4,1.2840707E4,4.815539E3,0E0,0E0,0E0,0E0,0E0,0E0,0E0,0E0],"parents":[2147483647,0,0,1,1,2,2,3,3,4,4,5,5,6,6],"right_children":[2,4,6,8,10,12,14,-1,-1,-1,-1,-1,-1,-1,-1],"split_conditions":[2.26E2,1.7E1,4.35E2,7.313107E-1,1.56E2,3.34E2,4.78E2,1.7023277E0,-2.946073E1,-8.943775E0,-2.6536257E0,2.2359269E0,7.793301E0,1.424803E1,2.4417969E1],"split_indices":[2,2,2,1,2,2,2,0,0,0,0,0,0,0,0],"split_type":[0,0,0,0,0,0,0,0,0,0,0,0,0,0,0],"sum_hessian":[3.5E2,1.62E2,1.88E2,1.3E1,1.49E2,1.51E2,3.7E1,2E0,1.1E1,1E2,4.9E1,7.8E1,7.3E1,2.9E1,8E0],"tree_param":{"num_deleted":"0","num_feature":"3","num_nodes":"15","size_leaf_vector":"1"}},{"base_weights":[1.3376898E-1,-2.095294E1,1.6916386E1,-5.7704967E1,-1.6633894E1,1.1111991E1,4.0758026E1,1.3618623E0,-2.007639E1,-6.0072722E0,8.934619E0,-2.9932692E0,4.213624E0,4.4890323E0,1.3829976E1],"categories":[],"categories_nodes":[],"categories_segments":[],"categories_sizes":[],"default_left":[0,0,0,0,0,0,0,0,0,0,0,0,0,0,0],"id":14,"left_children":[1,3,5,7,9,11,13,-1,-1,-1,-1,-1,-1,-1,-1],"loss_changes":[1.2456988E5,2.3802594E4,2.6670812E4,9.482445E3,2.2784984E4,9.976604E3,4.5462773E3,0E0,0E0,0E0,0E0,0E0,0E0,0E0,0E0],"parents":[2147483647,0,0,1,1,2,2,3,3,4,4,5,5,6,6],"right_children":[2,4,6,8,10,12,14,-1,-1,-1,-1,-1,-1,-1,-1],"split_conditions":[2.13E2,2E1,4.35E2,7.115E-2,4.76857E0,4.0292E-1,3.7195E-1,1.3618623E0,-2.007639E1,-6.0072722E0,8.934619E0,-2.9932692E0,4.213624E0,4.4890323E0,1.3829976E1],"split_indices":[2,2,2,0,0,0,0,0,0,0,0,0,0,0,0],"split_type":[0,0,0,0,0,0,0,0,0,0,0,0,0,0,0],"sum_hessian":[3.5E2,1.55E2,1.95E2,1.5E1,1.4E2,1.58E2,3.7E1,2E0,1.3E1,1.31E2,9E0,1.9E1,1.39E2,7E0,3E1],"tree_param":{"num_deleted":"0","num_feature":"3","num_nodes":"15","size_leaf_vector":"1"}},{"base_weights":[1.0432069E-1,-1.1584073E1,1.7594723E1,-2.7793844E1,-4.6525316E0,1.5375641E1,1.4529859E1,-1.0203872E1,2.5705397E0,1.890544E1,-1.6606692E0,-4.5077428E-1,5.5128703E0],"categories":[],"categories_nodes":[],"categories_segments":[],"categories_sizes":[],"default_left":[0,0,0,0,0,0,0,0,0,0,0,0,0],"id":15,"left_children":[1,3,5,7,9,11,-1,-1,-1,-1,-1,-1,-1],"loss_changes":[7.19604E4,2.3578371E4,8.904277E3,1.4538227E4,9.252393E3,6.7633516E3,0E0,0E0,0E0,0E0,0E0,0E0,0E0],"parents":[2147483647,0,0,1,1,2,2,3,3,4,4,5,5],"right_children":[2,4,6,8,10,12,-1,-1,-1,-1,-1,-1,-1],"split_conditions":[2.93E2,8.9E1,4.78E2,4.73255E0,5.435E-2,4.0292E-1,1.4529859E1,-1.0203872E1,2.5705397E0,1.890544E1,-1.6606692E0,-4.5077428E-1,5.5128703E0],"split_indices":[2,2,2,0,0,0,0,0,0,0,0,0,0],"split_type":[0,0,0,0,0,0,0,0,0,0,0,0,0],"sum_hessian":[3.5E2,2.1E2,1.4E2,6.2E1,1.48E2,1.32E2,8E0,5.3E1,9E0,1E0,1.47E2,2E1,1.12E2],"tree_param":{"num_deleted":"0","num_feature":"3","num_nodes":"13","size_leaf_vector":"1"}},{"base_weights":[1.5621848E-1,-8.063318E0,1.2455269E1,-3.2047825E1,-5.1019063E0,8.888627E0,2.432637E1,-1.1643618E1,-1.9241437E0,-3.217903E0,8.5960895E-1,2.9244184E0,-2.2898684E0,2.7749927E0,8.947097E0],"categories":[],"categories_nodes":[],"categories_segments":[],"categories_sizes":[],"default_left":[0,0,0,0,0,0,0,0,0,0,0,0,0,0,0],"id":16,"left_children":[1,3,5,7,9,11,13,-1,-1,-1,-1,-1,-1,-1,-1],"loss_changes":[3.55839E4,1.4823404E4,5.753703E3,3.7391387E3,8.500088E3,1.6363115E3,2.3762695E3,0E0,0E0,0E0,0E0,0E0,0E0,0E0,0E0],"parents":[2147483647,0,0,1,1,2,2,3,3,4,4,5,5,6,6],"right_children":[2,4,6,8,10,12,14,-1,-1,-1,-1,-1,-1,-1,-1],"split_conditions":[2.93E2,3.2E1,4.41E2,1.12346325E1,5.506595E0,1.1619933E1,1.1609603E0,-1.1643618E1,-1.9241437E0,-3.217903E0,8.5960895E-1,2.9244184E0,-2.2898684E0,2.7749927E0,8.947097E0],"split_indices":[2,2,2,1,1,1,1,0,0,0,0,0,0,0,0],"split_type":[0,0,0,0,0,0,0,0,0,0,0,0,0,0,0],"sum_hessian":[3.5E2,2.1E2,1.4E2,2.2E1,1.88E2,1.09E2,3.1E1,1.7E1,5E0,1.1E2,7.8E1,1.04E2,5E0,9E0,2.2E1],"tree_param":{"num_deleted":"0","num_feature":"3","num_nodes":"15","size_leaf_vector":"1"}},{"base_weights":[9.918768E-2,-1.1442202E1,5.484756E0,-1.7454332E1,-5.1183863E0,1.5006832E0,1.3286817E1,-1.0966227E1,-3.2941349E0,-6.797379E0,-6.4509934E-1,-4.6200517E-1,2.0624022E0,3.4069414E0,9.621293E0],"categories":[],"categories_nodes":[],"categories_segments":[],"categories_sizes":[],"default_left":[0,0,0,0,0,0,0,0,0,0,0,0,0,0,0],"id":17,"left_children":[1,3,5,7,9,11,13,-1,-1,-1,-1,-1,-1,-1,-1],"loss_changes":[2.1879846E4,4.1688594E3,7.4402163E3,6.6466465E3,2.8665447E3,2.6250981E3,2.5728389E3,0E0,0E0,0E0,0E0,0E0,0E0,0E0,0E0],"parents":[2147483647,0,0,1,1,2,2,3,3,4,4,5,5,6,6],"right_children":[2,4,6,8,10,12,14,-1,-1,-1,-1,-1,-1,-1,-1],"split_conditions":[1.54E2,5.870301E0,3.77E2,4.5E1,1.7E1,5.506595E0,4.82E2,-1.0966227E1,-3.2941349E0,-6.797379E0,-6.4509934E-1,-4.6200517E-1,2.0624022E0,3.4069414E0,9.621293E0],"split_indices":[2,1,2,2,2,1,2,0,0,0,0,0,0,0,0],"split_type":[0,0,0,0,0,0,0,0,0,0,0,0,0,0,0],"sum_hessian":[3.5E2,1.11E2,2.39E2,5.6E1,5.5E1,1.59E2,8E1,1.3E1,4.3E1,7E0,4.8E1,1.02E2,5.7E1,7.4E1,6E0],"tree_param":{"num_deleted":"0","num_feature":"3","num_nodes":"15","size_leaf_vector":"1"}},{"base_weights":[4.9275946E-2,-9.939374E0,3.3283825E0,-1.1945934E1,5.0101304E0,2.8564392E1,2.6334772E0,-6.148552E0,-2.2324755E0,-4.8320155E0,3.4477196E0,2.4948442E0,1.2501462E1,-8.183369E0,1.0351968E0],"categories":[],"categories_nodes":[],"categories_segments":[],"categories_sizes":[],"default_left":[0,0,0,0,0,0,0,0,0,0,0,0,0,0,0],"id":18,"left_children":[1,3,5,7,9,11,13,-1,-1,-1,-1,-1,-1,-1,-1],"loss_changes":[1.1529683E4,2.6695967E3,4.5719844E3,2.8126572E3,1.6908406E3,1.5112305E3,6.424844E3,0E0,0E0,0E0,0E0,0E0,0E0,0E0,0E0],"parents":[2147483647,0,0,1,1,2,2,3,3,4,4,5,5,6,6],"right_children":[2,4,6,8,10,12,14,-1,-1,-1,-1,-1,-1,-1,-1],"split_conditions":[1.16E2,1.1619933E1,1.24E2,4.7E1,1.7E1,1.21E2,1.31E2,-6.148552E0,-2.2324755E0,-4.8320155E0,3.4477196E0,2.4948442E0,1.2501462E1,-8.183369E0,1.0351968E0],"split_indices":[2,1,2,2,2,2,2,0,0,0,0,0,0,0,0],"split_type":[0,0,0,0,0,0,0,0,0,0,0,0,0,0,0],"sum_hessian":[3.5E2,8.6E1,2.64E2,7.6E1,1E1,6E0,2.58E2,2.5E1,5.1E1,2E0,8E0,3E0,3E0,6E0,2.52E2],"tree_param":{"num_deleted":"0","num_feature":"3","num_nodes":"15","size_leaf_vector":"1"}},{"base_weights":[2.9053506E-2,1.4894616E1,-5.41371E-1,-1.2989294E1,9.3656015E-1,1.9992462E0,-4.475828E0,1.9217648E-1,7.0698757E0],"categories":[],"categories_nodes":[],"categories_segments":[],"categories_sizes":[],"default_left":[0,0,0,0,0,0,0,0,0],"id":19,"left_children":[1,-1,3,5,7,-1,-1,-1,-1],"loss_changes":[9.96168E3,0E0,6.414382E3,1.5029746E3,2.0746028E3,0E0,0E0,0E0,0E0],"parents":[2147483647,0,0,2,2,3,3,4,4],"right_children":[2,-1,4,6,8,-1,-1,-1,-1],"split_conditions":[7.115E-2,1.4894616E1,4.5289E-1,1.1572E-1,4.95333E0,1.9992462E0,-4.475828E0,1.9217648E-1,7.0698757E0],"split_indices":[0,0,0,0,0,0,0,0,0],"split_type":[0,0,0,0,0,0,0,0,0],"sum_hessian":[3.5E2,3E0,3.47E2,3.6E1,3.11E2,3E0,3.3E1,3.08E2,3E0],"tree_param":{"num_deleted":"0","num_feature":"3","num_nodes":"9","size_leaf_vector":"1"}},{"base_weights":[7.6421805E-2,-3.3137395E0,7.0624375E0,3.8477764E1,-4.0139627E0,6.181622E0,8.987897E0,3.4988742E0,1.3058524E1,-6.653025E0,-7.4666244E-1,2.0921414E0,-2.009211E0],"categories":[],"categories_nodes":[],"categories_segments":[],"categories_sizes":[],"default_left":[0,0,0,0,0,0,0,0,0,0,0,0,0],"id":20,"left_children":[1,3,5,7,9,11,-1,-1,-1,-1,-1,-1,-1],"loss_changes":[8.336389E3,7.089872E3,2.134146E3,3.4061035E1,6.42657E3,1.1893877E3,0E0,0E0,0E0,0E0,0E0,0E0,0E0],"parents":[2147483647,0,0,1,1,2,2,3,3,4,4,5,5],"right_children":[2,4,6,8,10,12,-1,-1,-1,-1,-1,-1,-1],"split_conditions":[3.29E2,7.115E-2,4.85E2,2E0,4.5289E-1,4.75336E0,8.987897E0,3.4988742E0,1.3058524E1,-6.653025E0,-7.4666244E-1,2.0921414E0,-2.009211E0],"split_indices":[2,0,2,2,0,0,0,0,0,0,0,0,0],"split_type":[0,0,0,0,0,0,0,0,0,0,0,0,0],"sum_hessian":[3.5E2,2.36E2,1.14E2,3E0,2.33E2,1.11E2,3E0,1E0,2E0,1.7E1,2.16E2,1.05E2,6E0],"tree_param":{"num_deleted":"0","num_feature":"3","num_nodes":"13","size_leaf_vector":"1"}}]},"name":"gbtree"},"learner_model_param":{"base_score":"1.2521178E3","boost_from_average":"1","num_class":"0","num_feature":"3","num_target":"1"},"objective":{"name":"reg:squarederror","reg_loss_param":{"scale_pos_weight":"1"}}},"version":[2,1,0]}