{"learner":{"attributes":{"scikit_learn":"{\"_estimator_type\": \"regressor\"}"},"feature_names":[],"feature_types":[],"gradient_booster":{"model":{"gbtree_model_param":{"num_parallel_tree":"1","num_trees":"21"},"iteration_indptr":[0,1,2,3,4,5,6,7,8,9,10,11,12,13,14,15,16,17,18,19,20,21],"tree_info":[0,0,0,0,0,0,0,0,0,0,0,0,0,0,0,0,0,0,0,0,0],"trees":[{"base_weights":[-4.7683716E-7,-6.425804E1,5.176342E1,-2.4998446E1,-3.0298035E1,1.7906736E1,7.795343E1,-1.055147E1,-3.527425E0,3.0027213E0,8.327775E0,1.6595644E1,2.9841429E1],"categories":[],"categories_nodes":[],"categories_segments":[],"categories_sizes":[],"default_left":[0,0,0,0,0,0,0,0,0,0,0,0,0],"id":0,"left_children":[1,3,5,-1,7,9,11,-1,-1,-1,-1,-1,-1],"loss_changes":[2.1620403E5,1.6256336E4,3.0525547E4,0E0,6.70709E2,1.044957E3,4.2384062E3,0E0,0E0,0E0,0E0,0E0,0E0],"parents":[2147483647,0,0,1,1,2,2,4,4,5,5,6,6],"right_children":[2,4,6,-1,8,10,12,-1,-1,-1,-1,-1,-1],"split_conditions":[1.2725982E2,3.5E1,1.7442116E2,-2.4998446E1,1.09910545E2,1.5754887E2,2.1374294E2,-1.055147E1,-3.527425E0,3.0027213E0,8.327775E0,1.6595644E1,2.9841429E1],"split_indices":[3,2,3,0,3,3,3,0,0,0,0,0,0],"split_type":[0,0,0,0,0,0,0,0,0,0,0,0,0],"sum_hessian":[6.3E1,2.8E1,3.5E1,1.7E1,1.1E1,1.6E1,1.9E1,8E0,3E0,1E1,6E0,1.1E1,8E0],"tree_param":{"num_deleted":"0","num_feature":"6","num_nodes":"13","size_leaf_vector":"1"}},{"base_weights":[2.9203433E-1,-4.781114E1,3.6686543E1,-1.9181055E1,-2.711851E1,1.7407818E1,6.3801483E1,-9.738206E0,-4.375649E0,2.3212352E0,8.761664E0,1.3674251E1,2.3434061E1],"categories":[],"categories_nodes":[],"categories_segments":[],"categories_sizes":[],"default_left":[0,0,0,0,0,0,0,0,0,0,0,0,0],"id":1,"left_children":[1,3,5,-1,7,9,11,-1,-1,-1,-1,-1,-1],"loss_changes":[1.1379826E5,7.609258E3,1.8230785E4,0E0,4.6389453E2,2.3980566E3,3.5114062E2,0E0,0E0,0E0,0E0,0E0,0E0],"parents":[2147483647,0,0,1,1,2,2,4,4,5,5,6,6],"right_children":[2,4,6,-1,8,10,12,-1,-1,-1,-1,-1,-1],"split_conditions":[1.24465294E2,6.0267986E1,1.9236118E2,-1.9181055E1,1.002606E2,1.6124164E2,2.2147137E2,-9.738206E0,-4.375649E0,2.3212352E0,8.761664E0,1.3674251E1,2.3434061E1],"split_indices":[3,3,3,0,3,3,3,0,0,0,0,0,0],"split_type":[0,0,0,0,0,0,0,0,0,0,0,0,0],"sum_hessian":[6.3E1,2.7E1,3.6E1,1.4E1,1.3E1,2.2E1,1.4E1,8E0,5E0,1.3E1,9E0,8E0,6E0],"tree_param":{"num_deleted":"0","num_feature":"6","num_nodes":"13","size_leaf_vector":"1"}},{"base_weights":[4.3718034E-1,-3.3707523E1,2.7930492E1,-1.4480565E1,-2.0589827E1,1.1887326E1,4.5161835E1,-7.561837E0,-3.1182723E0,8.583796E-1,4.9582253E0,9.86075E0,1.740816E1],"categories":[],"categories_nodes":[],"categories_segments":[],"categories_sizes":[],"default_left":[0,0,0,0,0,0,0,0,0,0,0,0,0],"id":2,"left_children":[1,3,5,-1,7,9,11,-1,-1,-1,-1,-1,-1],"loss_changes":[6.1021527E4,4.5453633E3,9.415178E3,0E0,5.381211E2,7.903452E2,7.812383E2,0E0,0E0,0E0,0E0,0E0,0E0],"parents":[2147483647,0,0,1,1,2,2,4,4,5,5,6,6],"right_children":[2,4,6,-1,8,10,12,-1,-1,-1,-1,-1,-1],"split_conditions":[1.2725982E2,5.6197117E1,7.9E1,-1.4480565E1,4.2E1,1.508643E2,2.2147137E2,-7.561837E0,-3.1182723E0,8.583796E-1,4.9582253E0,9.86075E0,1.740816E1],"split_indices":[3,3,2,0,2,3,3,0,0,0,0,0,0],"split_type":[0,0,0,0,0,0,0,0,0,0,0,0,0],"sum_hessian":[6.3E1,2.8E1,3.5E1,1.2E1,1.6E1,1.9E1,1.6E1,1E1,6E0,7E0,1.2E1,1E1,6E0],"tree_param":{"num_deleted":"0","num_feature":"6","num_nodes":"13","size_leaf_vector":"1"}},{"base_weights":[4.2985272E-1,-2.3739506E1,2.1134163E1,-1.1185526E1,-1.5102461E1,1.083612E1,3.580722E1,-5.417713E0,-1.5581777E0,1.6709672E0,5.3472056E0,7.621987E0,1.3632075E1],"categories":[],"categories_nodes":[],"categories_segments":[],"categories_sizes":[],"default_left":[0,0,0,0,0,0,0,0,0,0,0,0,0],"id":3,"left_children":[1,3,5,-1,7,9,11,-1,-1,-1,-1,-1,-1],"loss_changes":[3.2527947E4,2.9467168E3,4.900623E3,0E0,4.9211133E2,7.1031934E2,2.4816602E2,0E0,0E0,0E0,0E0,0E0,0E0],"parents":[2147483647,0,0,1,1,2,2,4,4,5,5,6,6],"right_children":[2,4,6,-1,8,10,12,-1,-1,-1,-1,-1,-1],"split_conditions":[1.3061105E2,4.8687458E1,1.9560405E2,-1.1185526E1,1.056011E2,1.6694362E2,2.328174E2,-5.417713E0,-1.5581777E0,1.6709672E0,5.3472056E0,7.621987E0,1.3632075E1],"split_indices":[3,3,3,0,3,3,3,0,0,0,0,0,0],"split_type":[0,0,0,0,0,0,0,0,0,0,0,0,0],"sum_hessian":[6.3E1,2.9E1,3.4E1,1E1,1.9E1,2.1E1,1.3E1,1.4E1,5E0,1.3E1,8E0,8E0,5E0],"tree_param":{"num_deleted":"0","num_feature":"6","num_nodes":"13","size_leaf_vector":"1"}},{"base_weights":[4.588765E-1,-1.6770233E1,1.6154274E1,-2.295641E1,-6.438881E0,6.6604624E0,2.4223192E1,-9.148207E0,-5.1395454E0,-2.478903E0,-8.8006866E-1,6.3665926E-1,2.512367E0,5.2940226E0,9.610994E0],"categories":[],"categories_nodes":[],"categories_segments":[],"categories_sizes":[],"default_left":[0,0,0,0,0,0,0,0,0,0,0,0,0,0,0],"id":4,"left_children":[1,3,5,7,9,11,13,-1,-1,-1,-1,-1,-1,-1,-1],"loss_changes":[1.7577645E4,1.8334453E3,2.4432256E3,3.1174805E2,5.8883972E1,1.14470764E2,3.5958496E2,0E0,0E0,0E0,0E0,0E0,0E0,0E0,0E0],"parents":[2147483647,0,0,1,1,2,2,3,3,4,4,5,5,6,6],"right_children":[2,4,6,8,10,12,14,-1,-1,-1,-1,-1,-1,-1,-1],"split_conditions":[5.5E1,3.6E1,7.8E1,2.1E1,4.9E1,5.549978E0,9.1E1,-9.148207E0,-5.1395454E0,-2.478903E0,-8.8006866E-1,6.3665926E-1,2.512367E0,5.2940226E0,9.610994E0],"split_indices":[2,2,2,2,2,1,2,0,0,0,0,0,0,0,0],"split_type":[0,0,0,0,0,0,0,0,0,0,0,0,0,0,0],"sum_hessian":[6.3E1,3E1,3.3E1,1.8E1,1.2E1,1.6E1,1.7E1,6E0,1.2E1,7E0,5E0,5E0,1.1E1,1.1E1,6E0],"tree_param":{"num_deleted":"0","num_feature":"6","num_nodes":"15","size_leaf_vector":"1"}},{"base_weights":[3.2757962E-1,-1.1623908E1,1.2642314E1,-7.6230855E0,-8.254544E0,7.71861E0,6.810781E0,-3.3260732E0,-8.6080545E-1,1.1100099E0,3.1575618E0],"categories":[],"categories_nodes":[],"categories_segments":[],"categories_sizes":[],"default_left":[0,0,0,0,0,0,0,0,0,0,0],"id":5,"left_children":[1,3,5,-1,7,9,-1,-1,-1,-1,-1],"loss_changes":[9.566435E3,1.3231426E3,1.4098511E3,0E0,3.952672E2,2.2046228E2,0E0,0E0,0E0,0E0,0E0],"parents":[2147483647,0,0,1,1,2,2,4,4,5,5],"right_children":[2,4,6,-1,8,10,-1,-1,-1,-1,-1],"split_conditions":[1.436324E2,3.3196655E1,2.0919029E2,-7.6230855E0,1.002606E2,1.6694362E2,6.810781E0,-3.3260732E0,-8.6080545E-1,1.1100099E0,3.1575618E0],"split_indices":[3,3,3,0,3,3,0,0,0,0,0],"split_type":[0,0,0,0,0,0,0,0,0,0,0],"sum_hessian":[6.3E1,3.2E1,3.1E1,5E0,2.7E1,2.2E1,9E0,1.7E1,1E1,1E1,1.2E1],"tree_param":{"num_deleted":"0","num_feature":"6","num_nodes":"11","size_leaf_vector":"1"}},{"base_weights":[2.1787405E-1,-8.494613E0,9.195818E0,-5.717314E0,-5.9277124E0,6.366441E0,6.1186132E0,-2.5810187E0,-6.5357596E-1,8.465412E-1,2.588105E0],"categories":[],"categories_nodes":[],"categories_segments":[],"categories_sizes":[],"default_left":[0,0,0,0,0,0,0,0,0,0,0],"id":6,"left_children":[1,3,5,-1,7,9,-1,-1,-1,-1,-1],"loss_changes":[5.0842085E3,7.818074E2,8.8416284E2,0E0,2.62138E2,1.92005E2,0E0,0E0,0E0,0E0,0E0],"parents":[2147483647,0,0,1,1,2,2,4,4,5,5],"right_children":[2,4,6,-1,8,10,-1,-1,-1,-1,-1],"split_conditions":[1.436324E2,3.3196655E1,2.328174E2,-5.717314E0,3.9E1,1.6948883E2,6.1186132E0,-2.5810187E0,-6.5357596E-1,8.465412E-1,2.588105E0],"split_indices":[3,3,3,0,2,3,0,0,0,0,0],"split_type":[0,0,0,0,0,0,0,0,0,0,0],"sum_hessian":[6.3E1,3.2E1,3.1E1,5E0,2.7E1,2.6E1,5E0,1.5E1,1.2E1,1.1E1,1.5E1],"tree_param":{"num_deleted":"0","num_feature":"6","num_nodes":"11","size_leaf_vector":"1"}},{"base_weights":[1.6190904E-1,-7.375823E0,5.861763E0,-4.9541245E0,-5.6187224E0,4.0748034E0,4.945003E0,-2.063603E0,-9.122773E-1,2.2226998E-1,1.783383E0],"categories":[],"categories_nodes":[],"categories_segments":[],"categories_sizes":[],"default_left":[0,0,0,0,0,0,0,0,0,0,0],"id":7,"left_children":[1,3,5,-1,7,9,-1,-1,-1,-1,-1],"loss_changes":[2.7929294E3,3.5678894E2,6.351061E2,0E0,6.028003E1,2.0130957E2,0E0,0E0,0E0,0E0,0E0],"parents":[2147483647,0,0,1,1,2,2,4,4,5,5],"right_children":[2,4,6,-1,8,10,-1,-1,-1,-1,-1],"split_conditions":[1.24465294E2,2.0760868E1,2.3768645E2,-4.9541245E0,3.6E1,1.5907652E2,4.945003E0,-2.063603E0,-9.122773E-1,2.2226998E-1,1.783383E0],"split_indices":[3,3,3,0,2,3,0,0,0,0,0],"split_type":[0,0,0,0,0,0,0,0,0,0,0],"sum_hessian":[6.3E1,2.7E1,3.6E1,3E0,2.4E1,3.2E1,4E0,1.5E1,9E0,1.2E1,2E1],"tree_param":{"num_deleted":"0","num_feature":"6","num_nodes":"11","size_leaf_vector":"1"}},{"base_weights":[9.803319E-2,-5.4462895E0,4.291087E0,-3.5631359E0,-3.8796048E0,1.9227929E0,9.064801E0,-1.3706852E0,-5.789383E-1,1.6071695E-1,9.220332E-1,1.9426392E0,4.4022985E0],"categories":[],"categories_nodes":[],"categories_segments":[],"categories_sizes":[],"default_left":[0,0,0,0,0,0,0,0,0,0,0,0,0],"id":8,"left_children":[1,3,5,-1,7,9,11,-1,-1,-1,-1,-1,-1],"loss_changes":[1.5112198E3,2.360238E2,4.0087604E2,0E0,2.3441101E1,3.985034E1,7.9276306E1,0E0,0E0,0E0,0E0,0E0,0E0],"parents":[2147483647,0,0,1,1,2,2,4,4,5,5,6,6],"right_children":[2,4,6,-1,8,10,12,-1,-1,-1,-1,-1,-1],"split_conditions":[1.24465294E2,2.9831673E1,2.0277063E2,-3.5631359E0,3.9E1,1.5907652E2,2.4664525E2,-1.3706852E0,-5.789383E-1,1.6071695E-1,9.220332E-1,1.9426392E0,4.4022985E0],"split_indices":[3,3,3,0,2,3,3,0,0,0,0,0,0],"split_type":[0,0,0,0,0,0,0,0,0,0,0,0,0],"sum_hessian":[6.3E1,2.7E1,3.6E1,4E0,2.3E1,2.5E1,1.1E1,1.6E1,7E0,1.2E1,1.3E1,9E0,2E0],"tree_param":{"num_deleted":"0","num_feature":"6","num_nodes":"13","size_leaf_vector":"1"}},{"base_weights":[9.854376E-2,-3.7802E0,3.4203656E0,-3.4861348E0,-2.805166E0,2.2505138E0,2.9968123E0,-1.4051068E0,-5.867877E-1,2.9920173E-1,1.1102964E0],"categories":[],"categories_nodes":[],"categories_segments":[],"categories_sizes":[],"default_left":[0,0,0,0,0,0,0,0,0,0,0],"id":9,"left_children":[1,3,5,-1,7,9,-1,-1,-1,-1,-1],"loss_changes":[8.375374E2,1.9673795E2,2.464856E2,0E0,3.5506027E1,5.2657455E1,0E0,0E0,0E0,0E0,0E0],"parents":[2147483647,0,0,1,1,2,2,4,4,5,5],"right_children":[2,4,6,-1,8,10,-1,-1,-1,-1,-1],"split_conditions":[1.3061105E2,1.8033821E1,2.3768645E2,-3.4861348E0,4.671884E1,1.8185616E2,2.9968123E0,-1.4051068E0,-5.867877E-1,2.9920173E-1,1.1102964E0],"split_indices":[3,3,3,0,3,3,0,0,0,0,0],"split_type":[0,0,0,0,0,0,0,0,0,0,0],"sum_hessian":[6.3E1,2.9E1,3.4E1,2E0,2.7E1,3E1,4E0,7E0,2E1,1.7E1,1.3E1],"tree_param":{"num_deleted":"0","num_feature":"6","num_nodes":"11","size_leaf_vector":"1"}},{"base_weights":[5.223638E-2,-2.605655E0,2.7915545E0,-2.788908E0,-1.874114E0,1.7653688E0,7.9798827E0,-9.510529E-1,-3.0083132E-1,1.8405227E-1,7.423807E-1,6.7892766E-1,2.6529922E0],"categories":[],"categories_nodes":[],"categories_segments":[],"categories_sizes":[],"default_left":[0,0,0,0,0,0,0,0,0,0,0,0,0],"id":10,"left_children":[1,3,5,-1,7,9,11,-1,-1,-1,-1,-1,-1],"loss_changes":[4.7324567E2,1.440969E2,1.5628656E2,0E0,3.1829811E1,2.1356087E1,4.66687E0,0E0,0E0,0E0,0E0,0E0,0E0],"parents":[2147483647,0,0,1,1,2,2,4,4,5,5,6,6],"right_children":[2,4,6,-1,8,10,12,-1,-1,-1,-1,-1,-1],"split_conditions":[6E1,1.5E1,9.4E1,-2.788908E0,2.9E1,7.997793E1,2.3768645E2,-9.510529E-1,-3.0083132E-1,1.8405227E-1,7.423807E-1,6.7892766E-1,2.6529922E0],"split_indices":[2,2,2,0,2,5,3,0,0,0,0,0,0],"split_type":[0,0,0,0,0,0,0,0,0,0,0,0,0],"sum_hessian":[6.3E1,3.2E1,3.1E1,2E0,3E1,2.7E1,4E0,1.1E1,1.9E1,1.1E1,1.6E1,1E0,3E0],"tree_param":{"num_deleted":"0","num_feature":"6","num_nodes":"13","size_leaf_vector":"1"}},{"base_weights":[3.9964736E-2,-2.3085299E0,1.8161237E0,-2.231126E0,-1.6279837E0,1.2365099E0,2.3918731E0,9.188576E-2,-5.9807736E-1,2.0472583E-1,7.660483E-1],"categories":[],"categories_nodes":[],"categories_segments":[],"categories_sizes":[],"default_left":[0,0,0,0,0,0,0,0,0,0,0],"id":11,"left_children":[1,3,5,-1,7,9,-1,-1,-1,-1,-1],"loss_changes":[2.7115576E2,8.561868E1,1.22178085E2,0E0,1.8997375E1,2.3797943E1,0E0,0E0,0E0,0E0,0E0],"parents":[2147483647,0,0,1,1,2,2,4,4,5,5],"right_children":[2,4,6,-1,8,10,-1,-1,-1,-1,-1],"split_conditions":[1.24465294E2,1.8033821E1,2.4664525E2,-2.231126E0,1.21884E5,2.0277063E2,2.3918731E0,9.188576E-2,-5.9807736E-1,2.0472583E-1,7.660483E-1],"split_indices":[3,3,3,0,0,3,0,0,0,0,0],"split_type":[0,0,0,0,0,0,0,0,0,0,0],"sum_hessian":[6.3E1,2.7E1,3.6E1,2E0,2.5E1,3.4E1,2E0,4E0,2.1E1,2.5E1,9E0],"tree_param":{"num_deleted":"0","num_feature":"6","num_nodes":"11","size_leaf_vector":"1"}},{"base_weights":[3.7744284E-2,-1.2391506E0,1.9516349E0,-1.6177824E0,-7.432345E-1,1.3169804E0,1.913498E0,1.3001633E-1,-4.535081E-1,4.6332365E-1,-2.3695374E-1],"categories":[],"categories_nodes":[],"categories_segments":[],"categories_sizes":[],"default_left":[0,0,0,0,0,0,0,0,0,0,0],"id":12,"left_children":[1,3,5,-1,7,9,-1,-1,-1,-1,-1],"loss_changes":[1.5882396E2,7.632291E1,6.464478E1,0E0,3.320585E1,1.2719669E1,0E0,0E0,0E0,0E0,0E0],"parents":[2147483647,0,0,1,1,2,2,4,4,5,5],"right_children":[2,4,6,-1,8,10,-1,-1,-1,-1,-1],"split_conditions":[1.6335814E2,1.7E1,2.5661542E2,-1.6177824E0,5.836461E0,8.0079E1,1.913498E0,1.3001633E-1,-4.535081E-1,4.6332365E-1,-2.3695374E-1],"split_indices":[4,2,4,0,1,5,0,0,0,0,0],"split_type":[0,0,0,0,0,0,0,0,0,0,0],"sum_hessian":[6.3E1,3.8E1,2.5E1,3E0,3.5E1,2.3E1,2E0,1.4E1,2.1E1,2.1E1,2E0],"tree_param":{"num_deleted":"0","num_feature":"6","num_nodes":"11","size_leaf_vector":"1"}},{"base_weights":[2.9524744E-2,-2.950502E0,5.70811E-1,-1.1563241E0,-1.6058065E0,2.1965857E-1,4.0384035E0,-5.07626E-1,3.0873758E-1,-3.1039178E-2,3.2430464E-1,6.083817E-1,1.8120393E0],"categories":[],"categories_nodes":[],"categories_segments":[],"categories_sizes":[],"default_left":[0,0,0,0,0,0,0,0,0,0,0,0,0],"id":13,"left_children":[1,3,5,7,-1,9,11,-1,-1,-1,-1,-1,-1],"loss_changes":[1.0491922E2,3.691005E1,6.608386E1,9.93754E0,0E0,1.4306361E1,7.8729935E0,0E0,0E0,0E0,0E0,0E0,0E0],"parents":[2147483647,0,0,1,1,2,2,3,3,5,5,6,6],"right_children":[2,4,6,8,-1,10,12,-1,-1,-1,-1,-1,-1],"split_conditions":[4.671884E1,6.1792336E0,9.4E1,4.1939095E1,-1.6058065E0,1.8185616E2,9.667739E0,-5.07626E-1,3.0873758E-1,-3.1039178E-2,3.2430464E-1,6.083817E-1,1.8120393E0],"split_indices":[3,1,2,3,0,3,1,0,0,0,0,0,0],"split_type":[0,0,0,0,0,0,0,0,0,0,0,0,0],"sum_hessian":[6.3E1,9E0,5.4E1,6E0,3E0,5E1,4E0,5E0,1E0,3.7E1,1.3E1,3E0,1E0],"tree_param":{"num_deleted":"0","num_feature":"6","num_nodes":"13","size_leaf_vector":"1"}},{"base_weights":[3.486824E-2,-1.3759235E0,7.5585777E-1,-5.557859E-1,-2.741691E0,4.783986E-1,4.2958474E0,1.1031724E-2,-3.714746E-1,-9.549243E-1,5.220566E-2,7.434719E-2,3.5051927E-1,3.928986E-1,1.5402329E0],"categories":[],"categories_nodes":[],"categories_segments":[],"categories_sizes":[],"default_left":[0,0,0,0,0,0,0,0,0,0,0,0,0,0,0],"id":14,"left_children":[1,3,5,7,9,11,13,-1,-1,-1,-1,-1,-1,-1,-1],"loss_changes":[6.613863E1,2.311879E1,4.017959E1,6.1115174E0,1.0849628E1,6.233389E0,7.8567123E-1,0E0,0E0,0E0,0E0,0E0,0E0,0E0,0E0],"parents":[2147483647,0,0,1,1,2,2,3,3,4,4,5,5,6,6],"right_children":[2,4,6,8,10,12,14,-1,-1,-1,-1,-1,-1,-1,-1],"split_conditions":[4.1E1,8.00359E1,2.4664525E2,3.1E1,2.9E1,2.0277063E2,9.5E1,1.1031724E-2,-3.714746E-1,-9.549243E-1,5.220566E-2,7.434719E-2,3.5051927E-1,3.928986E-1,1.5402329E0],"split_indices":[2,5,3,2,2,3,2,0,0,0,0,0,0,0,0],"split_type":[0,0,0,0,0,0,0,0,0,0,0,0,0,0,0],"sum_hessian":[6.3E1,2.1E1,4.2E1,1.4E1,7E0,4E1,2E0,8E0,6E0,6E0,1E0,3.1E1,9E0,1E0,1E0],"tree_param":{"num_deleted":"0","num_feature":"6","num_nodes":"15","size_leaf_vector":"1"}},{"base_weights":[4.1516125E-2,-1.3382863E-1,3.651469E0,-1.2504963E0,6.437145E-4,3.339615E-1,1.3091996E0,-2.1113278E-1,1.0081989E-1],"categories":[],"categories_nodes":[],"categories_segments":[],"categories_sizes":[],"default_left":[0,0,0,0,0,0,0,0,0],"id":15,"left_children":[1,3,5,-1,7,-1,-1,-1,-1],"loss_changes":[4.0999794E1,3.3639393E1,5.677376E-1,0E0,1.46494875E1,0E0,0E0,0E0,0E0],"parents":[2147483647,0,0,1,1,2,2,4,4],"right_children":[2,4,6,-1,8,-1,-1,-1,-1],"split_conditions":[2.5661542E2,2.407192E1,3.5194E5,-1.2504963E0,3.9E1,3.339615E-1,1.3091996E0,-2.1113278E-1,1.0081989E-1],"split_indices":[4,4,0,0,2,0,0,0,0],"split_type":[0,0,0,0,0,0,0,0,0],"sum_hessian":[6.3E1,6.1E1,2E0,1E0,6E1,1E0,1E0,1.9E1,4.1E1],"tree_param":{"num_deleted":"0","num_feature":"6","num_nodes":"9","size_leaf_vector":"1"}},{"base_weights":[3.34751E-2,-1.1562649E-1,3.1037495E0,-2.0284297E0,8.774975E-2,2.8386843E-1,1.112819E0,-3.0506596E-1,-1.0629219E0,1.703656E-1,-9.153078E-2],"categories":[],"categories_nodes":[],"categories_segments":[],"categories_sizes":[],"default_left":[0,0,0,0,0,0,0,0,0,0,0],"id":16,"left_children":[1,3,5,7,9,-1,-1,-1,-1,-1,-1],"loss_changes":[2.9656977E1,2.4297155E1,4.1015244E-1,5.589857E0,1.0924739E1,0E0,0E0,0E0,0E0,0E0,0E0],"parents":[2147483647,0,0,1,1,2,2,3,3,4,4],"right_children":[2,4,6,8,10,-1,-1,-1,-1,-1,-1],"split_conditions":[2.4664525E2,3.3196655E1,3.5194E5,4.08128E5,2.79819E5,2.8386843E-1,1.112819E0,-3.0506596E-1,-1.0629219E0,1.703656E-1,-9.153078E-2],"split_indices":[3,3,0,0,0,0,0,0,0,0,0],"split_type":[0,0,0,0,0,0,0,0,0,0,0],"sum_hessian":[6.3E1,6.1E1,2E0,5E0,5.6E1,1E0,1E0,4E0,1E0,2.5E1,3.1E1],"tree_param":{"num_deleted":"0","num_feature":"6","num_nodes":"11","size_leaf_vector":"1"}},{"base_weights":[2.511385E-2,-2.6847404E-1,1.3197008E0,-9.034836E-1,-1.5780577E-1,1.8426225E0,-1.867981E-1,2.8234637E-1,-1.0490091E-1,1.9070284E-1,9.5771605E-1,1.6259308E-1,-3.5596848E-1],"categories":[],"categories_nodes":[],"categories_segments":[],"categories_sizes":[],"default_left":[0,0,0,0,0,0,0,0,0,0,0,0,0],"id":17,"left_children":[1,3,5,-1,7,9,11,-1,-1,-1,-1,-1,-1],"loss_changes":[2.467911E1,1.5614401E1,9.797571E0,0E0,1.1293336E1,1.2632513E1,3.5574996E0,0E0,0E0,0E0,0E0,0E0,0E0],"parents":[2147483647,0,0,1,1,2,2,4,4,5,5,6,6],"right_children":[2,4,6,-1,8,10,12,-1,-1,-1,-1,-1,-1],"split_conditions":[2.0864285E2,2.407192E1,4.46E5,-9.034836E-1,1.3711E5,3.63955E5,8.6E1,2.8234637E-1,-1.0490091E-1,1.9070284E-1,9.5771605E-1,1.6259308E-1,-3.5596848E-1],"split_indices":[4,4,0,0,0,0,2,0,0,0,0,0,0],"split_type":[0,0,0,0,0,0,0,0,0,0,0,0,0],"sum_hessian":[6.3E1,5.2E1,1.1E1,1E0,5.1E1,8E0,3E0,7E0,4.4E1,5E0,3E0,2E0,1E0],"tree_param":{"num_deleted":"0","num_feature":"6","num_nodes":"13","size_leaf_vector":"1"}},{"base_weights":[2.1159321E-2,-1.2423995E-1,1.7617188E0,-1.1569097E0,8.06804E-2,2.5952455E-1,8.0224E-1,-9.8263055E-2,-8.94875E-1,2.8793907E-1,-1.0722268E-2],"categories":[],"categories_nodes":[],"categories_segments":[],"categories_sizes":[],"default_left":[0,0,0,0,0,0,0,0,0,0,0],"id":18,"left_children":[1,3,5,7,9,-1,-1,-1,-1,-1,-1],"loss_changes":[1.6415745E1,1.2790244E1,1.7771797E0,1.4167249E1,5.254046E0,0E0,0E0,0E0,0E0,0E0,0E0],"parents":[2147483647,0,0,1,1,2,2,3,3,4,4],"right_children":[2,4,6,8,10,-1,-1,-1,-1,-1,-1],"split_conditions":[9.4E1,5.397987E1,9.667739E0,1.2250504E1,2.4367025E0,2.5952455E-1,8.0224E-1,-9.8263055E-2,-8.94875E-1,2.8793907E-1,-1.0722268E-2],"split_indices":[2,4,1,1,1,0,0,0,0,0,0],"split_type":[0,0,0,0,0,0,0,0,0,0,0],"sum_hessian":[6.3E1,5.9E1,4E0,9E0,5E1,3E0,1E0,7E0,2E0,5E0,4.5E1],"tree_param":{"num_deleted":"0","num_feature":"6","num_nodes":"11","size_leaf_vector":"1"}},{"base_weights":[2.0216852E-2,-2.3748012E-1,6.9196916E-1,-6.3372976E-1,-1.5079784E-1,4.6526024E-1,6.819031E-1,3.7778188E-2,-1.2989943E-1,3.4928057E-1,6.9693215E-2],"categories":[],"categories_nodes":[],"categories_segments":[],"categories_sizes":[],"default_left":[0,0,0,0,0,0,0,0,0,0,0],"id":19,"left_children":[1,3,5,-1,7,9,-1,-1,-1,-1,-1],"loss_changes":[1.1243275E1,7.3201313E0,5.394308E0,0E0,3.6467533E0,2.4976995E0,0E0,0E0,0E0,0E0,0E0],"parents":[2147483647,0,0,1,1,2,2,4,4,5,5],"right_children":[2,4,6,-1,8,10,-1,-1,-1,-1,-1],"split_conditions":[1.8185616E2,1.5031694E1,2.5131621E2,-6.3372976E-1,2.79819E5,8E1,6.819031E-1,3.7778188E-2,-1.2989943E-1,3.4928057E-1,6.9693215E-2],"split_indices":[3,3,3,0,0,2,0,0,0,0,0],"split_type":[0,0,0,0,0,0,0,0,0,0,0],"sum_hessian":[6.3E1,4.6E1,1.7E1,1E0,4.5E1,1.6E1,1E0,2.3E1,2.2E1,3E0,1.3E1],"tree_param":{"num_deleted":"0","num_feature":"6","num_nodes":"11","size_leaf_vector":"1"}},{"base_weights":[2.0011038E-2,-1.0640376E0,1.5049948E-1,-6.428547E-1,-5.386703E-1,6.743234E-2,4.9527588E-1,-3.9606094E-2,-2.5958005E-1,5.7667352E-2,-1.3816682E-1],"categories":[],"categories_nodes":[],"categories_segments":[],"categories_sizes":[],"default_left":[0,0,0,0,0,0,0,0,0,0,0],"id":20,"left_children":[1,3,5,7,-1,9,-1,-1,-1,-1,-1],"loss_changes":[9.213309E0,1.0024662E0,7.1175394E0,5.674615E-1,0E0,3.778304E0,0E0,0E0,0E0,0E0,0E0],"parents":[2147483647,0,0,1,1,2,2,3,3,5,5],"right_children":[2,4,6,8,-1,10,-1,-1,-1,-1,-1],"split_conditions":[3.6823032E1,4.08128E5,2.4664525E2,2.0760868E1,-5.386703E-1,4.23725E5,4.9527588E-1,-3.9606094E-2,-2.5958005E-1,5.7667352E-2,-1.3816682E-1],"split_indices":[3,0,3,3,0,0,0,0,0,0,0],"split_type":[0,0,0,0,0,0,0,0,0,0,0],"sum_hessian":[6.3E1,6E0,5.7E1,5E0,1E0,5.5E1,2E0,2E0,3E0,4.5E1,1E1],"tree_param":{"num_deleted":"0","num_feature":"6","num_nodes":"11","size_leaf_vector":"1"}}]},"name":"gbtree"},"learner_model_param":{"base_score":"1.4471571E2","boost_from_average":"1","num_class":"0","num_feature":"6","num_target":"1"},"objective":{"name":"reg:squarederror","reg_loss_param":{"scale_pos_weight":"1"}}},"version":[2,1,0]}