{"learner":{"attributes":{"scikit_learn":"{\"_estimator_type\": \"regressor\"}"},"feature_names":[],"feature_types":[],"gradient_booster":{"model":{"gbtree_model_param":{"num_parallel_tree":"1","num_trees":"50"},"iteration_indptr":[0,1,2,3,4,5,6,7,8,9,10,11,12,13,14,15,16,17,18,19,20,21,22,23,24,25,26,27,28,29,30,31,32,33,34,35,36,37,38,39,40,41,42,43,44,45,46,47,48,49,50],"tree_info":[0,0,0,0,0,0,0,0,0,0,0,0,0,0,0,0,0,0,0,0,0,0,0,0,0,0,0,0,0,0,0,0,0,0,0,0,0,0,0,0,0,0,0,0,0,0,0,0,0,0],"trees":[{"base_weights":[-1.05992605E-7,-2.2622144E0,3.1919725E0,-3.2973583E0,-8.988971E-1,1.7861354E0,4.793122E0,-1.1175236E0,-7.892127E-1,-4.6445584E-1,-6.752012E-2,3.234592E-1,7.350281E-1,1.1489035E0,1.6061671E0],"categories":[],"categories_nodes":[],"categories_segments":[],"categories_sizes":[],"default_left":[0,0,0,0,0,0,0,0,0,0,0,0,0,0,0],"id":0,"left_children":[1,3,5,7,9,11,13,-1,-1,-1,-1,-1,-1,-1,-1],"loss_changes":[6.6504727E3,7.576885E2,8.5130396E2,7.7453125E1,1.0202899E2,9.37168E1,7.566382E1,0E0,0E0,0E0,0E0,0E0,0E0,0E0,0E0],"parents":[2147483647,0,0,1,1,2,2,3,3,4,4,5,5,6,6],"right_children":[2,4,6,8,10,12,14,-1,-1,-1,-1,-1,-1,-1,-1],"split_conditions":[2.84468E5,1.65484E5,4.01081E5,9.7103E4,2.26444E5,3.41906E5,4.40286E5,-1.1175236E0,-7.892127E-1,-4.6445584E-1,-6.752012E-2,3.234592E-1,7.350281E-1,1.1489035E0,1.6061671E0],"split_indices":[0,0,0,0,0,0,0,0,0,0,0,0,0,0,0],"split_type":[0,0,0,0,0,0,0,0,0,0,0,0,0,0,0],"sum_hessian":[9.19E2,5.38E2,3.81E2,3.05E2,2.33E2,2.04E2,1.77E2,1.83E2,1.22E2,1.18E2,1.15E2,1E2,1.04E2,6.8E1,1.09E2],"tree_param":{"num_deleted":"0","num_feature":"1","num_nodes":"15","size_leaf_vector":"1"}},{"base_weights":[1.4943717E-3,-1.4699533E0,2.446815E0,-2.2193704E0,-3.4433064E-1,1.544557E0,3.4860363E0,-7.6276654E-1,-4.7526747E-1,-2.3710398E-1,4.8639216E-2,3.3993647E-1,6.39168E-1,8.988846E-1,1.204416E0],"categories":[],"categories_nodes":[],"categories_segments":[],"categories_sizes":[],"default_left":[0,0,0,0,0,0,0,0,0,0,0,0,0,0,0],"id":1,"left_children":[1,3,5,7,9,11,13,-1,-1,-1,-1,-1,-1,-1,-1],"loss_changes":[3.3139053E3,4.8428308E2,3.1904102E2,6.679004E1,5.2308685E1,4.2671997E1,2.9398682E1,0E0,0E0,0E0,0E0,0E0,0E0,0E0,0E0],"parents":[2147483647,0,0,1,1,2,2,3,3,4,4,5,5,6,6],"right_children":[2,4,6,8,10,12,14,-1,-1,-1,-1,-1,-1,-1,-1],"split_conditions":[3.04525E5,1.8505E5,4.15614E5,1.20389E5,2.511E5,3.66217E5,4.65052E5,-7.6276654E-1,-4.7526747E-1,-2.3710398E-1,4.8639216E-2,3.3993647E-1,6.39168E-1,8.988846E-1,1.204416E0],"split_indices":[0,0,0,0,0,0,0,0,0,0,0,0,0,0,0],"split_type":[0,0,0,0,0,0,0,0,0,0,0,0,0,0,0],"sum_hessian":[9.19E2,5.74E2,3.45E2,3.44E2,2.3E2,1.86E2,1.59E2,2.26E2,1.18E2,1.22E2,1.08E2,1.11E2,7.5E1,8.6E1,7.3E1],"tree_param":{"num_deleted":"0","num_feature":"1","num_nodes":"15","size_leaf_vector":"1"}},{"base_weights":[2.8459446E-3,-1.1966338E0,1.4912446E0,-1.7163755E0,-6.229959E-1,6.965669E-1,2.3020642E0,-6.0447645E-1,-4.3058982E-1,-2.8244045E-1,-8.4166415E-2,9.663882E-2,2.9819566E-1,5.726152E-1,8.267697E-1],"categories":[],"categories_nodes":[],"categories_segments":[],"categories_sizes":[],"default_left":[0,0,0,0,0,0,0,0,0,0,0,0,0,0,0],"id":2,"left_children":[1,3,5,7,9,11,13,-1,-1,-1,-1,-1,-1,-1,-1],"loss_changes":[1.6442642E3,1.5098401E2,2.6322034E2,1.951294E1,2.6346016E1,2.2955032E1,3.097815E1,0E0,0E0,0E0,0E0,0E0,0E0,0E0,0E0],"parents":[2147483647,0,0,1,1,2,2,3,3,4,4,5,5,6,6],"right_children":[2,4,6,8,10,12,14,-1,-1,-1,-1,-1,-1,-1,-1],"split_conditions":[2.74675E5,1.46052E5,3.86289E5,6.4519E4,2.06988E5,3.25195E5,4.55548E5,-6.0447645E-1,-4.3058982E-1,-2.8244045E-1,-8.4166415E-2,9.663882E-2,2.9819566E-1,5.726152E-1,8.267697E-1],"split_indices":[0,0,0,0,0,0,0,0,0,0,0,0,0,0,0],"split_type":[0,0,0,0,0,0,0,0,0,0,0,0,0,0,0],"sum_hessian":[9.19E2,5.09E2,4.1E2,2.66E2,2.43E2,2.08E2,2.02E2,1.26E2,1.4E2,1.25E2,1.18E2,9.3E1,1.15E2,1.11E2,9.1E1],"tree_param":{"num_deleted":"0","num_feature":"1","num_nodes":"15","size_leaf_vector":"1"}},{"base_weights":[2.4188384E-3,-7.155568E-1,1.2350425E0,-1.0684084E0,-9.926271E-2,8.240423E-1,1.8204811E0,-4.1534343E-1,-2.5615472E-1,-9.066459E-2,4.2593922E-2,1.5819839E-1,3.165348E-1,4.825829E-1,6.5304124E-1],"categories":[],"categories_nodes":[],"categories_segments":[],"categories_sizes":[],"default_left":[0,0,0,0,0,0,0,0,0,0,0,0,0,0,0],"id":3,"left_children":[1,3,5,7,9,11,13,-1,-1,-1,-1,-1,-1,-1,-1],"loss_changes":[8.1507794E2,1.2645584E2,8.006848E1,2.3909637E1,1.0471552E1,1.3224747E1,6.9921265E0,0E0,0E0,0E0,0E0,0E0,0E0,0E0,0E0],"parents":[2147483647,0,0,1,1,2,2,3,3,4,4,5,5,6,6],"right_children":[2,4,6,8,10,12,14,-1,-1,-1,-1,-1,-1,-1,-1],"split_conditions":[3.12271E5,1.94655E5,4.25126E5,7.8216E4,2.60885E5,3.57941E5,4.78761E5,-4.1534343E-1,-2.5615472E-1,-9.066459E-2,4.2593922E-2,1.5819839E-1,3.165348E-1,4.825829E-1,6.5304124E-1],"split_indices":[0,0,0,0,0,0,0,0,0,0,0,0,0,0,0],"split_type":[0,0,0,0,0,0,0,0,0,0,0,0,0,0,0],"sum_hessian":[9.19E2,5.81E2,3.38E2,3.69E2,2.12E2,2E2,1.38E2,1.47E2,2.22E2,1.15E2,9.7E1,8.9E1,1.11E2,9E1,4.8E1],"tree_param":{"num_deleted":"0","num_feature":"1","num_nodes":"15","size_leaf_vector":"1"}},{"base_weights":[2.661425E-3,-5.2047896E-1,8.405652E-1,-8.413759E-1,-1.8855469E-1,4.021692E-1,1.1392646E0,-3.2586974E-1,-2.1952581E-1,-1.0790441E-1,1.379766E-2,7.2646156E-2,1.4293209E-1,2.9690728E-1,4.4901118E-1],"categories":[],"categories_nodes":[],"categories_segments":[],"categories_sizes":[],"default_left":[0,0,0,0,0,0,0,0,0,0,0,0,0,0,0],"id":4,"left_children":[1,3,5,7,9,11,13,-1,-1,-1,-1,-1,-1,-1,-1],"loss_changes":[4.037115E2,6.0234512E1,4.589763E1,6.935623E0,1.1254969E1,1.6078815E0,9.746094E0,0E0,0E0,0E0,0E0,0E0,0E0,0E0,0E0],"parents":[2147483647,0,0,1,1,2,2,3,3,4,4,5,5,6,6],"right_children":[2,4,6,8,10,12,14,-1,-1,-1,-1,-1,-1,-1,-1],"split_conditions":[2.97215E5,1.5364E5,3.81053E5,4.5814E4,2.389E5,3.30621E5,4.74111E5,-3.2586974E-1,-2.1952581E-1,-1.0790441E-1,1.379766E-2,7.2646156E-2,1.4293209E-1,2.9690728E-1,4.4901118E-1],"split_indices":[0,0,0,0,0,0,0,0,0,0,0,0,0,0,0],"split_type":[0,0,0,0,0,0,0,0,0,0,0,0,0,0,0],"sum_hessian":[9.19E2,5.66E2,3.53E2,2.87E2,2.79E2,1.44E2,2.09E2,8.6E1,2.01E2,1.61E2,1.18E2,4.7E1,9.7E1,1.5E2,5.9E1],"tree_param":{"num_deleted":"0","num_feature":"1","num_nodes":"15","size_leaf_vector":"1"}},{"base_weights":[2.2130043E-3,-4.281033E-1,5.110415E-1,-6.355692E-1,-2.2709449E-1,2.9503667E-1,9.048286E-1,-2.4455683E-1,-1.7147724E-1,-9.281868E-2,-2.6954219E-2,4.974485E-2,1.4413932E-1,2.4394393E-1,3.5406536E-1],"categories":[],"categories_nodes":[],"categories_segments":[],"categories_sizes":[],"default_left":[0,0,0,0,0,0,0,0,0,0,0,0,0,0,0],"id":5,"left_children":[1,3,5,7,9,11,13,-1,-1,-1,-1,-1,-1,-1,-1],"loss_changes":[2.016594E2,2.06652E1,3.5628326E1,2.3495407E0,2.8525763E0,6.4856625E0,2.8023148E0,0E0,0E0,0E0,0E0,0E0,0E0,0E0,0E0],"parents":[2147483647,0,0,1,1,2,2,3,3,4,4,5,5,6,6],"right_children":[2,4,6,8,10,12,14,-1,-1,-1,-1,-1,-1,-1,-1],"split_conditions":[2.68266E5,1.36056E5,4.20245E5,3.5017E4,2.12081E5,3.52379E5,4.87293E5,-2.4455683E-1,-1.7147724E-1,-9.281868E-2,-2.6954219E-2,4.974485E-2,1.4413932E-1,2.4394393E-1,3.5406536E-1],"split_indices":[0,0,0,0,0,0,0,0,0,0,0,0,0,0,0],"split_type":[0,0,0,0,0,0,0,0,0,0,0,0,0,0,0],"sum_hessian":[9.19E2,4.98E2,4.21E2,2.44E2,2.54E2,2.73E2,1.48E2,6.1E1,1.83E2,1.58E2,9.6E1,1.62E2,1.11E2,1.14E2,3.4E1],"tree_param":{"num_deleted":"0","num_feature":"1","num_nodes":"15","size_leaf_vector":"1"}},{"base_weights":[1.8274086E-3,-2.4742803E-1,4.4402507E-1,-3.9583296E-1,-5.6812365E-2,3.005681E-1,6.822387E-1,-1.5864256E-1,-9.871827E-2,-4.5670953E-2,6.135484E-3,6.464481E-2,1.2071087E-1,1.8779287E-1,2.6717505E-1],"categories":[],"categories_nodes":[],"categories_segments":[],"categories_sizes":[],"default_left":[0,0,0,0,0,0,0,0,0,0,0,0,0,0,0],"id":6,"left_children":[1,3,5,7,9,11,13,-1,-1,-1,-1,-1,-1,-1,-1],"loss_changes":[1.0151243E2,1.663932E1,1.1140511E1,2.7649612E0,1.9126813E0,1.7236156E0,8.960495E-1,0E0,0E0,0E0,0E0,0E0,0E0,0E0,0E0],"parents":[2147483647,0,0,1,1,2,2,3,3,4,4,5,5,6,6],"right_children":[2,4,6,8,10,12,14,-1,-1,-1,-1,-1,-1,-1,-1],"split_conditions":[3.18386E5,1.7593E5,4.31409E5,5.4284E4,2.36961E5,3.74634E5,4.9078E5,-1.5864256E-1,-9.871827E-2,-4.5670953E-2,6.135484E-3,6.464481E-2,1.2071087E-1,1.8779287E-1,2.6717505E-1],"split_indices":[0,0,0,0,0,0,0,0,0,0,0,0,0,0,0],"split_type":[0,0,0,0,0,0,0,0,0,0,0,0,0,0,0],"sum_hessian":[9.19E2,5.88E2,3.31E2,3.3E2,2.58E2,2.08E2,1.23E2,1.08E2,2.22E2,1.15E2,1.43E2,1.15E2,9.3E1,1E2,2.3E1],"tree_param":{"num_deleted":"0","num_feature":"1","num_nodes":"15","size_leaf_vector":"1"}},{"base_weights":[1.6524978E-3,-1.7370369E-1,3.127463E-1,-3.218656E-1,-6.798376E-2,2.12924E-1,4.8505685E-1,-1.334448E-1,-8.713016E-2,-4.2330217E-2,-5.2798594E-5,4.4536673E-2,8.469168E-2,1.3061497E-1,1.8456784E-1],"categories":[],"categories_nodes":[],"categories_segments":[],"categories_sizes":[],"default_left":[0,0,0,0,0,0,0,0,0,0,0,0,0,0,0],"id":7,"left_children":[1,3,5,7,9,11,13,-1,-1,-1,-1,-1,-1,-1,-1],"loss_changes":[5.0242367E1,9.20402E0,5.6072655E0,8.1762505E-1,1.7104495E0,9.063492E-1,5.1452637E-1,0E0,0E0,0E0,0E0,0E0,0E0,0E0,0E0],"parents":[2147483647,0,0,1,1,2,2,3,3,4,4,5,5,6,6],"right_children":[2,4,6,8,10,12,14,-1,-1,-1,-1,-1,-1,-1,-1],"split_conditions":[3.18386E5,1.36056E5,4.35492E5,2.4317E4,2.17124E5,3.7266E5,4.88308E5,-1.334448E-1,-8.713016E-2,-4.2330217E-2,-5.2798594E-5,4.4536673E-2,8.469168E-2,1.3061497E-1,1.8456784E-1],"split_indices":[0,0,0,0,0,0,0,0,0,0,0,0,0,0,0],"split_type":[0,0,0,0,0,0,0,0,0,0,0,0,0,0,0],"sum_hessian":[9.19E2,5.88E2,3.31E2,2.44E2,3.44E2,2.11E2,1.2E2,4.7E1,1.97E2,1.65E2,1.79E2,1.11E2,1E2,9E1,3E1],"tree_param":{"num_deleted":"0","num_feature":"1","num_nodes":"15","size_leaf_vector":"1"}},{"base_weights":[1.3540094E-3,-1.5044244E-1,1.8401492E-1,-2.2771658E-1,-7.906026E-2,1.1458175E-1,3.3525717E-1,-9.7455665E-2,-6.2030982E-2,-3.3179317E-2,-1.2679436E-2,2.3447026E-2,5.7773102E-2,8.7392464E-2,1.2643537E-1],"categories":[],"categories_nodes":[],"categories_segments":[],"categories_sizes":[],"default_left":[0,0,0,0,0,0,0,0,0,0,0,0,0,0,0],"id":8,"left_children":[1,3,5,7,9,11,13,-1,-1,-1,-1,-1,-1,-1,-1],"loss_changes":[2.5536777E1,2.7565432E0,4.3511E0,4.231844E-1,3.0052018E-1,8.0314994E-1,3.7347412E-1,0E0,0E0,0E0,0E0,0E0,0E0,0E0,0E0],"parents":[2147483647,0,0,1,1,2,2,3,3,4,4,5,5,6,6],"right_children":[2,4,6,8,10,12,14,-1,-1,-1,-1,-1,-1,-1,-1],"split_conditions":[2.69229E5,1.2973E5,4.28731E5,2.22E4,1.99854E5,3.7266E5,4.82714E5,-9.7455665E-2,-6.2030982E-2,-3.3179317E-2,-1.2679436E-2,2.3447026E-2,5.7773102E-2,8.7392464E-2,1.2643537E-1],"split_indices":[0,0,0,0,0,0,0,0,0,0,0,0,0,0,0],"split_type":[0,0,0,0,0,0,0,0,0,0,0,0,0,0,0],"sum_hessian":[9.19E2,5.02E2,4.17E2,2.4E2,2.62E2,2.87E2,1.3E2,4E1,2E2,1.4E2,1.22E2,1.97E2,9E1,8.9E1,4.1E1],"tree_param":{"num_deleted":"0","num_feature":"1","num_nodes":"15","size_leaf_vector":"1"}},{"base_weights":[1.0452692E-3,-8.6551614E-2,1.5941083E-1,-1.5911584E-1,-3.536312E-2,1.1045744E-1,2.4224469E-1,-6.2998E-2,-4.101827E-2,-1.8388826E-2,4.39093E-3,2.502193E-2,4.271301E-2,6.50072E-2,1.0094902E-1],"categories":[],"categories_nodes":[],"categories_segments":[],"categories_sizes":[],"default_left":[0,0,0,0,0,0,0,0,0,0,0,0,0,0,0],"id":9,"left_children":[1,3,5,7,9,11,13,-1,-1,-1,-1,-1,-1,-1,-1],"loss_changes":[1.27763405E1,2.197044E0,1.3032818E0,2.5035763E-1,4.534234E-1,1.6772199E-1,2.1851492E-1,0E0,0E0,0E0,0E0,0E0,0E0,0E0,0E0],"parents":[2147483647,0,0,1,1,2,2,3,3,4,4,5,5,6,6],"right_children":[2,4,6,8,10,12,14,-1,-1,-1,-1,-1,-1,-1,-1],"split_conditions":[3.20618E5,1.36056E5,4.35492E5,3.8609E4,2.54631E5,3.76384E5,4.9078E5,-6.2998E-2,-4.101827E-2,-1.8388826E-2,4.39093E-3,2.502193E-2,4.271301E-2,6.50072E-2,1.0094902E-1],"split_indices":[0,0,0,0,0,0,0,0,0,0,0,0,0,0,0],"split_type":[0,0,0,0,0,0,0,0,0,0,0,0,0,0,0],"sum_hessian":[9.19E2,5.92E2,3.27E2,2.44E2,3.48E2,2.07E2,1.2E2,7.2E1,1.72E2,2.29E2,1.19E2,1.14E2,9.3E1,9.7E1,2.3E1],"tree_param":{"num_deleted":"0","num_feature":"1","num_nodes":"15","size_leaf_vector":"1"}},{"base_weights":[8.573984E-4,-7.2625615E-2,9.4891705E-2,-1.2039238E-1,-4.0854525E-2,5.2422207E-2,1.5484889E-1,-5.5883598E-2,-3.256351E-2,-1.8122299E-2,-4.6310876E-3,6.6358293E-3,2.2732712E-2,4.042788E-2,6.585013E-2],"categories":[],"categories_nodes":[],"categories_segments":[],"categories_sizes":[],"default_left":[0,0,0,0,0,0,0,0,0,0,0,0,0,0,0],"id":10,"left_children":[1,3,5,7,9,11,13,-1,-1,-1,-1,-1,-1,-1,-1],"loss_changes":[6.3640223E0,7.796817E-1,1.0206084E0,1.4057946E-1,1.5412945E-1,1.6675073E-1,1.8732023E-1,0E0,0E0,0E0,0E0,0E0,0E0,0E0,0E0],"parents":[2147483647,0,0,1,1,2,2,3,3,4,4,5,5,6,6],"right_children":[2,4,6,8,10,12,14,-1,-1,-1,-1,-1,-1,-1,-1],"split_conditions":[2.78379E5,1.10058E5,4.09769E5,1.7907E4,1.99854E5,3.32333E5,4.84815E5,-5.5883598E-2,-3.256351E-2,-1.8122299E-2,-4.6310876E-3,6.6358293E-3,2.2732712E-2,4.042788E-2,6.585013E-2],"split_indices":[0,0,0,0,0,0,0,0,0,0,0,0,0,0,0],"split_type":[0,0,0,0,0,0,0,0,0,0,0,0,0,0,0],"sum_hessian":[9.19E2,5.16E2,4.03E2,2.05E2,3.11E2,2.37E2,1.66E2,2.9E1,1.76E2,1.75E2,1.36E2,1.04E2,1.33E2,1.29E2,3.7E1],"tree_param":{"num_deleted":"0","num_feature":"1","num_nodes":"15","size_leaf_vector":"1"}},{"base_weights":[6.2672346E-4,-5.414681E-2,6.344246E-2,-8.470401E-2,-3.2025103E-2,3.871691E-2,1.2128368E-1,-2.2871409E-2,-4.4624746E-2,-1.271651E-2,-4.636212E-3,4.334405E-3,1.7018957E-2,3.3403404E-2,6.822882E-2],"categories":[],"categories_nodes":[],"categories_segments":[],"categories_sizes":[],"default_left":[0,0,0,0,0,0,0,0,0,0,0,0,0,0,0],"id":11,"left_children":[1,3,5,7,9,11,13,-1,-1,-1,-1,-1,-1,-1,-1],"loss_changes":[3.1688242E0,3.298682E-1,6.088412E-1,1.00354075E-1,4.863152E-2,1.3120091E-1,1.09714866E-1,0E0,0E0,0E0,0E0,0E0,0E0,0E0,0E0],"parents":[2147483647,0,0,1,1,2,2,3,3,4,4,5,5,6,6],"right_children":[2,4,6,8,10,12,14,-1,-1,-1,-1,-1,-1,-1,-1],"split_conditions":[2.64913E5,1.10058E5,4.3001E5,9.7103E4,1.99854E5,3.32333E5,4.95681E5,-2.2871409E-2,-4.4624746E-2,-1.271651E-2,-4.636212E-3,4.334405E-3,1.7018957E-2,3.3403404E-2,6.822882E-2],"split_indices":[0,0,0,0,0,0,0,0,0,0,0,0,0,0,0],"split_type":[0,0,0,0,0,0,0,0,0,0,0,0,0,0,0],"sum_hessian":[9.19E2,4.91E2,4.28E2,2.05E2,2.86E2,3.01E2,1.27E2,1.83E2,2.2E1,1.75E2,1.11E2,1.29E2,1.72E2,1.18E2,9E0],"tree_param":{"num_deleted":"0","num_feature":"1","num_nodes":"15","size_leaf_vector":"1"}},{"base_weights":[4.8019603E-4,-3.2471437E-2,5.2536894E-2,-6.8348296E-2,-1.8341165E-2,3.4537677E-2,8.735737E-2,-3.599631E-2,-1.7754003E-2,1.1827512E-2,-6.670523E-3,5.60768E-3,1.3790171E-2,2.3866089E-2,4.9807064E-2],"categories":[],"categories_nodes":[],"categories_segments":[],"categories_sizes":[],"default_left":[0,0,0,0,0,0,0,0,0,0,0,0,0,0,0],"id":12,"left_children":[1,3,5,7,9,11,13,-1,-1,-1,-1,-1,-1,-1,-1],"loss_changes":[1.5798309E0,2.8466606E-1,2.2072953E-1,6.8176866E-2,9.22008E-2,4.206291E-2,6.1072946E-2,0E0,0E0,0E0,0E0,0E0,0E0,0E0,0E0],"parents":[2147483647,0,0,1,1,2,2,3,3,4,4,5,5,6,6],"right_children":[2,4,6,8,10,12,14,-1,-1,-1,-1,-1,-1,-1,-1],"split_conditions":[2.95352E5,8.4695E4,4.35492E5,1.2585E4,9.7103E4,3.5339E5,4.95681E5,-3.599631E-2,-1.7754003E-2,1.1827512E-2,-6.670523E-3,5.60768E-3,1.3790171E-2,2.3866089E-2,4.9807064E-2],"split_indices":[0,0,0,0,0,0,0,0,0,0,0,0,0,0,0],"split_type":[0,0,0,0,0,0,0,0,0,0,0,0,0,0,0],"sum_hessian":[9.19E2,5.63E2,3.56E2,1.58E2,4.05E2,2.36E2,1.2E2,2.2E1,1.36E2,2.5E1,3.8E2,1E2,1.36E2,1.11E2,9E0],"tree_param":{"num_deleted":"0","num_feature":"1","num_nodes":"15","size_leaf_vector":"1"}},{"base_weights":[3.8452315E-4,-2.7983159E-2,3.291719E-2,-4.4659425E-2,-1.5612304E-2,1.4562748E-2,5.1289354E-2,-1.1301445E-2,-2.7718471E-2,-6.918141E-3,-1.3398638E-3,1.4088842E-2,1.3562362E-3,1.3508601E-2,2.969308E-2],"categories":[],"categories_nodes":[],"categories_segments":[],"categories_sizes":[],"default_left":[0,0,0,0,0,0,0,0,0,0,0,0,0,0,0],"id":13,"left_children":[1,3,5,7,9,11,13,-1,-1,-1,-1,-1,-1,-1,-1],"loss_changes":[8.4996736E-1,1.0080218E-1,1.4391652E-1,6.623608E-2,2.3474112E-2,7.0065476E-2,5.9434414E-2,0E0,0E0,0E0,0E0,0E0,0E0,0E0,0E0],"parents":[2147483647,0,0,1,1,2,2,3,3,4,4,5,5,6,6],"right_children":[2,4,6,8,10,12,14,-1,-1,-1,-1,-1,-1,-1,-1],"split_conditions":[2.64913E5,1.10844E5,3.76384E5,9.7103E4,1.98301E5,2.85124E5,4.9078E5,-1.1301445E-2,-2.7718471E-2,-6.918141E-3,-1.3398638E-3,1.4088842E-2,1.3562362E-3,1.3508601E-2,2.969308E-2],"split_indices":[0,0,0,0,0,0,0,0,0,0,0,0,0,0,0],"split_type":[0,0,0,0,0,0,0,0,0,0,0,0,0,0,0],"sum_hessian":[9.19E2,4.91E2,4.28E2,2.08E2,2.83E2,2.15E2,2.13E2,1.83E2,2.5E1,1.69E2,1.14E2,5E1,1.65E2,1.9E2,2.3E1],"tree_param":{"num_deleted":"0","num_feature":"1","num_nodes":"15","size_leaf_vector":"1"}},{"base_weights":[2.8154106E-4,-1.8825276E-2,2.4731893E-2,-5.613868E-2,-1.4352138E-2,1.5887603E-2,4.5285996E-2,-2.56952E-2,-1.2879126E-2,-5.931712E-3,-1.1291648E-3,2.0061642E-2,3.2124368E-3,1.2445653E-2,3.3364344E-2],"categories":[],"categories_nodes":[],"categories_segments":[],"categories_sizes":[],"default_left":[0,0,0,0,0,0,0,0,0,0,0,0,0,0,0],"id":14,"left_children":[1,3,5,7,9,11,13,-1,-1,-1,-1,-1,-1,-1,-1],"loss_changes":[4.302605E-1,8.548571E-2,7.2722256E-2,1.7762095E-2,2.6497543E-2,7.428078E-2,2.5704041E-2,0E0,0E0,0E0,0E0,0E0,0E0,0E0,0E0],"parents":[2147483647,0,0,1,1,2,2,3,3,4,4,5,5,6,6],"right_children":[2,4,6,8,10,12,14,-1,-1,-1,-1,-1,-1,-1,-1],"split_conditions":[2.78379E5,2.9043E4,4.35492E5,8.718E3,1.90674E5,2.85124E5,4.97896E5,-2.56952E-2,-1.2879126E-2,-5.931712E-3,-1.1291648E-3,2.0061642E-2,3.2124368E-3,1.2445653E-2,3.3364344E-2],"split_indices":[0,0,0,0,0,0,0,0,0,0,0,0,0,0,0],"split_type":[0,0,0,0,0,0,0,0,0,0,0,0,0,0,0],"sum_hessian":[9.19E2,5.16E2,4.03E2,5.4E1,4.62E2,2.83E2,1.2E2,1.5E1,3.9E1,3.05E2,1.57E2,2.5E1,2.58E2,1.15E2,5E0],"tree_param":{"num_deleted":"0","num_feature":"1","num_nodes":"15","size_leaf_vector":"1"}},{"base_weights":[2.226025E-4,-1.2256299E-2,2.1948598E-2,-3.3114307E-2,-7.83528E-3,1.8249616E-2,4.7406968E-2,-1.8468425E-2,-8.25061E-3,-1.5263322E-3,-1.0558413E-2,1.116831E-2,4.1528377E-3,1.2086167E-2,2.502327E-2],"categories":[],"categories_nodes":[],"categories_segments":[],"categories_sizes":[],"default_left":[0,0,0,0,0,0,0,0,0,0,0,0,0,0,0],"id":15,"left_children":[1,3,5,7,9,11,13,-1,-1,-1,-1,-1,-1,-1,-1],"loss_changes":[2.4969624E-1,5.3685524E-2,3.0775994E-2,1.4591537E-2,3.6203317E-2,2.4156414E-2,7.4058324E-3,0E0,0E0,0E0,0E0,0E0,0E0,0E0,0E0],"parents":[2147483647,0,0,1,1,2,2,3,3,4,4,5,5,6,6],"right_children":[2,4,6,8,10,12,14,-1,-1,-1,-1,-1,-1,-1,-1],"split_conditions":[3.14984E5,5.1844E4,4.82714E5,8.718E3,2.85124E5,3.41906E5,4.97896E5,-1.8468425E-2,-8.25061E-3,-1.5263322E-3,-1.0558413E-2,1.116831E-2,4.1528377E-3,1.2086167E-2,2.502327E-2],"split_indices":[0,0,0,0,0,0,0,0,0,0,0,0,0,0,0],"split_type":[0,0,0,0,0,0,0,0,0,0,0,0,0,0,0],"sum_hessian":[9.19E2,5.84E2,3.35E2,1.01E2,4.83E2,2.94E2,4.1E1,1.5E1,8.6E1,4.4E2,4.3E1,5.4E1,2.4E2,3.6E1,5E0],"tree_param":{"num_deleted":"0","num_feature":"1","num_nodes":"15","size_leaf_vector":"1"}},{"base_weights":[1.7061338E-4,-7.7021443E-3,1.9762399E-2,-5.6546386E-3,-7.615762E-2,1.8020697E-2,1.5601335E-2,-2.4811893E-3,3.1116601E-2,-3.435999E-2,-1.3268209E-2,1.2039742E-2,4.4895625E-3],"categories":[],"categories_nodes":[],"categories_segments":[],"categories_sizes":[],"default_left":[0,0,0,0,0,0,0,0,0,0,0,0,0],"id":16,"left_children":[1,3,5,7,9,11,-1,-1,-1,-1,-1,-1,-1],"loss_changes":[1.4205429E-1,9.165643E-2,1.3888039E-2,1.836939E-1,1.8216059E-2,1.642511E-2,0E0,0E0,0E0,0E0,0E0,0E0,0E0],"parents":[2147483647,0,0,1,1,2,2,3,3,4,4,5,5],"right_children":[2,4,6,8,10,12,-1,-1,-1,-1,-1,-1,-1],"split_conditions":[3.48373E5,3.41906E5,4.94428E5,3.34288E5,3.45818E5,3.66217E5,1.5601335E-2,-2.4811893E-3,3.1116601E-2,-3.435999E-2,-1.3268209E-2,1.2039742E-2,4.4895625E-3],"split_indices":[0,0,0,0,0,0,0,0,0,0,0,0,0],"split_type":[0,0,0,0,0,0,0,0,0,0,0,0,0],"sum_hessian":[9.19E2,6.56E2,2.63E2,6.38E2,1.8E1,2.51E2,1.2E1,6.24E2,1.4E1,7E0,1.1E1,2.9E1,2.22E2],"tree_param":{"num_deleted":"0","num_feature":"1","num_nodes":"13","size_leaf_vector":"1"}},{"base_weights":[1.3365482E-4,-1.1238073E-2,8.156793E-3,-7.396724E-3,-2.6556686E-2,3.8124498E-2,5.487304E-3,-3.3897543E-3,2.6746523E-2,-3.325248E-2,-3.1763497E-3,2.1952305E-3,3.5900064E-2,-3.0949492E-2,2.7247902E-3],"categories":[],"categories_nodes":[],"categories_segments":[],"categories_sizes":[],"default_left":[0,0,0,0,0,0,0,0,0,0,0,0,0,0,0],"id":17,"left_children":[1,3,5,7,9,11,13,-1,-1,-1,-1,-1,-1,-1,-1],"loss_changes":[8.4029645E-2,2.2223182E-2,4.2989958E-2,1.16304874E-1,1.0111736E-1,1.0965592E-1,1.9508548E-1,0E0,0E0,0E0,0E0,0E0,0E0,0E0,0E0],"parents":[2147483647,0,0,1,1,2,2,3,3,4,4,5,5,6,6],"right_children":[2,4,6,8,10,12,14,-1,-1,-1,-1,-1,-1,-1,-1],"split_conditions":[1.99854E5,1.65484E5,2.26444E5,1.59082E5,1.71142E5,2.19438E5,2.34111E5,-3.3897543E-3,2.6746523E-2,-3.325248E-2,-3.1763497E-3,2.1952305E-3,3.5900064E-2,-3.0949492E-2,2.7247902E-3],"split_indices":[0,0,0,0,0,0,0,0,0,0,0,0,0,0,0],"split_type":[0,0,0,0,0,0,0,0,0,0,0,0,0,0,0],"sum_hessian":[9.19E2,3.8E2,5.39E2,3.05E2,7.5E1,4.3E1,4.96E2,2.94E2,1.1E1,1.1E1,6.4E1,3.2E1,1.1E1,1.5E1,4.81E2],"tree_param":{"num_deleted":"0","num_feature":"1","num_nodes":"15","size_leaf_vector":"1"}},{"base_weights":[9.014952E-5,-3.9632926E-3,1.3481241E-2,-1.5181175E-2,-6.0094724E-4,7.188886E-2,9.033263E-3,-3.635296E-3,-1.2770984E-2,1.9775089E-2,-1.0177612E-3,6.025017E-3,6.279992E-2,-2.6068402E-2,4.044851E-3],"categories":[],"categories_nodes":[],"categories_segments":[],"categories_sizes":[],"default_left":[0,0,0,0,0,0,0,0,0,0,0,0,0,0,0],"id":18,"left_children":[1,3,5,7,9,11,13,-1,-1,-1,-1,-1,-1,-1,-1],"loss_changes":[4.999104E-2,2.6657782E-2,5.494691E-2,1.3160851E-2,1.01425074E-1,1.0260131E-1,8.653927E-2,0E0,0E0,0E0,0E0,0E0,0E0,0E0,0E0],"parents":[2147483647,0,0,1,1,2,2,3,3,4,4,5,5,6,6],"right_children":[2,4,6,8,10,12,14,-1,-1,-1,-1,-1,-1,-1,-1],"split_conditions":[3.76384E5,8.7326E4,3.87971E5,7.8216E4,9.7103E4,3.86289E5,3.90768E5,-3.635296E-3,-1.2770984E-2,1.9775089E-2,-1.0177612E-3,6.025017E-3,6.279992E-2,-2.6068402E-2,4.044851E-3],"split_indices":[0,0,0,0,0,0,0,0,0,0,0,0,0,0,0],"split_type":[0,0,0,0,0,0,0,0,0,0,0,0,0,0,0],"sum_hessian":[9.19E2,7.06E2,2.13E2,1.62E2,5.44E2,1.4E1,1.99E2,1.47E2,1.5E1,2.1E1,5.23E2,1.1E1,3E0,8E0,1.91E2],"tree_param":{"num_deleted":"0","num_feature":"1","num_nodes":"15","size_leaf_vector":"1"}},{"base_weights":[1.1654475E-4,-9.580899E-3,3.5532617E-3,-5.8783516E-3,-6.497406E-2,5.5351086E-2,2.8542532E-3,-2.6520258E-3,2.2891242E-2,-2.7571032E-2,-8.97688E-3,-5.362916E-4,3.0425878E-2,-9.6910924E-5,2.8967268E-3],"categories":[],"categories_nodes":[],"categories_segments":[],"categories_sizes":[],"default_left":[0,0,0,0,0,0,0,0,0,0,0,0,0,0,0],"id":19,"left_children":[1,3,5,7,9,11,13,-1,-1,-1,-1,-1,-1,-1,-1],"loss_changes":[3.0695224E-2,4.904615E-2,2.446285E-2,5.5926945E-2,1.14085525E-2,2.3871966E-2,1.4525272E-2,0E0,0E0,0E0,0E0,0E0,0E0,0E0,0E0],"parents":[2147483647,0,0,1,1,2,2,3,3,4,4,5,5,6,6],"right_children":[2,4,6,8,10,12,14,-1,-1,-1,-1,-1,-1,-1,-1],"split_conditions":[1.2973E5,1.20389E5,1.37248E5,1.14804E5,1.26073E5,1.36056E5,3.76384E5,-2.6520258E-3,2.2891242E-2,-2.7571032E-2,-8.97688E-3,-5.362916E-4,3.0425878E-2,-9.6910924E-5,2.8967268E-3],"split_indices":[0,0,0,0,0,0,0,0,0,0,0,0,0,0,0],"split_type":[0,0,0,0,0,0,0,0,0,0,0,0,0,0,0],"sum_hessian":[9.19E2,2.4E2,6.79E2,2.26E2,1.4E1,8E0,6.71E2,2.19E2,7E0,7E0,7E0,4E0,4E0,4.58E2,2.13E2],"tree_param":{"num_deleted":"0","num_feature":"1","num_nodes":"15","size_leaf_vector":"1"}},{"base_weights":[9.940297E-5,-2.6754038E-2,9.1030175E-4,-1.1024682E-2,-5.2757207E-3,-2.2679141E-3,5.396757E-3,2.0443002E-4,-5.1333558E-2,4.8844423E-2,1.101308E-3],"categories":[],"categories_nodes":[],"categories_segments":[],"categories_sizes":[],"default_left":[0,0,0,0,0,0,0,0,0,0,0],"id":20,"left_children":[1,3,5,-1,-1,7,9,-1,-1,-1,-1],"loss_changes":[2.0057745E-2,1.8279217E-3,1.2759717E-2,0E0,0E0,2.6105782E-1,1.00188516E-1,0E0,0E0,0E0,0E0],"parents":[2147483647,0,0,1,1,2,2,5,5,6,6],"right_children":[2,4,6,-1,-1,8,10,-1,-1,-1,-1],"split_conditions":[1.3733E4,4.294E3,2.88946E5,-1.1024682E-2,-5.2757207E-3,2.85124E5,2.90985E5,2.0443002E-4,-5.1333558E-2,4.8844423E-2,1.101308E-3],"split_indices":[0,0,0,0,0,0,0,0,0,0,0],"split_type":[0,0,0,0,0,0,0,0,0,0,0],"sum_hessian":[9.19E2,2.6E1,8.93E2,1.1E1,1.5E1,5.23E2,3.7E2,5.15E2,8E0,3E0,3.67E2],"tree_param":{"num_deleted":"0","num_feature":"1","num_nodes":"11","size_leaf_vector":"1"}},{"base_weights":[5.0511542E-5,-4.7281277E-3,3.4220135E-3,-1.3740188E-3,-1.8170618E-2,2.844261E-2,1.200025E-3,-1.0833071E-3,2.4721734E-2,-2.2121316E-2,-1.3301668E-3,3.1142428E-3,3.2526936E-2,-2.7114034E-2,1.0376382E-3],"categories":[],"categories_nodes":[],"categories_segments":[],"categories_sizes":[],"default_left":[0,0,0,0,0,0,0,0,0,0,0,0,0,0,0],"id":21,"left_children":[1,3,5,7,9,11,13,-1,-1,-1,-1,-1,-1,-1,-1],"loss_changes":[1.4838476E-2,1.7153397E-2,2.9987428E-2,5.7646796E-2,5.7684615E-2,6.2436525E-2,1.0312121E-1,0E0,0E0,0E0,0E0,0E0,0E0,0E0,0E0],"parents":[2147483647,0,0,1,1,2,2,3,3,4,4,5,5,6,6],"right_children":[2,4,6,8,10,12,14,-1,-1,-1,-1,-1,-1,-1,-1],"split_conditions":[1.99854E5,1.65484E5,2.26444E5,1.60875E5,1.72257E5,2.21584E5,2.32527E5,-1.0833071E-3,2.4721734E-2,-2.2121316E-2,-1.3301668E-3,3.1142428E-3,3.2526936E-2,-2.7114034E-2,1.0376382E-3],"split_indices":[0,0,0,0,0,0,0,0,0,0,0,0,0,0,0],"split_type":[0,0,0,0,0,0,0,0,0,0,0,0,0,0,0],"sum_hessian":[9.19E2,3.8E2,5.39E2,3.05E2,7.5E1,4.3E1,4.96E2,2.98E2,7E0,1.4E1,6.1E1,3.6E1,7E0,1.1E1,4.85E2],"tree_param":{"num_deleted":"0","num_feature":"1","num_nodes":"15","size_leaf_vector":"1"}},{"base_weights":[4.597252E-5,-6.6800794E-4,1.4987469E-2,1.04030696E-4,-2.0463424E-2,1.0571738E-2,1.191597E-2,-1.5699789E-4,1.9789053E-2,-2.7522149E-2,6.765109E-4,5.656392E-3,-8.500481E-4],"categories":[],"categories_nodes":[],"categories_segments":[],"categories_sizes":[],"default_left":[0,0,0,0,0,0,0,0,0,0,0,0,0],"id":22,"left_children":[1,3,5,7,9,11,-1,-1,-1,-1,-1,-1,-1],"loss_changes":[9.824513E-3,1.3435733E-2,4.166985E-3,3.5030358E-2,5.364395E-2,4.16169E-3,0E0,0E0,0E0,0E0,0E0,0E0,0E0],"parents":[2147483647,0,0,1,1,2,2,3,3,4,4,5,5],"right_children":[2,4,6,8,10,12,-1,-1,-1,-1,-1,-1,-1],"split_conditions":[4.82714E5,4.65052E5,4.97896E5,4.61119E5,4.69755E5,4.91658E5,1.191597E-2,-1.5699789E-4,1.9789053E-2,-2.7522149E-2,6.765109E-4,5.656392E-3,-8.500481E-4],"split_indices":[0,0,0,0,0,0,0,0,0,0,0,0,0],"split_type":[0,0,0,0,0,0,0,0,0,0,0,0,0],"sum_hessian":[9.19E2,8.78E2,4.1E1,8.46E2,3.2E1,3.6E1,5E0,8.39E2,7E0,7E0,2.5E1,2.2E1,1.4E1],"tree_param":{"num_deleted":"0","num_feature":"1","num_nodes":"13","size_leaf_vector":"1"}},{"base_weights":[4.249226E-5,-2.1790875E-2,5.023498E-4,-7.6518105E-3,-4.048283E-3,1.792846E-4,2.2581248E-2,-1.2546894E-3,3.942459E-4,4.3056607E-3,8.93693E-3],"categories":[],"categories_nodes":[],"categories_segments":[],"categories_sizes":[],"default_left":[0,0,0,0,0,0,0,0,0,0,0],"id":23,"left_children":[1,3,5,-1,-1,7,9,-1,-1,-1,-1],"loss_changes":[9.247966E-3,2.4145469E-4,6.4298483E-3,0E0,0E0,4.4108373E-3,3.4360122E-4,0E0,0E0,0E0,0E0],"parents":[2147483647,0,0,1,1,2,2,5,5,6,6],"right_children":[2,4,6,-1,-1,8,10,-1,-1,-1,-1],"split_conditions":[1.1065E4,4.294E3,4.94428E5,-7.6518105E-3,-4.048283E-3,1.07104E5,4.97896E5,-1.2546894E-3,3.942459E-4,4.3056607E-3,8.93693E-3],"split_indices":[0,0,0,0,0,0,0,0,0,0,0],"split_type":[0,0,0,0,0,0,0,0,0,0,0],"sum_hessian":[9.19E2,1.8E1,9.01E2,1.1E1,7E0,8.89E2,1.2E1,1.83E2,7.06E2,7E0,5E0],"tree_param":{"num_deleted":"0","num_feature":"1","num_nodes":"11","size_leaf_vector":"1"}},{"base_weights":[3.049164E-5,-9.5496345E-3,6.3889404E-4,-5.5475626E-3,-6.8938048E-3,7.782204E-3,-6.2198687E-4,-1.6378675E-3,-3.7996408E-3,-2.1172353E-4,2.187106E-2,-2.4064057E-2,3.4280278E-4],"categories":[],"categories_nodes":[],"categories_segments":[],"categories_sizes":[],"default_left":[0,0,0,0,0,0,0,0,0,0,0,0,0],"id":24,"left_children":[1,3,5,-1,7,9,11,-1,-1,-1,-1,-1,-1],"loss_changes":[5.368387E-3,1.1787196E-3,7.8047835E-3,0E0,2.9508374E-4,7.19085E-2,1.03604935E-1,0E0,0E0,0E0,0E0,0E0,0E0],"parents":[2147483647,0,0,1,1,2,2,4,4,5,5,6,6],"right_children":[2,4,6,-1,8,10,12,-1,-1,-1,-1,-1,-1],"split_conditions":[2.9043E4,4.294E3,9.7103E4,-5.5475626E-3,2.4317E4,9.1981E4,1.04845E5,-1.6378675E-3,-3.7996408E-3,-2.1172353E-4,2.187106E-2,-2.4064057E-2,3.4280278E-4],"split_indices":[0,0,0,0,0,0,0,0,0,0,0,0,0],"split_type":[0,0,0,0,0,0,0,0,0,0,0,0,0],"sum_hessian":[9.19E2,5.4E1,8.65E2,1.1E1,4.3E1,1.29E2,7.36E2,3.6E1,7E0,1.15E2,1.4E1,1.5E1,7.21E2],"tree_param":{"num_deleted":"0","num_feature":"1","num_nodes":"13","size_leaf_vector":"1"}},{"base_weights":[7.2052794E-6,-8.1783184E-4,5.1185116E-3,5.6456606E-4,-2.0941434E-2,3.751871E-2,-1.9600077E-3,-1.8670553E-4,3.290713E-2,-4.067334E-2,1.13244496E-4,3.19376E-3,1.8379498E-2,-4.4391777E-2,1.1188239E-3],"categories":[],"categories_nodes":[],"categories_segments":[],"categories_sizes":[],"default_left":[0,0,0,0,0,0,0,0,0,0,0,0,0,0,0],"id":25,"left_children":[1,3,5,7,9,11,13,-1,-1,-1,-1,-1,-1,-1,-1],"loss_changes":[3.8838421E-3,2.2072151E-2,2.9429747E-2,9.630417E-2,1.24691255E-1,1.40247755E-2,8.8608906E-2,0E0,0E0,0E0,0E0,0E0,0E0,0E0,0E0],"parents":[2147483647,0,0,1,1,2,2,3,3,4,4,5,5,6,6],"right_children":[2,4,6,8,10,12,14,-1,-1,-1,-1,-1,-1,-1,-1],"split_conditions":[4.3001E5,4.01081E5,4.43165E5,3.96013E5,4.07258E5,4.37229E5,4.47162E5,-1.8670553E-4,3.290713E-2,-4.067334E-2,1.13244496E-4,3.19376E-3,1.8379498E-2,-4.4391777E-2,1.1188239E-3],"split_indices":[0,0,0,0,0,0,0,0,0,0,0,0,0,0,0],"split_type":[0,0,0,0,0,0,0,0,0,0,0,0,0,0,0],"sum_hessian":[9.19E2,7.92E2,1.27E2,7.42E2,5E1,2.2E1,1.05E2,7.35E2,7E0,7E0,4.3E1,1.1E1,1.1E1,3E0,1.02E2],"tree_param":{"num_deleted":"0","num_feature":"1","num_nodes":"15","size_leaf_vector":"1"}},{"base_weights":[-2.6994161E-5,-2.4893525E-4,1.5476814E-2,4.69523E-4,-7.690847E-3,2.7918578E-3,6.337452E-3,-1.0813968E-4,1.7102385E-2,-2.1735407E-2,-1.4653534E-4],"categories":[],"categories_nodes":[],"categories_segments":[],"categories_sizes":[],"default_left":[0,0,0,0,0,0,0,0,0,0,0],"id":26,"left_children":[1,3,5,7,9,-1,-1,-1,-1,-1,-1],"loss_changes":[3.1695103E-3,4.8584165E-3,2.5648205E-4,3.8922407E-2,3.7279073E-2,0E0,0E0,0E0,0E0,0E0,0E0],"parents":[2147483647,0,0,1,1,2,2,3,3,4,4],"right_children":[2,4,6,8,10,-1,-1,-1,-1,-1,-1],"split_conditions":[4.94428E5,4.55548E5,4.97896E5,4.47162E5,4.60016E5,2.7918578E-3,6.337452E-3,-1.0813968E-4,1.7102385E-2,-2.1735407E-2,-1.4653534E-4],"split_indices":[0,0,0,0,0,0,0,0,0,0,0],"split_type":[0,0,0,0,0,0,0,0,0,0,0],"sum_hessian":[9.19E2,9.07E2,1.2E1,8.28E2,7.9E1,7E0,5E0,8.17E2,1.1E1,7E0,7.2E1],"tree_param":{"num_deleted":"0","num_feature":"1","num_nodes":"11","size_leaf_vector":"1"}},{"base_weights":[-1.4223813E-5,-9.119426E-3,3.3480785E-4,-4.3341373E-3,-6.9244755E-3,4.7364878E-3,-5.6748313E-4,-2.555431E-3,-1.618823E-3,-6.3468096E-6,1.7954288E-2,-2.0211302E-2,1.6124667E-4],"categories":[],"categories_nodes":[],"categories_segments":[],"categories_sizes":[],"default_left":[0,0,0,0,0,0,0,0,0,0,0,0,0],"id":27,"left_children":[1,3,5,-1,7,9,11,-1,-1,-1,-1,-1,-1],"loss_changes":[2.926817E-3,2.9755826E-4,3.5254932E-3,0E0,1.7363811E-5,3.9593335E-2,5.4438617E-2,0E0,0E0,0E0,0E0,0E0,0E0],"parents":[2147483647,0,0,1,1,2,2,4,4,5,5,6,6],"right_children":[2,4,6,-1,8,10,12,-1,-1,-1,-1,-1,-1],"split_conditions":[1.8485E4,3.091E3,9.7103E4,-4.3341373E-3,1.1065E4,9.2778E4,1.01937E5,-2.555431E-3,-1.618823E-3,-6.3468096E-6,1.7954288E-2,-2.0211302E-2,1.6124667E-4],"split_indices":[0,0,0,0,0,0,0,0,0,0,0,0,0],"split_type":[0,0,0,0,0,0,0,0,0,0,0,0,0],"sum_hessian":[9.19E2,3.3E1,8.86E2,8E0,2.5E1,1.5E2,7.36E2,1E1,1.5E1,1.39E2,1.1E1,1.1E1,7.25E2],"tree_param":{"num_deleted":"0","num_feature":"1","num_nodes":"13","size_leaf_vector":"1"}},{"base_weights":[-2.1445438E-5,1.1216655E-3,-2.61161E-3,-1.9920732E-4,3.1599123E-2,-7.0703E-2,1.2092199E-3,4.0256802E-4,-2.8127646E-3,-3.0118646E-2,-1.523366E-2,5.8027436E-3,-4.258383E-4],"categories":[],"categories_nodes":[],"categories_segments":[],"categories_sizes":[],"default_left":[0,0,0,0,0,0,0,0,0,0,0,0,0],"id":28,"left_children":[1,3,5,7,-1,9,11,-1,-1,-1,-1,-1,-1],"loss_changes":[2.7269071E-3,8.797709E-2,7.34522E-2,8.950438E-3,0E0,3.7759915E-3,1.2802092E-2,0E0,0E0,0E0,0E0,0E0,0E0],"parents":[2147483647,0,0,1,1,2,2,3,3,5,5,6,6],"right_children":[2,4,6,8,-1,10,12,-1,-1,-1,-1,-1,-1],"split_conditions":[3.41906E5,3.36861E5,3.47216E5,2.85124E5,3.1599123E-2,3.44587E5,3.66217E5,4.0256802E-4,-2.8127646E-3,-3.0118646E-2,-1.523366E-2,5.8027436E-3,-4.258383E-4],"split_indices":[0,0,0,0,0,0,0,0,0,0,0,0,0],"split_type":[0,0,0,0,0,0,0,0,0,0,0,0,0],"sum_hessian":[9.19E2,6.38E2,2.81E2,6.31E2,7E0,1.4E1,2.67E2,5.41E2,9E1,4E0,1E1,3.3E1,2.34E2],"tree_param":{"num_deleted":"0","num_feature":"1","num_nodes":"13","size_leaf_vector":"1"}},{"base_weights":[-2.6623893E-5,-1.8921547E-3,1.7480582E-3,3.49404E-4,-3.837403E-2,4.6662632E-2,-1.3547689E-4,-4.7468444E-4,2.004074E-2,-1.9891184E-2,-4.041548E-3,6.127203E-3,2.4056323E-2,-2.62107E-2,4.2781574E-4],"categories":[],"categories_nodes":[],"categories_segments":[],"categories_sizes":[],"default_left":[0,0,0,0,0,0,0,0,0,0,0,0,0,0,0],"id":29,"left_children":[1,3,5,7,9,11,13,-1,-1,-1,-1,-1,-1,-1,-1],"loss_changes":[3.049174E-3,3.673095E-2,3.993666E-2,5.4533057E-2,1.7190196E-2,1.5075643E-2,6.196743E-2,0E0,0E0,0E0,0E0,0E0,0E0,0E0,0E0],"parents":[2147483647,0,0,1,1,2,2,3,3,4,4,5,5,6,6],"right_children":[2,4,6,8,10,12,14,-1,-1,-1,-1,-1,-1,-1,-1],"split_conditions":[2.389E5,2.26444E5,2.511E5,2.19438E5,2.32527E5,2.47387E5,2.54631E5,-4.7468444E-4,2.004074E-2,-1.9891184E-2,-4.041548E-3,6.127203E-3,2.4056323E-2,-2.62107E-2,4.2781574E-4],"split_indices":[0,0,0,0,0,0,0,0,0,0,0,0,0,0,0],"split_type":[0,0,0,0,0,0,0,0,0,0,0,0,0,0,0],"sum_hessian":[9.19E2,4.48E2,4.71E2,4.23E2,2.5E1,1.8E1,4.53E2,4.12E2,1.1E1,1.1E1,1.4E1,1.1E1,7E0,7E0,4.46E2],"tree_param":{"num_deleted":"0","num_feature":"1","num_nodes":"15","size_leaf_vector":"1"}},{"base_weights":[-1.8628902E-5,1.0306144E-3,-2.3961032E-3,-2.1953812E-4,6.636938E-2,-6.007548E-2,1.6680679E-4,1.6340968E-4,-5.3806547E-3,1.0678597E-2,2.3192097E-2,-2.2992868E-2,-1.2663425E-2,3.0747917E-3,-4.264081E-4],"categories":[],"categories_nodes":[],"categories_segments":[],"categories_sizes":[],"default_left":[0,0,0,0,0,0,0,0,0,0,0,0,0,0,0],"id":30,"left_children":[1,3,5,7,9,11,13,-1,-1,-1,-1,-1,-1,-1,-1],"loss_changes":[2.2974545E-3,5.2210268E-2,4.1697253E-2,8.51239E-3,1.2873709E-3,3.1633303E-4,4.3540075E-3,0E0,0E0,0E0,0E0,0E0,0E0,0E0,0E0],"parents":[2147483647,0,0,1,1,2,2,3,3,4,4,5,5,6,6],"right_children":[2,4,6,8,10,12,14,-1,-1,-1,-1,-1,-1,-1,-1],"split_conditions":[3.41906E5,3.35244E5,3.46733E5,3.25195E5,3.36861E5,3.44587E5,3.66217E5,1.6340968E-4,-5.3806547E-3,1.0678597E-2,2.3192097E-2,-2.2992868E-2,-1.2663425E-2,3.0747917E-3,-4.264081E-4],"split_indices":[0,0,0,0,0,0,0,0,0,0,0,0,0,0,0],"split_type":[0,0,0,0,0,0,0,0,0,0,0,0,0,0,0],"sum_hessian":[9.19E2,6.38E2,2.81E2,6.27E2,1.1E1,1.1E1,2.7E2,6.02E2,2.5E1,4E0,7E0,4E0,7E0,3.6E1,2.34E2],"tree_param":{"num_deleted":"0","num_feature":"1","num_nodes":"15","size_leaf_vector":"1"}},{"base_weights":[-1.7801976E-5,-4.334365E-4,5.6430274E-3,3.0032027E-4,-5.218832E-2,1.5992977E-2,2.371184E-3,-1.8934472E-5,1.845463E-2,-2.8375842E-2,-8.263843E-3,-1.050047E-2,1.6997083E-3],"categories":[],"categories_nodes":[],"categories_segments":[],"categories_sizes":[],"default_left":[0,0,0,0,0,0,0,0,0,0,0,0,0],"id":31,"left_children":[1,3,5,7,9,-1,11,-1,-1,-1,-1,-1,-1],"loss_changes":[2.1670552E-3,3.259865E-2,9.698984E-3,1.8847704E-2,9.931814E-3,0E0,7.5858016E-3,0E0,0E0,0E0,0E0,0E0,0E0],"parents":[2147483647,0,0,1,1,2,2,3,3,4,4,6,6],"right_children":[2,4,6,8,10,-1,12,-1,-1,-1,-1,-1,-1],"split_conditions":[4.71923E5,4.65052E5,4.74111E5,4.62348E5,4.67689E5,1.5992977E-2,4.75168E5,-1.8934472E-5,1.845463E-2,-2.8375842E-2,-8.263843E-3,-1.050047E-2,1.6997083E-3],"split_indices":[0,0,0,0,0,0,0,0,0,0,0,0,0],"split_type":[0,0,0,0,0,0,0,0,0,0,0,0,0],"sum_hessian":[9.19E2,8.57E2,6.2E1,8.46E2,1.1E1,3E0,5.9E1,8.42E2,4E0,3E0,8E0,4E0,5.5E1],"tree_param":{"num_deleted":"0","num_feature":"1","num_nodes":"13","size_leaf_vector":"1"}},{"base_weights":[-2.4378294E-5,-1.3258584E-3,1.6935058E-3,-3.340565E-5,-1.1709472E-2,6.817027E-2,-1.6435708E-3,-3.1806258E-4,1.7703582E-2,-1.9368295E-2,-9.568327E-4,9.596694E-3,3.417628E-2,-3.7442844E-2,4.0461344E-4],"categories":[],"categories_nodes":[],"categories_segments":[],"categories_sizes":[],"default_left":[0,0,0,0,0,0,0,0,0,0,0,0,0,0,0],"id":32,"left_children":[1,3,5,7,9,11,13,-1,-1,-1,-1,-1,-1,-1,-1],"loss_changes":[2.059174E-3,7.031862E-3,8.818175E-2,2.8375806E-2,2.5911279E-2,2.7806818E-2,1.3984771E-1,0E0,0E0,0E0,0E0,0E0,0E0,0E0,0E0],"parents":[2147483647,0,0,1,1,2,2,3,3,4,4,5,5,6,6],"right_children":[2,4,6,8,10,12,14,-1,-1,-1,-1,-1,-1,-1,-1],"split_conditions":[2.79891E5,2.511E5,2.85124E5,2.47387E5,2.54631E5,2.83499E5,2.88946E5,-3.1806258E-4,1.7703582E-2,-1.9368295E-2,-9.568327E-4,9.596694E-3,3.417628E-2,-3.7442844E-2,4.0461344E-4],"split_indices":[0,0,0,0,0,0,0,0,0,0,0,0,0,0,0],"split_type":[0,0,0,0,0,0,0,0,0,0,0,0,0,0,0],"sum_hessian":[9.19E2,5.23E2,3.96E2,4.66E2,5.7E1,1.8E1,3.78E2,4.59E2,7E0,7E0,5E1,1.1E1,7E0,8E0,3.7E2],"tree_param":{"num_deleted":"0","num_feature":"1","num_nodes":"15","size_leaf_vector":"1"}},{"base_weights":[-1.2952459E-5,9.795442E-4,-2.261862E-3,-5.3955242E-5,4.397672E-2,-3.905266E-2,3.9452856E-4,1.8917906E-4,-5.399634E-3,9.343005E-3,2.1444798E-2,-1.7567111E-2,-8.984309E-3,4.52117E-3,-4.442061E-4],"categories":[],"categories_nodes":[],"categories_segments":[],"categories_sizes":[],"default_left":[0,0,0,0,0,0,0,0,0,0,0,0,0,0,0],"id":33,"left_children":[1,3,5,7,9,11,13,-1,-1,-1,-1,-1,-1,-1,-1],"loss_changes":[2.0556878E-3,2.8397974E-2,2.7575474E-2,7.688954E-3,3.0687004E-3,1.6204976E-3,7.287788E-3,0E0,0E0,0E0,0E0,0E0,0E0,0E0,0E0],"parents":[2147483647,0,0,1,1,2,2,3,3,4,4,5,5,6,6],"right_children":[2,4,6,8,10,12,14,-1,-1,-1,-1,-1,-1,-1,-1],"split_conditions":[3.41906E5,3.34288E5,3.48373E5,3.25195E5,3.39609E5,3.44587E5,3.66217E5,1.8917906E-4,-5.399634E-3,9.343005E-3,2.1444798E-2,-1.7567111E-2,-8.984309E-3,4.52117E-3,-4.442061E-4],"split_indices":[0,0,0,0,0,0,0,0,0,0,0,0,0,0,0],"split_type":[0,0,0,0,0,0,0,0,0,0,0,0,0,0,0],"sum_hessian":[9.19E2,6.38E2,2.81E2,6.24E2,1.4E1,1.8E1,2.63E2,6.02E2,2.2E1,1.1E1,3E0,4E0,1.4E1,2.9E1,2.34E2],"tree_param":{"num_deleted":"0","num_feature":"1","num_nodes":"15","size_leaf_vector":"1"}},{"base_weights":[-5.6468307E-6,-1.3497698E-3,1.2729905E-3,2.7519252E-4,-2.779724E-2,2.7598243E-2,1.6846898E-4,-2.7099118E-4,1.8500976E-2,-1.7816164E-2,-3.9099567E-3,4.437983E-3,1.3006774E-2,-1.4333717E-2,3.07864E-4],"categories":[],"categories_nodes":[],"categories_segments":[],"categories_sizes":[],"default_left":[0,0,0,0,0,0,0,0,0,0,0,0,0,0,0],"id":34,"left_children":[1,3,5,7,9,11,13,-1,-1,-1,-1,-1,-1,-1,-1],"loss_changes":[1.5828724E-3,1.9303938E-2,1.3719604E-2,3.0733572E-2,1.1352288E-2,3.1923773E-3,1.872056E-2,0E0,0E0,0E0,0E0,0E0,0E0,0E0,0E0],"parents":[2147483647,0,0,1,1,2,2,3,3,4,4,5,5,6,6],"right_children":[2,4,6,8,10,12,14,-1,-1,-1,-1,-1,-1,-1,-1],"split_conditions":[2.389E5,2.26444E5,2.511E5,2.21584E5,2.29372E5,2.47387E5,2.54631E5,-2.7099118E-4,1.8500976E-2,-1.7816164E-2,-3.9099567E-3,4.437983E-3,1.3006774E-2,-1.4333717E-2,3.07864E-4],"split_indices":[0,0,0,0,0,0,0,0,0,0,0,0,0,0,0],"split_type":[0,0,0,0,0,0,0,0,0,0,0,0,0,0,0],"sum_hessian":[9.19E2,4.48E2,4.71E2,4.23E2,2.5E1,1.8E1,4.53E2,4.16E2,7E0,7E0,1.8E1,1.1E1,7E0,7E0,4.46E2],"tree_param":{"num_deleted":"0","num_feature":"1","num_nodes":"15","size_leaf_vector":"1"}},{"base_weights":[-4.1097655E-6,8.633862E-4,-1.969804E-3,1.7044779E-4,3.7055213E-2,-2.4942342E-2,3.6193055E-4,-2.687596E-4,1.722945E-3,7.4663484E-3,1.655041E-2,-1.19853625E-2,-5.1930207E-3,5.3356397E-3,-4.0346757E-4],"categories":[],"categories_nodes":[],"categories_segments":[],"categories_sizes":[],"default_left":[0,0,0,0,0,0,0,0,0,0,0,0,0,0,0],"id":35,"left_children":[1,3,5,7,9,11,13,-1,-1,-1,-1,-1,-1,-1,-1],"loss_changes":[1.5705142E-3,1.6018977E-2,1.5114602E-2,3.7368748E-3,1.2716167E-3,2.286788E-3,7.6668113E-3,0E0,0E0,0E0,0E0,0E0,0E0,0E0,0E0],"parents":[2147483647,0,0,1,1,2,2,3,3,4,4,5,5,6,6],"right_children":[2,4,6,8,10,12,14,-1,-1,-1,-1,-1,-1,-1,-1],"split_conditions":[3.41906E5,3.35244E5,3.5339E5,2.81261E5,3.39609E5,3.45818E5,3.66217E5,-2.687596E-4,1.722945E-3,7.4663484E-3,1.655041E-2,-1.19853625E-2,-5.1930207E-3,5.3356397E-3,-4.0346757E-4],"split_indices":[0,0,0,0,0,0,0,0,0,0,0,0,0,0,0],"split_type":[0,0,0,0,0,0,0,0,0,0,0,0,0,0,0],"sum_hessian":[9.19E2,6.38E2,2.81E2,6.27E2,1.1E1,2.5E1,2.56E2,5.27E2,1E2,8E0,3E0,7E0,1.8E1,2.2E1,2.34E2],"tree_param":{"num_deleted":"0","num_feature":"1","num_nodes":"15","size_leaf_vector":"1"}},{"base_weights":[1.1499138E-5,2.063496E-3,-1.0095132E-3,-1.0920793E-3,3.608862E-2,-4.8424393E-2,5.011942E-4,1.2942939E-4,-8.44133E-3,7.995218E-3,2.1119285E-2,-2.1864556E-2,-8.425218E-3,7.305008E-3,-1.2317064E-4],"categories":[],"categories_nodes":[],"categories_segments":[],"categories_sizes":[],"default_left":[0,0,0,0,0,0,0,0,0,0,0,0,0,0,0],"id":36,"left_children":[1,3,5,7,9,11,13,-1,-1,-1,-1,-1,-1,-1,-1],"loss_changes":[1.9295879E-3,3.2894276E-2,4.4076726E-2,1.1590572E-2,6.542772E-3,7.4051656E-3,1.2991453E-2,0E0,0E0,0E0,0E0,0E0,0E0,0E0,0E0],"parents":[2147483647,0,0,1,1,2,2,3,3,4,4,5,5,6,6],"right_children":[2,4,6,8,10,12,14,-1,-1,-1,-1,-1,-1,-1,-1],"split_conditions":[1.65484E5,1.50674E5,1.73765E5,1.46052E5,1.63167E5,1.6948E5,1.8505E5,1.2942939E-4,-8.44133E-3,7.995218E-3,2.1119285E-2,-2.1864556E-2,-8.425218E-3,7.305008E-3,-1.2317064E-4],"split_indices":[0,0,0,0,0,0,0,0,0,0,0,0,0,0,0],"split_type":[0,0,0,0,0,0,0,0,0,0,0,0,0,0,0],"sum_hessian":[9.19E2,3.05E2,6.14E2,2.8E2,2.5E1,1.8E1,5.96E2,2.66E2,1.4E1,2.1E1,4E0,7E0,1.1E1,2.1E1,5.75E2],"tree_param":{"num_deleted":"0","num_feature":"1","num_nodes":"15","size_leaf_vector":"1"}},{"base_weights":[5.4896313E-6,-7.233811E-4,2.4134621E-3,2.8850706E-4,-3.2243013E-2,5.0448608E-2,-1.201241E-3,-5.8714613E-5,1.9883623E-2,-2.1389384E-2,-2.7792552E-3,3.0534747E-3,4.7594264E-2,-1.7920328E-2,7.564522E-4],"categories":[],"categories_nodes":[],"categories_segments":[],"categories_sizes":[],"default_left":[0,0,0,0,0,0,0,0,0,0,0,0,0,0,0],"id":37,"left_children":[1,3,5,7,9,11,13,-1,-1,-1,-1,-1,-1,-1,-1],"loss_changes":[1.6164386E-3,2.2558603E-2,3.721802E-2,2.1933384E-2,1.9083085E-2,6.374339E-2,4.3731485E-2,0E0,0E0,0E0,0E0,0E0,0E0,0E0,0E0],"parents":[2147483647,0,0,1,1,2,2,3,3,4,4,5,5,6,6],"right_children":[2,4,6,8,10,12,14,-1,-1,-1,-1,-1,-1,-1,-1],"split_conditions":[3.76384E5,3.66217E5,3.87971E5,3.62036E5,3.68842E5,3.86289E5,3.93102E5,-5.8714613E-5,1.9883623E-2,-2.1389384E-2,-2.7792552E-3,3.0534747E-3,4.7594264E-2,-1.7920328E-2,7.564522E-4],"split_indices":[0,0,0,0,0,0,0,0,0,0,0,0,0,0,0],"split_type":[0,0,0,0,0,0,0,0,0,0,0,0,0,0,0],"sum_hessian":[9.19E2,7.06E2,2.13E2,6.85E2,2.1E1,1.4E1,1.99E2,6.81E2,4E0,7E0,1.4E1,1.1E1,3E0,1.1E1,1.88E2],"tree_param":{"num_deleted":"0","num_feature":"1","num_nodes":"15","size_leaf_vector":"1"}},{"base_weights":[3.554065E-5,6.9195515E-4,-2.7046364E-3,-4.1214467E-4,6.798438E-2,-1.0008299E-1,1.8668928E-3,9.070642E-5,-1.2992192E-2,1.2693859E-2,2.8638585E-2,-3.5845675E-2,-1.5242708E-2,1.4320362E-2,-4.7545464E-4],"categories":[],"categories_nodes":[],"categories_segments":[],"categories_sizes":[],"default_left":[0,0,0,0,0,0,0,0,0,0,0,0,0,0,0],"id":38,"left_children":[1,3,5,7,9,11,13,-1,-1,-1,-1,-1,-1,-1,-1],"loss_changes":[1.6566681E-3,5.52311E-2,7.942675E-2,2.2447847E-2,4.425425E-3,1.5773922E-3,2.7148928E-2,0E0,0E0,0E0,0E0,0E0,0E0,0E0,0E0],"parents":[2147483647,0,0,1,1,2,2,3,3,4,4,5,5,6,6],"right_children":[2,4,6,8,10,12,14,-1,-1,-1,-1,-1,-1,-1,-1],"split_conditions":[4.01081E5,3.93102E5,4.07258E5,3.87971E5,3.97483E5,4.03752E5,4.15614E5,9.070642E-5,-1.2992192E-2,1.2693859E-2,2.8638585E-2,-3.5845675E-2,-1.5242708E-2,1.4320362E-2,-4.7545464E-4],"split_indices":[0,0,0,0,0,0,0,0,0,0,0,0,0,0,0],"split_type":[0,0,0,0,0,0,0,0,0,0,0,0,0,0,0],"sum_hessian":[9.19E2,7.42E2,1.77E2,7.31E2,1.1E1,7E0,1.7E2,7.2E2,1.1E1,7E0,4E0,4E0,3E0,1.1E1,1.59E2],"tree_param":{"num_deleted":"0","num_feature":"1","num_nodes":"15","size_leaf_vector":"1"}},{"base_weights":[1.5416299E-5,-1.1704656E-4,1.2081241E-2,3.8185966E-4,-5.0986875E-3,1.982403E-3,4.3886187E-3,-6.6848275E-5,1.2470866E-2,-2.1421451E-2,-2.5126664E-4],"categories":[],"categories_nodes":[],"categories_segments":[],"categories_sizes":[],"default_left":[0,0,0,0,0,0,0,0,0,0,0],"id":39,"left_children":[1,3,5,7,9,-1,-1,-1,-1,-1,-1],"loss_changes":[1.471826E-3,2.2661206E-3,4.2763073E-5,2.0656064E-2,2.3390954E-2,0E0,0E0,0E0,0E0,0E0,0E0],"parents":[2147483647,0,0,1,1,2,2,3,3,4,4],"right_children":[2,4,6,8,10,-1,-1,-1,-1,-1,-1],"split_conditions":[4.95681E5,4.55548E5,4.97896E5,4.47162E5,4.58271E5,1.982403E-3,4.3886187E-3,-6.6848275E-5,1.2470866E-2,-2.1421451E-2,-2.5126664E-4],"split_indices":[0,0,0,0,0,0,0,0,0,0,0],"split_type":[0,0,0,0,0,0,0,0,0,0,0],"sum_hessian":[9.19E2,9.1E2,9E0,8.28E2,8.2E1,4E0,5E0,8.17E2,1.1E1,4E0,7.8E1],"tree_param":{"num_deleted":"0","num_feature":"1","num_nodes":"11","size_leaf_vector":"1"}},{"base_weights":[7.5518124E-6,1.0351187E-3,-1.4619702E-3,-4.447418E-4,7.2512455E-2,-2.8008081E-2,7.713092E-4,-2.0838888E-4,7.809706E-3,1.4580292E-2,3.0662192E-2,3.7469603E-2,-1.7399919E-4],"categories":[],"categories_nodes":[],"categories_segments":[],"categories_sizes":[],"default_left":[0,0,0,0,0,0,0,0,0,0,0,0,0],"id":40,"left_children":[1,3,5,7,9,-1,11,-1,-1,-1,-1,-1,-1],"loss_changes":[1.390743E-3,5.7363108E-2,7.785591E-2,3.537955E-3,2.8431527E-3,0E0,6.2301792E-2,0E0,0E0,0E0,0E0,0E0,0E0],"parents":[2147483647,0,0,1,1,2,2,3,3,4,4,6,6],"right_children":[2,4,6,8,10,-1,12,-1,-1,-1,-1,-1,-1],"split_conditions":[2.85124E5,2.82046E5,2.88946E5,2.81261E5,2.84468E5,-2.8008081E-2,2.90985E5,-2.0838888E-4,7.809706E-3,1.4580292E-2,3.0662192E-2,3.7469603E-2,-1.7399919E-4],"split_indices":[0,0,0,0,0,0,0,0,0,0,0,0,0],"split_type":[0,0,0,0,0,0,0,0,0,0,0,0,0],"sum_hessian":[9.19E2,5.41E2,3.78E2,5.31E2,1E1,8E0,3.7E2,5.27E2,4E0,7E0,3E0,3E0,3.67E2],"tree_param":{"num_deleted":"0","num_feature":"1","num_nodes":"13","size_leaf_vector":"1"}},{"base_weights":[7.275746E-5,1.7548929E-3,-7.643258E-4,-4.8879858E-5,3.675134E-2,-3.526084E-2,3.3483354E-4,5.372534E-4,-1.9127029E-3,6.4045344E-3,1.4268097E-2,-1.6061246E-2,-6.0414015E-3,5.282788E-3,-9.766085E-5],"categories":[],"categories_nodes":[],"categories_segments":[],"categories_sizes":[],"default_left":[0,0,0,0,0,0,0,0,0,0,0,0,0,0,0],"id":41,"left_children":[1,3,5,7,9,11,13,-1,-1,-1,-1,-1,-1,-1,-1],"loss_changes":[1.2967817E-3,1.9318243E-2,2.3330864E-2,3.4101696E-3,1.4820043E-3,4.1733608E-3,6.816027E-3,0E0,0E0,0E0,0E0,0E0,0E0,0E0,0E0],"parents":[2147483647,0,0,1,1,2,2,3,3,4,4,5,5,6,6],"right_children":[2,4,6,8,10,12,14,-1,-1,-1,-1,-1,-1,-1,-1],"split_conditions":[1.65484E5,1.57125E5,1.73765E5,1.20389E5,1.60875E5,1.6948E5,1.8505E5,5.372534E-4,-1.9127029E-3,6.4045344E-3,1.4268097E-2,-1.6061246E-2,-6.0414015E-3,5.282788E-3,-9.766085E-5],"split_indices":[0,0,0,0,0,0,0,0,0,0,0,0,0,0,0],"split_type":[0,0,0,0,0,0,0,0,0,0,0,0,0,0,0],"sum_hessian":[9.19E2,3.05E2,6.14E2,2.91E2,1.4E1,1.8E1,5.96E2,2.26E2,6.5E1,7E0,7E0,7E0,1.1E1,2.1E1,5.75E2],"tree_param":{"num_deleted":"0","num_feature":"1","num_nodes":"15","size_leaf_vector":"1"}},{"base_weights":[5.3493233E-5,-4.199343E-3,4.4142554E-4,-2.507676E-3,-1.0492092E-2,2.9694062E-2,5.507012E-5,-1.2891216E-3,7.3538483E-3,-5.2603697E-3,-2.0050162E-3,3.297195E-3,1.0600204E-2,-1.0166498E-2,1.2745403E-4],"categories":[],"categories_nodes":[],"categories_segments":[],"categories_sizes":[],"default_left":[0,0,0,0,0,0,0,0,0,0,0,0,0,0,0],"id":42,"left_children":[1,3,5,7,9,11,13,-1,-1,-1,-1,-1,-1,-1,-1],"loss_changes":[1.5196811E-3,7.933723E-4,9.537181E-3,3.103056E-3,3.1197316E-4,7.720059E-4,1.0482325E-2,0E0,0E0,0E0,0E0,0E0,0E0,0E0,0E0],"parents":[2147483647,0,0,1,1,2,2,3,3,4,4,5,5,6,6],"right_children":[2,4,6,8,10,12,14,-1,-1,-1,-1,-1,-1,-1,-1],"split_conditions":[4.0892E4,3.5017E4,4.5814E4,3.3072E4,3.666E4,4.3306E4,4.9385E4,-1.2891216E-3,7.3538483E-3,-5.2603697E-3,-2.0050162E-3,3.297195E-3,1.0600204E-2,-1.0166498E-2,1.2745403E-4],"split_indices":[0,0,0,0,0,0,0,0,0,0,0,0,0,0,0],"split_type":[0,0,0,0,0,0,0,0,0,0,0,0,0,0,0],"sum_hessian":[9.19E2,7.6E1,8.43E2,6.1E1,1.5E1,1E1,8.33E2,5.8E1,3E0,4E0,1.1E1,3E0,7E0,8E0,8.25E2],"tree_param":{"num_deleted":"0","num_feature":"1","num_nodes":"15","size_leaf_vector":"1"}},{"base_weights":[4.030655E-5,5.9582863E-4,-2.2787566E-3,-2.350067E-4,5.1227134E-2,-7.6259315E-2,1.1956482E-3,8.42259E-5,-9.361196E-3,9.417165E-3,2.1816075E-2,-2.7191993E-2,-1.17656E-2,1.04403505E-2,-3.9967152E-4],"categories":[],"categories_nodes":[],"categories_segments":[],"categories_sizes":[],"default_left":[0,0,0,0,0,0,0,0,0,0,0,0,0,0,0],"id":43,"left_children":[1,3,5,7,9,11,13,-1,-1,-1,-1,-1,-1,-1,-1],"loss_changes":[1.1865853E-3,3.126728E-2,4.5844015E-2,1.1700668E-2,2.8334744E-3,7.065721E-4,1.4572972E-2,0E0,0E0,0E0,0E0,0E0,0E0,0E0,0E0],"parents":[2147483647,0,0,1,1,2,2,3,3,4,4,5,5,6,6],"right_children":[2,4,6,8,10,12,14,-1,-1,-1,-1,-1,-1,-1,-1],"split_conditions":[4.01081E5,3.93102E5,4.07258E5,3.87971E5,3.97483E5,4.03752E5,4.15614E5,8.42259E-5,-9.361196E-3,9.417165E-3,2.1816075E-2,-2.7191993E-2,-1.17656E-2,1.04403505E-2,-3.9967152E-4],"split_indices":[0,0,0,0,0,0,0,0,0,0,0,0,0,0,0],"split_type":[0,0,0,0,0,0,0,0,0,0,0,0,0,0,0],"sum_hessian":[9.19E2,7.42E2,1.77E2,7.31E2,1.1E1,7E0,1.7E2,7.2E2,1.1E1,7E0,4E0,4E0,3E0,1.1E1,1.59E2],"tree_param":{"num_deleted":"0","num_feature":"1","num_nodes":"15","size_leaf_vector":"1"}},{"base_weights":[2.0596679E-5,-4.5699472E-4,2.9792637E-3,4.4658387E-4,-1.3611934E-2,3.1479385E-2,-1.9705687E-3,-1.4631147E-4,7.869046E-3,-1.7475361E-2,-1.5559024E-3,2.584267E-3,1.8552661E-2,-1.5253473E-2,5.5338856E-4],"categories":[],"categories_nodes":[],"categories_segments":[],"categories_sizes":[],"default_left":[0,0,0,0,0,0,0,0,0,0,0,0,0,0,0],"id":44,"left_children":[1,3,5,7,9,11,13,-1,-1,-1,-1,-1,-1,-1,-1],"loss_changes":[1.3013525E-3,9.43209E-3,1.8119095E-2,1.791114E-2,1.8879615E-2,1.2658041E-2,2.0604964E-2,0E0,0E0,0E0,0E0,0E0,0E0,0E0,0E0],"parents":[2147483647,0,0,1,1,2,2,3,3,4,4,5,5,6,6],"right_children":[2,4,6,8,10,12,14,-1,-1,-1,-1,-1,-1,-1,-1],"split_conditions":[4.3001E5,4.01081E5,4.40286E5,3.86289E5,4.07258E5,4.37229E5,4.47162E5,-1.4631147E-4,7.869046E-3,-1.7475361E-2,-1.5559024E-3,2.584267E-3,1.8552661E-2,-1.5253473E-2,5.5338856E-4],"split_indices":[0,0,0,0,0,0,0,0,0,0,0,0,0,0,0],"split_type":[0,0,0,0,0,0,0,0,0,0,0,0,0,0,0],"sum_hessian":[9.19E2,7.92E2,1.27E2,7.42E2,5E1,1.8E1,1.09E2,7.17E2,2.5E1,7E0,4.3E1,1.1E1,7E0,7E0,1.02E2],"tree_param":{"num_deleted":"0","num_feature":"1","num_nodes":"15","size_leaf_vector":"1"}},{"base_weights":[9.156985E-6,2.270271E-3,-5.55367E-4,-1.635114E-3,3.6271516E-2,-4.342141E-2,3.9534224E-4,3.6253032E-4,-7.1096406E-3,6.341884E-3,1.633063E-2,-1.70369E-2,-8.014175E-3,6.748574E-3,-1.5861311E-4],"categories":[],"categories_nodes":[],"categories_segments":[],"categories_sizes":[],"default_left":[0,0,0,0,0,0,0,0,0,0,0,0,0,0,0],"id":45,"left_children":[1,3,5,7,9,11,13,-1,-1,-1,-1,-1,-1,-1,-1],"loss_changes":[1.1755975E-3,2.4492292E-2,3.0052232E-2,1.0443339E-2,4.0714946E-3,2.056526E-3,1.4756197E-2,0E0,0E0,0E0,0E0,0E0,0E0,0E0,0E0],"parents":[2147483647,0,0,1,1,2,2,3,3,4,4,5,5,6,6],"right_children":[2,4,6,8,10,12,14,-1,-1,-1,-1,-1,-1,-1,-1],"split_conditions":[9.7103E4,8.8416E4,1.04845E5,7.8216E4,9.4742E4,1.00849E5,1.20389E5,3.6253032E-4,-7.1096406E-3,6.341884E-3,1.633063E-2,-1.70369E-2,-8.014175E-3,6.748574E-3,-1.5861311E-4],"split_indices":[0,0,0,0,0,0,0,0,0,0,0,0,0,0,0],"split_type":[0,0,0,0,0,0,0,0,0,0,0,0,0,0,0],"sum_hessian":[9.19E2,1.83E2,7.36E2,1.65E2,1.8E1,1.5E1,7.21E2,1.47E2,1.8E1,1.1E1,7E0,7E0,8E0,2.8E1,6.93E2],"tree_param":{"num_deleted":"0","num_feature":"1","num_nodes":"15","size_leaf_vector":"1"}},{"base_weights":[3.653775E-6,-1.7654376E-4,6.7383847E-3,2.6794957E-4,-7.5551574E-3,1.3283501E-2,-2.9835224E-3,-2.8927068E-5,1.1548091E-2,-1.6146183E-2,3.0853532E-4,-9.539295E-3,1.191532E-3],"categories":[],"categories_nodes":[],"categories_segments":[],"categories_sizes":[],"default_left":[0,0,0,0,0,0,0,0,0,0,0,0,0],"id":46,"left_children":[1,3,5,7,9,-1,11,-1,-1,-1,-1,-1,-1],"loss_changes":[1.1176849E-3,2.9439556E-3,8.891143E-3,1.1801077E-2,2.0308705E-2,0E0,4.1345083E-3,0E0,0E0,0E0,0E0,0E0,0E0],"parents":[2147483647,0,0,1,1,2,2,3,3,4,4,6,6],"right_children":[2,4,6,8,10,-1,12,-1,-1,-1,-1,-1,-1],"split_conditions":[4.9078E5,4.65052E5,4.91658E5,4.61119E5,4.69755E5,1.3283501E-2,4.93092E5,-2.8927068E-5,1.1548091E-2,-1.6146183E-2,3.0853532E-4,-9.539295E-3,1.191532E-3],"split_indices":[0,0,0,0,0,0,0,0,0,0,0,0,0],"split_type":[0,0,0,0,0,0,0,0,0,0,0,0,0],"sum_hessian":[9.19E2,8.96E2,2.3E1,8.46E2,5E1,4E0,1.9E1,8.39E2,7E0,7E0,4.3E1,3E0,1.6E1],"tree_param":{"num_deleted":"0","num_feature":"1","num_nodes":"13","size_leaf_vector":"1"}},{"base_weights":[3.2312541E-6,-6.2878416E-3,1.9322649E-4,-3.3907394E-3,-4.924322E-3,3.0595122E-3,-4.215176E-4,-1.7111121E-3,-9.234602E-4,-4.7574405E-5,7.983226E-3,-9.093092E-3,1.10669265E-4],"categories":[],"categories_nodes":[],"categories_segments":[],"categories_sizes":[],"default_left":[0,0,0,0,0,0,0,0,0,0,0,0,0],"id":47,"left_children":[1,3,5,-1,7,9,11,-1,-1,-1,-1,-1,-1],"loss_changes":[1.1008669E-3,1.2895651E-4,1.5765465E-3,0E0,1.5536207E-5,1.1979056E-2,1.7422473E-2,0E0,0E0,0E0,0E0,0E0,0E0],"parents":[2147483647,0,0,1,1,2,2,4,4,5,5,6,6],"right_children":[2,4,6,-1,8,10,12,-1,-1,-1,-1,-1,-1],"split_conditions":[1.3733E4,1.647E3,9.7103E4,-3.3907394E-3,1.1065E4,8.8416E4,1.07104E5,-1.7111121E-3,-9.234602E-4,-4.7574405E-5,7.983226E-3,-9.093092E-3,1.10669265E-4],"split_indices":[0,0,0,0,0,0,0,0,0,0,0,0,0],"split_type":[0,0,0,0,0,0,0,0,0,0,0,0,0],"sum_hessian":[9.19E2,2.6E1,8.93E2,4E0,2.2E1,1.57E2,7.36E2,1.4E1,8E0,1.39E2,1.8E1,1.8E1,7.18E2],"tree_param":{"num_deleted":"0","num_feature":"1","num_nodes":"13","size_leaf_vector":"1"}},{"base_weights":[-5.3931403E-6,1.4596267E-3,-7.343211E-4,-6.343155E-4,2.0745039E-2,-2.4156332E-2,1.3439704E-4,1.7028865E-4,-8.9253355E-3,4.74107E-3,1.2687507E-2,-1.46171525E-2,-4.797002E-3,5.0096363E-3,-1.2366934E-4],"categories":[],"categories_nodes":[],"categories_segments":[],"categories_sizes":[],"default_left":[0,0,0,0,0,0,0,0,0,0,0,0,0,0,0],"id":48,"left_children":[1,3,5,7,9,11,13,-1,-1,-1,-1,-1,-1,-1,-1],"loss_changes":[9.835341E-4,1.2370215E-2,1.2516728E-2,9.710994E-3,2.5258074E-3,3.6346838E-3,5.3852936E-3,0E0,0E0,0E0,0E0,0E0,0E0,0E0,0E0],"parents":[2147483647,0,0,1,1,2,2,3,3,4,4,5,5,6,6],"right_children":[2,4,6,8,10,12,14,-1,-1,-1,-1,-1,-1,-1,-1],"split_conditions":[1.65484E5,1.49279E5,1.7469E5,1.46052E5,1.63167E5,1.67356E5,1.8505E5,1.7028865E-4,-8.9253355E-3,4.74107E-3,1.2687507E-2,-1.46171525E-2,-4.797002E-3,5.0096363E-3,-1.2366934E-4],"split_indices":[0,0,0,0,0,0,0,0,0,0,0,0,0,0,0],"split_type":[0,0,0,0,0,0,0,0,0,0,0,0,0,0,0],"sum_hessian":[9.19E2,3.05E2,6.14E2,2.76E2,2.9E1,2.1E1,5.93E2,2.66E2,1E1,2.5E1,4E0,4E0,1.7E1,1.8E1,5.75E2],"tree_param":{"num_deleted":"0","num_feature":"1","num_nodes":"15","size_leaf_vector":"1"}},{"base_weights":[-1.012682E-5,3.3504717E-4,-2.6639632E-3,-2.537856E-4,3.975892E-2,-3.0706717E-2,1.233425E-3,7.631573E-5,-2.7111217E-3,1.3735128E-2,6.650219E-3,2.2043668E-2,-7.2833843E-4],"categories":[],"categories_nodes":[],"categories_segments":[],"categories_sizes":[],"default_left":[0,0,0,0,0,0,0,0,0,0,0,0,0],"id":49,"left_children":[1,3,5,7,9,-1,11,-1,-1,-1,-1,-1,-1],"loss_changes":[8.4364496E-4,1.8929556E-2,4.131122E-2,3.5908842E-3,2.5692396E-4,0E0,2.7422564E-2,0E0,0E0,0E0,0E0,0E0,0E0],"parents":[2147483647,0,0,1,1,2,2,3,3,4,4,6,6],"right_children":[2,4,6,8,10,-1,12,-1,-1,-1,-1,-1,-1],"split_conditions":[4.43165E5,4.37229E5,4.47162E5,4.15614E5,4.40286E5,-3.0706717E-2,4.50911E5,7.631573E-5,-2.7111217E-3,1.3735128E-2,6.650219E-3,2.2043668E-2,-7.2833843E-4],"split_indices":[0,0,0,0,0,0,0,0,0,0,0,0,0],"split_type":[0,0,0,0,0,0,0,0,0,0,0,0,0],"sum_hessian":[9.19E2,8.14E2,1.05E2,8.03E2,1.1E1,3E0,1.02E2,7.6E2,4.3E1,7E0,4E0,4E0,9.8E1],"tree_param":{"num_deleted":"0","num_feature":"1","num_nodes":"13","size_leaf_vector":"1"}}]},"name":"gbtree"},"learner_model_param":{"base_score":"4.153183E0","boost_from_average":"1","num_class":"0","num_feature":"1","num_target":"1"},"objective":{"name":"reg:squarederror","reg_loss_param":{"scale_pos_weight":"1"}}},"version":[2,1,0]}